tree
version=v4
num_class=1
num_tree_per_iteration=1
label_index=0
max_feature_idx=9
objective=regression
feature_names=Column_0 Column_1 Column_2 Column_3 Column_4 Column_5 Column_6 Column_7 Column_8 Column_9
feature_infos=[0:4] [0:705.59000000000003] [0:21] [100:4000] [0:40] [0:9] [0:200] [0:959] [0:0.61648205128205136] [1:105]
tree_sizes=4117 4275 4287 4294 4301 4309 4296 4312 4309 4331 4336 4327 3470 4344 4334 4370 4328 4367 3693 4180 3132 4368 4360 1467 4338 3734 2943 4362 3293 3765 3716 4373 4343 4309 4324 2689 4381 4294 3667 4332 3556 4360 4368 4272 3100 3316 4287 2445 4366 2787 2014 4343 3334 4275 4345 4358 4359 3880 2899 2609 3250 4102 2263 2083 2440 2431 1582 2900 3410 2700 1747 1309 2510 4385 2272 3778 3998 2942 2686 2355 4322 4392 2880 1393 4339 4369 4195 4037 4372 3058 4186 3416 4096 3056 3149 3680 4267 4371 4365 3681

Tree=0
num_leaves=48
num_cat=0
split_feature=8 2 7 5 7 5 7 8 9 8 9 0 9 8 9 8 9 8 8 7 9 8 7 3 8 9 9 9 9 3 8 9 8 3 6 9 3 8 3 5 6 3 9 9 0 7 9
split_gain=5742.19 131.243 112.299 41.7192 68.6237 26.7877 19.256 19.1625 16.1443 23.1329 14.1352 13.1119 18.1109 11.9918 11.9124 11.5073 13.9458 12.982 10.6389 9.75586 7.98448 7.75888 7.68808 39.0626 9.23826 7.34763 7.23427 6.1931 5.54402 5.29611 5.57076 8.84784 7.90488 5.11409 4.63262 4.20891 3.76316 3.72139 3.48659 3.24823 3.087 3.06387 3.01845 2.77971 2.42912 2.275 2.1935
threshold=1.0000000180025095e-35 1.0000000180025095e-35 713.50000000000011 3.0000000000000004 1.0000000180025095e-35 4.5000000000000009 808.50000000000011 0.16870692271528698 15.500000000000002 0.21286320346320348 16.500000000000004 3.5000000000000004 25.500000000000004 0.18865795218271428 12.500000000000002 0.22513442307692313 15.500000000000002 0.088774090511087325 0.14701949432384301 355.50000000000006 12.500000000000002 0.12241095830506422 407.50000000000006 306.00000000000006 0.16188453997728311 13.500000000000002 26.500000000000004 11.500000000000002 13.500000000000002 1775.0000000000002 0.200143332902674 15.500000000000002 0.10168318594212047 306.00000000000006 1.0000000180025095e-35 14.500000000000002 484.00000000000006 0.3473257750444983 637.50000000000011 6.5000000000000009 4.5000000000000009 512.50000000000011 25.500000000000004 13.500000000000002 2.5000000000000004 873.50000000000011 13.500000000000002
decision_type=2 2 2 2 2 2 2 2 2 2 2 2 2 2 2 2 2 2 2 2 2 2 2 2 2 2 2 2 2 2 2 2 2 2 2 2 2 2 2 2 2 2 2 2 2 2 2
left_child=-1 2 3 8 5 35 15 10 9 22 43 -10 21 18 33 16 25 -18 34 -14 41 -13 23 -2 -24 36 -12 37 -20 30 31 46 -33 -11 -6 -5 -4 -9 -32 -29 -16 -17 -19 44 -3 -31 -8
right_child=1 7 6 4 13 -7 29 27 11 14 26 12 19 -15 40 20 17 42 28 -21 -22 -23 24 -25 -26 -27 -28 39 -30 45 38 32 -34 -35 -36 -37 -38 -39 -40 -41 -42 -43 -44 -45 -46 -47 -48
leaf_value=1.2002659063311216 0.84992680181855818 0.85394553024546971 0.86081258581073394 1.1452038018574695 0.90554216349756311 0.98291719978147418 0.8461612790539691 0.81520748652499453 0.98788088135440433 0.88677169598746342 0.89556483667142928 0.87920295908822976 1.0257337054573947 0.97270623421176039 0.97364244713757753 0.8809270916971399 0.87790127585744904 0.92133832196672061 0.9145069118693222 0.94962701104144465 0.95679507029933375 0.93624096036085513 0.85701930228055789 1.0346928473573764 0.90537348878952306 0.84037750129141764 0.84552207988663963 0.89100795708241542 0.82436746025328134 0.93309236581077393 0.86021083571179546 0.85209891389750014 0.92700985361175325 0.93043126672370235 0.96328239587176612 1.0790726585872672 0.90260281099036699 0.88316129552030653 0.90694964781630805 0.93002320827915796 0.94239342706577844 0.92717133623650605 0.96110993762751229 0.82017666212483475 0.81108432699512623 0.87956625845939296 0.81622123855816453
leaf_weight=3953 107 246 137 94 85 94 274 63 265 156 271 221 78 353 297 118 217 148 54 522 223 170 292 81 350 210 204 407 56 63 112 133 99 352 164 66 237 67 151 109 223 113 160 461 68 65 154
leaf_count=3953 107 246 137 94 85 94 274 63 265 156 271 221 78 353 297 118 217 148 54 522 223 170 292 81 350 210 204 407 56 63 112 133 99 352 164 66 237 67 151 109 223 113 160 461 68 65 154
internal_value=1 0.907934 0.921138 0.941948 0.97839 1.06796 0.888658 0.861315 0.930643 0.91876 0.846808 0.948221 0.937616 0.946436 0.938885 0.902785 0.891765 0.915505 0.920605 0.959521 0.929703 0.904002 0.893835 0.929533 0.883381 0.870424 0.874073 0.889385 0.868618 0.867649 0.862343 0.852499 0.884065 0.917024 0.943572 1.11792 0.887295 0.85023 0.887046 0.89925 0.960241 0.903549 0.941999 0.830098 0.844663 0.905911 0.835388
internal_weight=0 8590 6694 4080 966 254 2614 1896 3114 1858 1250 1256 991 712 1028 1563 1109 525 359 600 454 391 830 188 642 584 475 646 110 1051 923 660 232 508 249 160 374 130 263 516 520 231 308 775 314 128 428
internal_count=12543 8590 6694 4080 966 254 2614 1896 3114 1858 1250 1256 991 712 1028 1563 1109 525 359 600 454 391 830 188 642 584 475 646 110 1051 923 660 232 508 249 160 374 130 263 516 520 231 308 775 314 128 428
is_linear=0
shrinkage=1


Tree=1
num_leaves=48
num_cat=0
split_feature=9 2 7 6 7 3 7 9 0 9 3 7 2 7 3 3 4 7 9 0 9 9 6 9 0 7 3 6 5 7 5 4 7 7 7 9 4 3 7 9 2 7 3 4 4 3 0
split_gain=3668.36 83.844 71.8207 27.0416 36.8243 15.3402 11.9724 11.7092 10.7056 12.2703 10.3816 26.4795 5.27219 4.43657 4.41181 4.22387 3.98305 3.94889 3.37435 3.43426 2.98408 8.08384 2.5861 2.2021 2.93456 2.16539 2.09933 2.48672 2.65814 1.74751 1.69517 1.64754 1.29387 1.28184 1.26245 1.54398 1.03122 1.30369 0.935994 1.00239 0.901814 2.1184 1.18029 1.86952 1.12573 0.890958 0.872654
threshold=3.5000000000000004 1.0000000180025095e-35 715.50000000000011 10.500000000000002 1.0000000180025095e-35 974.50000000000011 808.50000000000011 16.500000000000004 3.5000000000000004 25.500000000000004 306.00000000000006 1.0000000180025095e-35 2.5000000000000004 800.50000000000011 695.50000000000011 403.00000000000006 28.500000000000004 384.50000000000006 15.500000000000002 1.0000000180025095e-35 13.500000000000002 14.500000000000002 32.500000000000007 13.500000000000002 1.5000000000000002 873.50000000000011 387.50000000000006 4.5000000000000009 3.0000000000000004 756.50000000000011 3.0000000000000004 23.500000000000004 837.50000000000011 879.50000000000011 797.50000000000011 13.500000000000002 12.500000000000002 637.50000000000011 618.50000000000011 14.500000000000002 1.5000000000000002 622.50000000000011 695.50000000000011 16.500000000000004 21.500000000000004 362.50000000000006 2.5000000000000004
decision_type=2 2 2 2 2 2 2 2 2 2 2 2 2 2 2 2 2 2 2 2 2 2 2 2 2 2 2 2 2 2 2 2 2 2 2 2 2 2 2 2 2 2 2 2 2 2 2
left_child=-1 2 3 5 22 7 14 10 -9 -10 17 -12 13 15 26 38 18 -2 36 -20 -6 -22 -5 24 -14 -21 -4 31 -29 30 -16 -28 -18 -34 35 -31 -8 -38 39 45 42 -42 43 -17 -44 -3 -15
right_child=1 12 6 4 20 -7 16 8 9 -11 11 -13 23 46 29 40 32 -19 19 25 21 -23 -24 -25 -26 -27 27 28 -30 34 -32 -33 33 -35 -36 -37 37 -39 -40 -41 41 -43 44 -45 -46 -47 -48
leaf_value=0.16006795672389157 -0.10503900618343336 -0.1284562259924113 -0.099471676371275727 0.0715122022522727 -0.017701785422301483 0.048152072389986637 -0.1303711450948396 -0.006461985203156227 -0.075621431456361007 -0.032288168294926069 0.040482587630321067 -0.062363710712177126 -0.085541601842223924 -0.12295827372188294 -0.074016121012053723 -0.11995942560416933 -0.06004525787495929 -0.070317608465512493 -0.056847531475107807 -0.094335849270056588 -0.11890649737915182 -0.019654150084045547 0.13322922445024557 -0.14776994767811066 -0.15017570039716435 -0.14201960378028131 -0.07809338421943314 -0.10730380875589439 -0.077456364658197538 -0.061052772895932618 -0.030719710051863851 -0.044428532005523422 -0.10963845001587348 -0.069517278784151038 -0.048163722822084851 -0.095902544571432227 -0.12816845906242805 -0.10253715137182708 -0.13389226577588231 -0.090466310084479695 -0.093817013327659002 -0.13894746887600187 -0.065639156639726345 -0.08841348481259434 -0.090436889561915243 -0.10379361116134427 -0.14896470529196179
leaf_weight=3953 268 144 290 59 227 60 247 302 430 679 108 1526 67 187 54 108 76 260 75 139 51 94 51 195 49 53 124 175 384 100 112 111 77 55 73 105 137 192 111 66 176 55 119 253 194 100 72
leaf_count=3953 268 144 290 59 227 60 247 302 430 679 108 1526 67 187 54 108 76 260 75 139 51 94 51 195 49 53 124 175 384 100 112 111 77 55 73 105 137 192 111 66 176 55 119 253 194 100 72
internal_value=0 -0.0735864 -0.0630325 -0.0465729 -0.00190066 -0.0524996 -0.0892951 -0.0541899 -0.0399663 -0.0490901 -0.0634727 -0.055566 -0.110848 -0.106159 -0.0779528 -0.101466 -0.105785 -0.0879413 -0.111923 -0.0932707 -0.03207 -0.0545636 0.100126 -0.134743 -0.112844 -0.107499 -0.0848555 -0.0795171 -0.0868004 -0.0611002 -0.0448041 -0.0621921 -0.0809089 -0.0929213 -0.0708309 -0.0789027 -0.120569 -0.11321 -0.118076 -0.112412 -0.0937392 -0.104562 -0.0900297 -0.0978511 -0.081009 -0.118349 -0.130188
internal_weight=0 8590 6694 4115 482 3633 2579 3573 1411 1109 2162 1634 1896 1585 1528 1326 1051 528 843 267 372 145 110 311 116 192 1084 794 559 444 166 235 208 132 278 205 576 329 421 310 905 231 674 361 313 244 259
internal_count=12543 8590 6694 4115 482 3633 2579 3573 1411 1109 2162 1634 1896 1585 1528 1326 1051 528 843 267 372 145 110 311 116 192 1084 794 559 444 166 235 208 132 278 205 576 329 421 310 905 231 674 361 313 244 259
is_linear=0
shrinkage=0.200723


Tree=2
num_leaves=48
num_cat=0
split_feature=8 7 5 1 7 8 5 7 8 3 8 9 8 1 8 9 8 3 8 8 1 1 9 9 9 9 9 8 8 5 5 4 1 4 5 3 5 1 8 1 8 9 3 8 1 8 7
split_gain=2343.51 39.4116 42.5034 20.3986 15.8978 15.2609 15.6 13.1109 12.4773 10.0037 10.3611 11.8768 9.66403 8.63607 7.38455 11.4191 8.15889 7.32664 6.75122 30.5963 5.83787 7.59784 5.33265 5.19617 4.69939 4.15127 3.63817 3.53599 3.50053 3.31653 3.30807 3.00617 2.91928 2.91105 2.7024 2.55588 2.22326 2.08061 1.88055 1.62435 1.61121 1.60492 2.77766 1.59404 1.42537 1.33225 1.3079
threshold=1.0000000180025095e-35 771.50000000000011 4.5000000000000009 635.00000000000011 555.50000000000011 0.15230940934065937 3.0000000000000004 355.50000000000006 0.093150931474009963 1456.5000000000002 0.17016885226527798 16.500000000000004 0.11791770833333336 569.5350000000002 0.18428412442756242 16.500000000000004 0.099768228679059337 337.50000000000006 0.18865795218271428 0.14832446845358879 359.50000000000006 473.50000000000006 8.5000000000000018 12.500000000000002 24.500000000000004 15.500000000000002 12.500000000000002 0.22816956832126187 0.24124104265443555 3.0000000000000004 6.5000000000000009 31.500000000000004 587.50000000000011 23.500000000000004 6.5000000000000009 974.50000000000011 7.5000000000000009 647.50000000000011 0.12223148719115721 587.50000000000011 0.13585848766193795 26.500000000000004 556.00000000000011 0.14766538461538464 587.50000000000011 0.23623175824175829 821.50000000000011
decision_type=2 2 2 2 2 2 2 2 2 2 2 2 2 2 2 2 2 2 2 2 2 2 2 2 2 2 2 2 2 2 2 2 2 2 2 2 2 2 2 2 2 2 2 2 2 2 2
left_child=-1 2 3 4 5 6 13 -5 -9 10 11 36 24 -2 15 26 30 32 19 -10 -6 29 -12 35 -13 -8 46 -23 34 -22 41 -28 -7 38 -24 39 40 -20 -18 -16 -4 42 -17 -33 -19 -25 -3
right_child=1 14 9 7 20 17 25 8 18 -11 22 12 -14 -15 23 16 33 44 37 -21 21 27 28 45 -26 -27 31 -29 -30 -31 -32 43 -34 -35 -36 -37 -38 -39 -40 -41 -42 -43 -44 -45 -46 -47 -48
leaf_value=0.12793864807143668 -0.04930285356115733 -0.052070040383794557 -0.11734692458921354 0.060591784071143052 -0.012031721203074202 -0.10000482310132147 0.0873118696741019 -0.12125005495048606 0.0023709421916934142 -0.0054113677289994973 -0.093168288757404544 -0.026139238596157594 -0.008373773928172212 -0.0043028090506762257 -0.11927876312149466 -0.12087478763443997 -0.089215030045501964 -0.054257245843683098 0.0069941142968411784 -0.1237193206630819 -0.089580771134673332 -0.060615034310383883 -0.067436739110681959 -0.056354069769290208 -0.09059831518306781 0.016586774955712799 -0.11773757770161314 -0.039030207508974582 -0.015297193668135117 -0.049085052008903611 -0.051879130896295228 -0.068464468312364371 -0.055935745143072486 -0.020676537747998838 -0.027805600307816352 -0.044952521888722424 -0.12980505833533451 -0.018861505840597242 -0.038528689735141633 -0.08213498811294967 -0.093584149714403805 -0.11421362571245423 -0.063411090937287751 -0.11155206245705201 -0.031562436831155456 -0.029115881313802525 -0.092407047120792854
leaf_weight=3953 333 57 186 83 100 145 61 49 238 75 146 53 90 355 63 53 60 170 328 115 440 1035 291 187 325 74 576 434 97 100 77 88 104 129 91 59 162 203 58 192 301 139 94 57 324 118 75
leaf_count=3953 333 57 186 83 100 145 61 49 238 75 146 53 90 355 63 53 60 170 328 115 440 1035 291 187 325 74 576 434 97 100 77 88 104 129 91 59 162 203 58 192 301 139 94 57 324 118 75
internal_value=0 -0.0588159 -0.0511259 -0.0410303 -0.0479899 -0.0326691 -0.0138419 -0.0158567 -0.0226576 -0.0771898 -0.0802802 -0.0918597 -0.0674861 -0.0260834 -0.0828537 -0.0906295 -0.0696594 -0.0535235 -0.0171926 -0.0387066 -0.059366 -0.0617221 -0.0595853 -0.0644759 -0.0815604 0.048544 -0.105626 -0.054238 -0.0493491 -0.0820816 -0.0888082 -0.111235 -0.0815985 -0.0415176 -0.0579958 -0.0826009 -0.109436 -0.00289043 -0.0643014 -0.0913117 -0.10266 -0.0987507 -0.0841293 -0.0854024 -0.0393724 -0.045816 -0.0749888
internal_weight=0 8590 6508 4691 3675 1566 823 1016 933 1817 1742 1117 468 688 2082 1463 610 743 884 353 2109 2009 625 619 378 135 853 1469 479 540 363 721 249 247 382 314 649 531 118 255 487 286 147 145 494 305 132
internal_count=12543 8590 6508 4691 3675 1566 823 1016 933 1817 1742 1117 468 688 2082 1463 610 743 884 353 2109 2009 625 619 378 135 853 1469 479 540 363 721 249 247 382 314 649 531 118 255 487 286 147 145 494 305 132
is_linear=0
shrinkage=0.200723


Tree=3
num_leaves=48
num_cat=0
split_feature=8 2 7 3 8 8 1 7 3 8 1 1 1 1 4 8 8 8 8 8 8 1 7 5 8 8 4 8 7 4 8 1 5 1 4 8 1 6 8 7 4 3 7 8 2 8 4
split_gain=1497.14 37.4287 32.4794 22.986 17.3546 19.3747 12.4992 19.1598 26.912 12.4477 10.0239 8.82864 10.9819 7.96029 7.75632 7.49776 7.36007 6.59408 6.75492 5.60392 4.16577 4.03655 4.16523 3.57102 3.36524 3.86594 3.22579 3.06964 2.93648 2.66598 2.5595 2.34558 2.32437 2.31741 2.41644 2.35305 2.31582 2.071 2.03284 1.75511 1.71687 1.51253 1.56176 1.43264 1.2556 1.21901 1.21486
threshold=1.0000000180025095e-35 1.0000000180025095e-35 571.50000000000011 887.50000000000011 0.18428412442756242 0.14519170940170942 587.50000000000011 1.0000000180025095e-35 337.50000000000006 0.11880833333333335 386.24575000000004 495.00000000000006 359.50000000000006 635.00000000000011 27.500000000000004 0.11791770833333336 0.17410961081449353 0.23864668387338325 0.14519170940170942 0.17016885226527798 0.17073954766757973 647.50000000000011 727.50000000000011 3.0000000000000004 0.24981144688644691 0.2462041666666667 38.500000000000007 0.23478000738536772 665.50000000000011 27.500000000000004 0.16188453997728311 582.50000000000011 7.5000000000000009 289.00000000000006 16.500000000000004 0.073764848456687224 635.00000000000011 52.500000000000007 0.22303136163458745 800.50000000000011 21.500000000000004 403.00000000000006 715.50000000000011 0.2701496153846154 2.5000000000000004 0.2810354166666667 34.500000000000007
decision_type=2 2 2 2 2 2 2 2 2 2 2 2 2 2 2 2 2 2 2 2 2 2 2 2 2 2 2 2 2 2 2 2 2 2 2 2 2 2 2 2 2 2 2 2 2 2 2
left_child=-1 2 3 6 5 9 15 8 20 33 28 12 -11 24 -10 23 32 18 -9 -12 -8 43 -23 46 25 37 27 -17 -7 -26 -30 41 39 35 -35 -4 -13 -6 -33 44 -40 -18 -43 -15 -3 -31 -2
right_child=1 16 4 -5 13 10 7 17 14 11 19 36 -14 21 -16 26 31 -19 -20 -21 -22 22 -24 -25 29 -27 -28 -29 30 45 -32 38 -34 34 -36 -37 -38 -39 40 -41 -42 42 -44 -45 -46 -47 -48
leaf_value=0.10225843525867177 -0.044582138441776741 -0.06972329037740875 -0.067747190419232731 0.10751059035037709 -0.037253342155741005 -0.027923244926338395 0.0077230433216507952 -0.017507592989031189 0.1449737760828668 0.0055858318930585051 -0.11003770656647985 -0.02701467009605691 -0.085596232650149054 0.0050710091901180762 0.053493944666175561 -0.042063148164898895 -0.087429877401705269 0.0003014520149739662 -0.059312299572196692 -0.057864506907491467 -0.051701525786955339 -0.015022457617423249 -0.077048556197632942 0.018515552482576587 -0.077378624138658758 0.003518188144569548 -0.090554178261208929 -0.091537660214444594 -0.040510667206270945 -0.056531904440181045 -0.081379920170165473 -0.008129657987653886 -0.09955628284704432 -0.07940303609536048 -0.057858806525564188 -0.013577097771922349 -0.0017583818290210797 -0.070639114335346406 -0.019982876671371268 -0.093402409456213364 -0.062022249310550212 -0.046278412499792913 -0.079955946021604177 -0.030489630988784211 -0.091735912744463827 -0.017667031753366418 -0.016871272037522235
leaf_weight=3953 126 761 60 56 688 98 102 335 66 72 444 482 204 295 86 320 85 276 291 102 89 125 67 78 172 88 99 60 91 74 192 65 213 375 476 70 210 84 56 204 130 181 80 54 121 58 129
leaf_count=3953 126 761 60 56 688 98 102 335 66 72 444 482 204 295 86 320 85 276 291 102 89 125 67 78 172 88 99 60 91 74 192 65 213 375 476 70 210 84 56 204 130 181 80 54 121 58 129
internal_value=0 -0.0470102 -0.0399587 -0.0193719 -0.0494545 -0.0589669 -0.0228262 -0.0101901 0.0301897 -0.0476049 -0.0828552 -0.0314564 -0.0618096 -0.0334089 0.0932155 -0.0422006 -0.071906 -0.0255451 -0.0369408 -0.100291 -0.0199669 -0.0132912 -0.036667 -0.0190677 -0.0427591 -0.0363423 -0.0582825 -0.0498749 -0.0578685 -0.0609118 -0.0682382 -0.0534586 -0.0803842 -0.0635394 -0.0673524 -0.0385787 -0.0193502 -0.040886 -0.0386867 -0.0766239 -0.0493652 -0.0641746 -0.056601 -0.00043121 -0.0727432 -0.0394549 -0.0305637
internal_weight=0 8590 6694 2113 4581 2876 2057 1245 343 1949 927 968 276 1705 152 812 1896 902 626 546 191 541 192 333 1164 860 479 380 381 304 283 597 1299 981 851 130 692 772 251 1086 186 346 261 349 882 132 255
internal_count=12543 8590 6694 2113 4581 2876 2057 1245 343 1949 927 968 276 1705 152 812 1896 902 626 546 191 541 192 333 1164 860 479 380 381 304 283 597 1299 981 851 130 692 772 251 1086 186 346 261 349 882 132 255
is_linear=0
shrinkage=0.200723


Tree=4
num_leaves=48
num_cat=0
split_feature=9 2 7 3 6 7 9 7 9 9 9 9 9 3 0 7 3 7 9 3 5 7 3 9 9 3 4 9 4 7 7 7 7 4 7 5 9 2 4 6 2 7 4 4 7 4 7
split_gain=954.481 21.7823 21.4256 22.4006 8.95203 7.04057 4.61249 4.70885 4.4342 9.38964 6.41631 4.21392 3.63149 3.4479 5.53776 3.96806 3.07584 2.88646 2.82008 2.8058 2.70177 1.88826 1.7341 1.72452 3.69833 2.04399 1.6063 1.32515 1.29682 1.29136 1.24121 1.69656 1.5106 1.20024 1.12067 1.01657 0.95602 0.85056 0.832999 0.945418 0.724463 0.975791 0.724033 0.654947 0.66396 0.610569 0.487592
threshold=3.5000000000000004 1.0000000180025095e-35 577.50000000000011 974.50000000000011 32.500000000000007 753.50000000000011 25.500000000000004 1.0000000180025095e-35 26.500000000000004 25.500000000000004 13.500000000000002 27.500000000000004 26.500000000000004 306.00000000000006 3.5000000000000004 1.0000000180025095e-35 1775.0000000000002 857.50000000000011 24.500000000000004 337.50000000000006 3.0000000000000004 830.50000000000011 548.00000000000011 18.500000000000004 26.500000000000004 613.50000000000011 18.500000000000004 13.500000000000002 27.500000000000004 715.50000000000011 824.50000000000011 384.50000000000006 591.50000000000011 7.5000000000000009 683.50000000000011 7.5000000000000009 17.500000000000004 2.5000000000000004 16.500000000000004 32.500000000000007 1.5000000000000002 459.50000000000006 25.500000000000004 12.500000000000002 622.50000000000011 21.500000000000004 632.50000000000011
decision_type=2 2 2 2 2 2 2 2 2 2 2 2 2 2 2 2 2 2 2 2 2 2 2 2 2 2 2 2 2 2 2 2 2 2 2 2 2 2 2 2 2 2 2 2 2 2 2
left_child=-1 2 3 4 6 8 13 -8 9 10 20 42 -9 14 -2 -15 17 22 -12 40 -4 -18 36 27 25 46 33 30 -24 -26 31 35 -33 -11 -27 -21 -7 43 -19 -40 41 -3 -10 44 -29 -45 -25
right_child=1 19 5 -5 -6 16 7 12 11 26 18 -13 -14 15 -16 -17 21 38 -20 23 -22 -23 28 24 29 34 -28 37 -30 -31 -32 32 -34 -35 -36 -37 -38 -39 39 -41 -42 -43 -44 45 -46 -47 -48
leaf_value=0.081885771017791487 -0.03133329996696485 -0.050269437948279531 -0.034292638337351265 0.10988440343102496 0.050317775457575181 -0.059592411930047426 0.038827022425504974 0.0020532384398386544 -0.070972646763089967 0.0068221803877544116 -0.04671231840210914 -0.015714904080834511 -0.049886886613048936 0.0062008614280960449 -0.096025366584066407 -0.024666592136829806 0.0063593145968631609 -0.078062128995691718 -0.084525209729583287 -0.066555766259754942 -0.014644943240131653 -0.037746106371168459 -0.047390585733420712 -0.034563345061186385 -0.050953114366518733 0.0065199172916753922 0.011188368409173716 -0.030938194173280146 -0.031635604843654581 -0.087056406674406575 -0.075702649615075682 -0.016874614353387041 -0.047056276634539144 -0.027302014746137925 -0.030284249510765141 -0.042645209319492977 -0.042603713291671209 -0.079086386309402013 -0.04691757892639576 -0.073124725279136951 -0.088087992205422183 -0.080638279725968084 -0.10281549302210083 -0.081616260203692809 -0.061891918320144804 -0.059435348293021904 -0.060163498408731121
leaf_weight=3961 553 78 812 56 73 460 92 173 66 65 546 51 79 208 59 868 59 150 93 221 432 116 515 69 101 75 199 53 356 66 76 94 231 115 60 106 188 127 123 101 104 94 51 70 59 175 53
leaf_count=3961 553 78 812 56 73 460 92 173 66 65 546 51 79 208 59 868 59 150 93 221 432 116 515 69 101 75 199 53 356 66 76 94 231 115 60 106 188 127 123 101 104 94 51 70 59 175 53
internal_value=0 -0.0372584 -0.0318362 -0.0154098 -0.0187431 -0.039728 -0.0212241 -4.00225e-05 -0.0324021 -0.0300653 -0.0358672 -0.0638646 -0.0142296 -0.0255413 -0.03757 -0.0186996 -0.0483363 -0.05069 -0.0522156 -0.0561424 -0.0274696 -0.0228763 -0.0468008 -0.0529841 -0.041966 -0.0268545 -0.00123959 -0.0568387 -0.0409511 -0.0652215 -0.051427 -0.0485973 -0.0383268 -0.0149794 -0.00983749 -0.0588049 -0.0546636 -0.0649786 -0.066486 -0.0587342 -0.0748629 -0.0668664 -0.0848529 -0.0599599 -0.0472442 -0.0657728 -0.0456847
internal_weight=0 8571 6659 2161 2105 4498 2032 344 2430 2262 1883 168 252 1688 612 1076 2068 1893 639 1912 1244 175 1519 1636 424 257 379 1212 871 167 728 652 325 180 135 327 648 484 374 224 276 172 117 357 112 245 122
internal_count=12532 8571 6659 2161 2105 4498 2032 344 2430 2262 1883 168 252 1688 612 1076 2068 1893 639 1912 1244 175 1519 1636 424 257 379 1212 871 167 728 652 325 180 135 327 648 484 374 224 276 172 117 357 112 245 122
is_linear=0
shrinkage=0.200723


Tree=5
num_leaves=48
num_cat=0
split_feature=8 2 1 1 8 8 9 9 8 8 9 9 0 0 8 9 1 8 9 9 8 8 8 9 1 1 8 9 4 9 8 8 8 4 9 8 4 3 8 8 1 1 1 9 4 3 1
split_gain=609.765 13.9155 7.53 6.97091 5.08853 16.8059 8.54668 5.28742 5.10133 7.59321 5.01244 4.88815 4.86873 4.68764 4.88187 4.70938 3.5467 3.21322 4.9134 4.11644 3.55012 3.03861 2.89252 4.45973 2.73175 2.64949 5.63461 2.81718 2.56784 2.33064 2.31908 1.92031 1.81231 1.74645 1.7115 1.74088 1.70548 1.53844 1.48996 1.48905 1.45485 2.15932 1.34241 1.2392 3.67451 1.51081 1.03724
threshold=1.0000000180025095e-35 1.0000000180025095e-35 479.33500000000009 359.50000000000006 0.21286320346320348 0.14519170940170942 12.500000000000002 12.500000000000002 0.11467034644162855 0.077807559618111269 24.500000000000004 13.500000000000002 2.5000000000000004 1.0000000180025095e-35 0.11243691496963203 27.500000000000004 357.00000000000006 0.17527788461538463 13.500000000000002 18.500000000000004 0.10761148578936043 0.17527788461538463 0.14022583981439121 25.500000000000004 582.50000000000011 457.49500000000006 0.13585848766193795 13.500000000000002 27.500000000000004 12.500000000000002 0.14420805855572544 0.065316693507483273 0.12251024394357528 7.5000000000000009 26.500000000000004 0.1025302403471318 27.500000000000004 556.00000000000011 0.2701496153846154 0.15103262137856729 635.00000000000011 600.50000000000011 535.62500000000011 11.500000000000002 24.500000000000004 337.50000000000006 535.62500000000011
decision_type=2 2 2 2 2 2 2 2 2 2 2 2 2 2 2 2 2 2 2 2 2 2 2 2 2 2 2 2 2 2 2 2 2 2 2 2 2 2 2 2 2 2 2 2 2 2 2
left_child=-1 2 3 16 5 8 -7 12 9 31 -11 36 43 14 -13 28 33 19 24 25 34 39 23 -10 29 26 -3 -28 -15 -19 -16 -4 -18 -2 35 37 -5 -21 40 -8 41 -9 -36 44 -6 -45 -23
right_child=1 17 4 11 7 6 21 38 22 10 -12 13 -14 15 30 -17 32 18 -20 20 -22 46 -24 -25 -26 -27 27 -29 -30 -31 -32 -33 -34 -35 42 -37 -38 -39 -40 -41 -42 -43 -44 45 -46 -47 -48
leaf_value=0.065449418599261275 -0.014551892090834045 -0.070489916339536912 -0.012256895127235812 -0.046175540283168739 -0.051769180356665376 0.012341916564198165 -0.040633093953851084 -0.0045015548575470079 -0.022968187938663395 0.0056278862654939024 -0.053832446677000011 0.015442073732029235 0.0098380951229043237 -0.040744278938605154 -0.049802368377757686 0.013326771776689636 -0.015319335567303929 -0.072478165502721958 0.0088891183301773365 -0.042934054847134126 -0.0041218529493737633 -0.011842121274581849 0.035409833320439801 0.0026359003999862694 -0.023040556172643042 -0.070920350410048683 -0.03772755482723341 0.016702124381691778 -0.077119772369375103 -0.036818124805381935 -0.00069632947286522265 0.033550041329085914 0.03264914044642641 -0.050506910924939565 -0.04680075385178592 -0.063737362227928723 -0.065718932788537882 -6.9850379118958439e-05 -0.036576838953100037 -0.067053834461065498 0.005819963031815905 -0.038283880158302294 -0.08265053312368871 -0.063064133523003232 -0.0025952847478024439 -0.03278945094086505 -0.043021354262030513
leaf_weight=3961 175 219 82 579 97 84 104 570 535 68 357 146 134 259 121 51 51 135 96 62 110 56 60 562 209 397 154 51 112 163 57 67 84 79 131 49 261 74 56 495 447 88 62 80 166 391 185
leaf_count=3961 175 219 82 579 97 84 104 570 535 68 357 146 134 259 121 51 51 135 96 62 110 56 60 562 209 397 154 51 112 163 57 67 84 79 131 49 261 74 56 495 447 88 62 80 166 391 185
internal_value=0 -0.0297798 -0.025446 -0.0358407 -0.021063 -0.0268466 -0.0487044 -0.0134951 -0.0151789 -0.0306493 -0.0443188 -0.0417466 -0.0253455 -0.0299219 -0.0117631 -0.0438638 -0.0117619 -0.0448733 -0.0327496 -0.0504582 -0.0358583 -0.054809 -0.0075039 -0.00985105 -0.0406339 -0.0591363 -0.0481027 -0.0241865 -0.0517256 -0.0529728 -0.0340774 0.00834085 0.0145277 -0.0257348 -0.0450938 -0.0312984 -0.052248 -0.0196109 -0.00463536 -0.0624666 -0.0030166 -0.00901956 -0.0583173 -0.0317687 -0.0207317 -0.0379316 -0.0357764
internal_weight=0 8571 6659 1975 4684 2655 924 2029 1731 574 425 1586 868 746 324 422 389 1912 603 1309 488 840 1157 1097 507 821 424 205 371 298 178 149 135 254 378 185 840 136 1161 599 1105 658 193 734 263 471 241
internal_count=12532 8571 6659 1975 4684 2655 924 2029 1731 574 425 1586 868 746 324 422 389 1912 603 1309 488 840 1157 1097 507 821 424 205 371 298 178 149 135 254 378 185 840 136 1161 599 1105 658 193 734 263 471 241
is_linear=0
shrinkage=0.200723


Tree=6
num_leaves=48
num_cat=0
split_feature=8 7 1 6 7 6 8 4 8 9 8 9 8 0 8 9 4 1 4 8 8 8 9 9 8 9 0 9 1 9 0 9 5 6 9 1 1 0 8 1 8 8 6 9 7 8 5
split_gain=389.544 9.82346 9.78358 7.25315 6.26008 13.6785 15.599 12.44 9.62656 16.9051 11.231 6.71838 6.09557 5.72502 4.64037 4.55174 3.90407 3.13985 2.65797 2.44724 2.34597 2.3018 3.74725 3.6841 3.30957 2.814 2.6826 3.13893 1.94207 1.91186 2.01277 1.84087 1.76781 1.74766 1.72123 1.65314 2.43511 1.58323 1.66179 1.34241 2.99141 1.33787 1.33651 1.3186 1.24584 1.2378 1.22786
threshold=1.0000000180025095e-35 743.50000000000011 574.1600000000002 32.500000000000007 1.0000000180025095e-35 1.0000000180025095e-35 0.16709765195657741 27.500000000000004 0.21286320346320348 17.500000000000004 0.11243691496963203 15.500000000000002 0.16188453997728311 1.5000000000000002 0.077007796547950411 28.500000000000004 31.500000000000004 595.00000000000011 4.5000000000000009 0.1761524305555556 0.33207698048492024 0.21481045477526103 12.500000000000002 16.500000000000004 0.099768228679059337 13.500000000000002 2.5000000000000004 25.500000000000004 535.62500000000011 26.500000000000004 2.5000000000000004 12.500000000000002 3.0000000000000004 67.500000000000014 29.500000000000004 535.62500000000011 359.50000000000006 2.5000000000000004 0.38623750000000007 535.62500000000011 0.13151885567713908 0.14832446845358879 4.5000000000000009 25.500000000000004 560.50000000000011 0.33207698048492024 3.0000000000000004
decision_type=2 2 2 2 2 2 2 2 2 2 2 2 2 2 2 2 2 2 2 2 2 2 2 2 2 2 2 2 2 2 2 2 2 2 2 2 2 2 2 2 2 2 2 2 2 2 2
left_child=-1 2 3 15 5 16 7 -7 9 12 14 -9 44 -8 -11 18 19 -14 -2 41 28 23 32 25 29 33 -26 -28 -20 30 -25 37 -23 35 -31 36 -3 38 -10 40 -27 -4 -33 -32 -6 -34 -44
right_child=1 21 4 -5 8 6 13 11 31 10 -12 -13 17 -15 -16 -17 -18 -19 20 -21 -22 22 -24 24 26 39 27 -29 -30 34 43 42 45 -35 -36 -37 -38 -39 -40 -41 -42 -43 46 -45 -46 -47 -48
leaf_value=0.052312221717416452 0.013518532869514925 -0.011594460281756262 -0.03008775744909031 0.026076785579310494 -0.10943819672437216 0.13160095917807882 -0.076686371976351739 0.091663650452946971 -0.02728969361284693 0.00032058423657104157 -0.00012421605326347834 0.0022681753370724879 -0.013169249873550783 0.013297047544332486 -0.064465047330423589 0.016594091845010615 0.017714665364801215 -0.059112046541627418 -0.030507748531321752 -0.013877219989191883 -0.068638683287091412 -0.061073543651098842 -0.00875318497737867 0.0092925966307072505 0.026067704416599682 -0.064475805717800969 -0.047079529458016654 -0.0047965928344893636 -0.050663084883441248 -0.061855625520396237 -0.04846426617098052 0.010523029382183705 -0.036237816435539458 -0.057798534610051244 -0.020036143233235378 -0.01518129415368539 -0.047659347127585044 0.0088177719652937706 0.0030339984564784314 -0.066664517365671638 -0.015574579372295295 -0.071914459226994451 -0.015722518773822386 -0.015839515876987592 -0.074490300729884704 -0.0017731630193434076 0.0044384290966963834
leaf_weight=3961 49 100 49 93 54 73 52 50 292 58 728 105 116 63 192 78 63 124 1927 93 75 98 340 51 60 126 112 192 214 167 123 372 218 128 52 169 307 98 97 251 84 83 239 84 172 52 248
leaf_count=3961 49 100 49 93 54 73 52 50 292 58 728 105 116 63 192 78 63 124 1927 93 75 98 340 51 60 126 112 192 214 167 123 372 218 128 52 169 307 98 97 251 84 83 239 84 172 52 248
internal_value=0 -0.0238023 -0.0191765 -0.0288983 -0.0122539 0.00580107 0.0328811 0.0632816 -0.0163373 -0.0277207 -0.0127292 0.0311054 -0.0591835 -0.0273911 -0.0494348 -0.0310804 -0.0264505 -0.0369064 -0.0327222 -0.0388168 -0.0337447 -0.0337849 -0.0239454 -0.0372577 -0.0271335 -0.0445663 -0.0127192 -0.0203745 -0.0325223 -0.0381331 -0.0264252 -0.00412521 -0.0379817 -0.0365834 -0.0519259 -0.0318689 -0.0387982 -0.0139839 -0.0197283 -0.0567571 -0.0449153 -0.0563879 0.00146405 -0.0352252 -0.0828407 -0.0296002 -0.00545575
internal_weight=0 8571 5857 2436 3421 631 343 228 2790 1444 978 155 466 115 250 2343 288 240 2265 225 2216 2714 708 2006 841 1165 364 304 2141 477 258 1346 368 704 219 576 407 487 389 461 210 132 859 207 226 270 487
internal_count=12532 8571 5857 2436 3421 631 343 228 2790 1444 978 155 466 115 250 2343 288 240 2265 225 2216 2714 708 2006 841 1165 364 304 2141 477 258 1346 368 704 219 576 407 487 389 461 210 132 859 207 226 270 487
is_linear=0
shrinkage=0.200723


Tree=7
num_leaves=48
num_cat=0
split_feature=9 2 1 9 9 9 3 3 9 9 4 4 1 1 1 1 3 3 9 9 9 1 6 3 4 2 4 1 3 3 1 1 6 3 3 3 9 2 1 4 1 6 6 4 3 4 4
split_gain=248.858 6.52012 3.72244 2.46609 6.56527 2.97634 3.01973 2.34312 1.80975 5.28981 1.74727 1.7928 1.68902 1.86818 1.94671 1.47536 1.42867 1.38836 1.00212 3.23487 2.46922 1.94314 1.21933 0.976301 0.934748 0.861271 0.8444 0.828697 0.681803 0.649108 0.619866 0.60723 0.478695 0.465731 1.52003 1.27176 0.671608 0.425108 0.423992 0.419257 0.358355 0.385558 0.336028 0.287729 0.256152 0.219902 0.203868
threshold=3.5000000000000004 1.0000000180025095e-35 635.00000000000011 15.500000000000002 23.500000000000004 25.500000000000004 306.00000000000006 306.00000000000006 11.500000000000002 6.5000000000000009 18.500000000000004 38.500000000000007 359.50000000000006 479.33500000000009 600.50000000000011 357.00000000000006 387.50000000000006 362.50000000000006 25.500000000000004 13.500000000000002 26.500000000000004 647.50000000000011 10.500000000000002 337.50000000000006 27.500000000000004 5.5000000000000009 26.500000000000004 670.00000000000011 362.50000000000006 362.50000000000006 600.50000000000011 440.50000000000006 4.5000000000000009 1160.5000000000002 918.50000000000011 1275.0000000000002 23.500000000000004 3.5000000000000004 449.49500000000006 33.500000000000007 476.83500000000009 4.5000000000000009 8.0000000000000018 26.500000000000004 695.50000000000011 15.500000000000002 38.500000000000007
decision_type=2 2 2 2 2 2 2 2 2 2 2 2 2 2 2 2 2 2 2 2 2 2 2 2 2 2 2 2 2 2 2 2 2 2 2 2 2 2 2 2 2 2 2 2 2 2 2
left_child=-1 2 3 7 40 6 -6 8 9 -2 29 -12 15 26 -15 -9 -8 31 19 21 -20 22 43 -23 38 30 -14 28 -21 -7 33 -3 -26 34 37 -35 -36 -19 -10 -33 46 -42 -25 -4 -30 -24 -5
right_child=1 17 18 4 5 10 16 12 24 -11 11 -13 13 14 -16 -17 -18 25 20 27 -22 23 45 42 32 -27 -28 -29 44 -31 -32 39 -34 35 36 -37 -38 -39 -40 -41 41 -43 -44 -45 -46 -47 -48
leaf_value=0.041811960065464178 -0.05276385451540673 -0.055463666227163241 0.010334328600466448 0.027047327226314314 -0.062506179832099606 -0.032900212450758519 0.0028435642636873721 -0.019501457995958781 -0.039120131124166978 0.034606126549285139 0.0024200661476509156 -0.033908201150221806 -0.025434075636156198 -0.014253340619050679 -0.031643547646562069 0.014160842303055044 -0.026793992570847306 -0.027305358309497721 0.014200118379557007 -0.047188728423647429 -0.024242959771289208 -0.031309478362253118 0.0014060362681409804 -0.00033325883279948325 -0.058239656809729257 -0.052036421532787855 -0.040983525615117394 -0.0072177211338309132 -0.030522542611810883 -0.015431361287042381 -0.0063501445529046893 -0.04093616255353455 -0.039551287099820448 -0.060821422538219559 -0.016020719148688654 -0.023912120931214743 0.011568559515286061 -0.044274356687320528 -0.020439931080540839 -0.021910773915097083 0.017167775652225679 -0.00042819368788225051 -0.017109480024217284 0.02576300435671134 -0.013510649303297366 -0.015091319385572276 0.011172376988077437
leaf_weight=3961 59 88 227 80 90 111 75 102 101 53 417 63 598 1468 315 108 519 1065 231 83 95 98 51 123 113 53 184 67 105 376 62 180 108 58 123 107 50 63 95 63 89 115 79 62 54 90 55
leaf_count=3961 59 88 227 80 90 111 75 102 101 53 417 63 598 1468 315 108 519 1065 231 83 95 98 51 123 113 53 184 67 105 376 62 180 108 58 123 107 50 63 95 63 89 115 79 62 54 90 55
internal_value=0 -0.0190246 -0.0160581 -0.0184679 -0.0128857 -0.01811 -0.0282432 -0.02183 -0.0340728 -0.0114191 -0.0109423 -0.00234802 -0.0194962 -0.0209131 -0.0173256 -0.00218942 -0.0230519 -0.0293563 -0.00671196 -0.0097584 0.00299738 -0.00247162 0.00617834 -0.0148699 -0.0401572 -0.0268814 -0.0290928 -0.0269731 -0.0324426 -0.019413 -0.0260089 -0.0411773 -0.0491069 -0.0268403 -0.0255662 -0.0368863 -0.00804694 -0.0282531 -0.030066 -0.0360037 0.0125574 0.00724848 -0.00689426 0.0136443 -0.0247449 -0.00912419 0.0205798
internal_weight=0 8571 6659 5294 1990 1651 684 3304 529 112 967 480 2775 2565 1783 210 594 1912 1365 1039 326 730 430 300 417 1581 782 309 242 487 1528 331 221 1466 1301 165 173 1128 196 243 339 204 202 289 159 141 135
internal_count=12532 8571 6659 5294 1990 1651 684 3304 529 112 967 480 2775 2565 1783 210 594 1912 1365 1039 326 730 430 300 417 1581 782 309 242 487 1528 331 221 1466 1301 165 173 1128 196 243 339 204 202 289 159 141 135
is_linear=0
shrinkage=0.200723


Tree=8
num_leaves=48
num_cat=0
split_feature=8 7 2 3 1 7 3 8 9 4 8 8 9 9 9 8 8 9 9 1 0 3 9 8 9 9 8 9 1 7 4 3 4 9 9 1 1 0 8 7 3 7 4 4 1 3 8
split_gain=162.18 6.60902 6.74162 7.05804 3.83319 12.9944 9.11121 5.06464 4.50029 3.41469 2.28453 2.14975 3.3873 3.95797 2.83771 3.5232 3.49794 2.29834 3.35848 2.25455 2.11742 2.00203 1.54843 1.52402 2.54141 1.85392 1.51242 2.4811 1.50052 1.38201 1.33145 1.32179 1.31873 1.25318 1.23613 1.18909 1.62117 1.17537 1.14477 1.07666 1.0147 1.14355 1.00345 0.939043 0.868363 0.838503 0.79952
threshold=1.0000000180025095e-35 688.50000000000011 1.0000000180025095e-35 974.50000000000011 587.50000000000011 1.0000000180025095e-35 306.00000000000006 0.2313909722222223 16.500000000000004 31.500000000000004 0.2943752161374476 0.23864668387338325 7.5000000000000009 6.5000000000000009 15.500000000000002 0.12572758571223233 0.10761148578936043 29.500000000000004 26.500000000000004 359.50000000000006 1.0000000180025095e-35 443.50000000000006 13.500000000000002 0.16404898910705798 15.500000000000002 12.500000000000002 0.17902583333333336 12.500000000000002 548.43750000000011 837.50000000000011 35.500000000000007 790.50000000000011 12.500000000000002 12.500000000000002 12.500000000000002 595.00000000000011 635.00000000000011 3.5000000000000004 0.079299057507565593 415.50000000000006 592.50000000000011 778.50000000000011 25.500000000000004 14.500000000000002 332.50000000000006 801.50000000000011 0.13257136752136756
decision_type=2 2 2 2 2 2 2 2 2 2 2 2 2 2 2 2 2 2 2 2 2 2 2 2 2 2 2 2 2 2 2 2 2 2 2 2 2 2 2 2 2 2 2 2 2 2 2
left_child=-1 2 3 4 10 6 22 8 -7 -8 21 14 13 -13 15 -3 17 18 20 30 -16 37 -6 24 39 28 27 -21 -25 35 -17 -23 -14 -9 -28 43 -37 -2 -20 44 42 -42 -34 -18 -4 -43 -41
right_child=1 11 23 -5 5 7 9 33 -10 -11 -12 12 32 -15 16 19 29 -19 38 26 -22 31 -24 25 -26 -27 34 -29 -30 -31 -32 -33 40 -35 -36 36 -38 -39 -40 46 41 45 -44 -45 -46 -47 -48
leaf_value=0.033270064827380104 -0.01619975062704818 -0.053064188474583253 -0.019723376800588003 0.050517936637964014 -0.01891779655382728 -0.03114532197488673 0.088890242168565031 -0.0063781381859505546 -0.0069783756628703317 0.026092187926850051 -0.05536733771070227 -0.012846549208063314 0.021441819243927875 -0.076194872603451827 0.014622140615507968 -0.016994657378989746 -0.013858598370130896 0.01345876682360846 -0.060650397336180342 -0.0072198458132850252 -0.024609776561813908 0.0018451180476984075 0.018269008276835037 -0.049389390908128467 -0.014685075269032866 -0.0054971131090784404 -0.032835199360637994 -0.038382189570978227 -0.012736167671406291 -0.032086156356584128 0.024309481689320084 -0.032393331364598009 -7.9698336889992989e-05 0.0099576290708082004 -0.013946817158783343 -0.043741821457148861 0.00067470260318656169 -0.033667290601111524 -0.032538653221654952 -0.042132334735613473 0.020120357935986547 -0.028904197367244578 -0.033185224953706759 0.01415158659584328 -0.048343785481885879 0.0054386574378736249 -0.010753554539584183
leaf_weight=3985 572 224 50 85 78 538 106 319 734 52 60 114 80 61 66 82 62 55 133 120 346 318 107 90 303 313 219 724 90 61 51 53 63 465 385 50 98 213 104 54 84 54 89 217 293 61 83
leaf_count=3985 572 224 50 85 78 538 106 319 734 52 60 114 80 61 66 82 62 55 133 120 346 318 107 90 303 313 219 724 90 61 51 53 63 465 385 50 98 213 104 54 84 54 89 217 293 61 83
internal_value=0 -0.0157334 -0.0109927 -0.006654 -0.00799829 -0.00334485 0.0328232 -0.00937872 -0.0171999 0.0682225 -0.0171789 -0.0222806 -0.0113771 -0.034928 -0.0244853 -0.0295045 -0.0168849 -0.0259378 -0.0292765 -0.0261665 -0.0183251 -0.0151968 0.00259025 -0.0235737 -0.0290781 -0.0148314 -0.0284638 -0.0339515 -0.0310628 -0.00382493 -0.00115623 -0.00304609 -0.00181466 0.00331081 -0.0207954 0.000212391 -0.0143309 -0.0209394 -0.0483144 -0.0381637 -0.00711528 0.00231679 -0.0194639 0.0079271 -0.0441717 -0.0106876 -0.0231218
internal_weight=0 8579 4976 3700 3615 2399 343 2056 1272 158 1216 3603 606 175 2997 1805 1192 704 649 1581 412 1156 185 1276 783 493 1448 844 180 488 133 371 431 784 604 427 148 785 237 480 351 199 152 279 343 115 137
internal_count=12564 8579 4976 3700 3615 2399 343 2056 1272 158 1216 3603 606 175 2997 1805 1192 704 649 1581 412 1156 185 1276 783 493 1448 844 180 488 133 371 431 784 604 427 148 785 237 480 351 199 152 279 343 115 137
is_linear=0
shrinkage=0.200723


Tree=9
num_leaves=48
num_cat=0
split_feature=8 7 6 7 1 1 9 7 8 9 8 8 0 9 1 3 2 7 8 2 8 6 9 9 0 9 3 8 8 9 1 3 8 1 1 8 9 7 3 3 3 7 0 0 6 7 9
split_gain=103.608 4.30975 4.35928 4.42813 4.20322 3.1965 2.02819 1.47424 1.51346 2.14744 2.38366 2.13574 1.92914 1.5614 1.41516 1.6142 1.41242 2.11641 4.31393 2.7274 3.07247 2.67961 1.24529 2.09359 1.19906 5.79616 1.64987 1.51464 1.09235 1.08973 1.0834 1.04987 0.89088 0.869809 1.05612 0.78596 1.48483 0.702183 0.700697 0.67863 0.671402 0.828493 0.444977 0.633283 0.450977 0.410076 0.410019
threshold=1.0000000180025095e-35 679.50000000000011 10.500000000000002 1.0000000180025095e-35 587.50000000000011 587.50000000000011 28.500000000000004 857.50000000000011 0.23384153846153849 15.500000000000002 0.080045404862110439 0.12572758571223233 1.0000000180025095e-35 25.500000000000004 595.00000000000011 974.50000000000011 1.5000000000000002 467.50000000000006 0.11034527149205299 1.0000000180025095e-35 0.15953974670557999 4.5000000000000009 8.5000000000000018 6.5000000000000009 3.5000000000000004 16.500000000000004 613.50000000000011 0.15674920637228215 0.1761524305555556 27.500000000000004 618.95000000000016 1581.0000000000002 0.12327014213893399 595.00000000000011 647.50000000000011 0.16709765195657741 15.500000000000002 535.50000000000011 695.50000000000011 637.50000000000011 637.50000000000011 763.50000000000011 2.5000000000000004 1.0000000180025095e-35 52.500000000000007 735.50000000000011 26.500000000000004
decision_type=2 2 2 2 2 2 2 2 2 2 2 2 2 2 2 2 2 2 2 2 2 2 2 2 2 2 2 2 2 2 2 2 2 2 2 2 2 2 2 2 2 2 2 2 2 2 2
left_child=-1 2 5 4 -4 6 24 8 9 11 29 -3 -12 -14 15 -13 17 19 46 20 -7 -20 23 -10 25 27 37 -2 -21 38 -16 32 -9 40 45 36 -5 -26 -11 -18 41 -24 43 44 -34 -35 -19
right_child=1 7 3 35 -6 16 -8 31 22 10 12 14 13 -15 30 -17 39 18 21 28 -22 -23 33 -25 26 -27 -28 -29 -30 -31 -32 -33 42 34 -36 -37 -38 -39 -40 -41 -42 -43 -44 -45 -46 -47 -48
leaf_value=0.026592001614630472 -0.028024372020575655 -0.043812847337042618 0.0074231011851228846 -0.039539243937535169 0.078120167203855909 0.026573469985592037 0.017740574090587432 -0.046391725454115962 -0.0061863103001362045 -0.023896784157925274 0.022414324492227838 -0.021421519553311466 -0.021413309116046348 -0.002205619965358614 -0.06035555890132991 -0.0021639182717874501 -0.036937939931964439 -0.032791315999517713 0.0016564031068795916 -0.034512138782338261 -0.0043028424616681346 -0.015483134969509364 -0.038917223753749244 -0.054821412145681939 -0.040865856652242544 0.020411365351207043 -0.0028144216102416056 -0.013869682260628569 -0.0024134641290840713 -0.0016094023732486466 -0.027177323812299935 -0.0076016249527715209 -0.029648091416209783 0.00063246535158862499 -0.016823936368443076 0.0058370946036840525 0.0047456707256531014 -0.022771417279449375 -0.046477384095093575 -0.0073363481536144991 0.0012388600574575516 -0.0049854144596154955 -0.0092349373330226064 -0.047684145280742683 -0.010184741214326679 0.018748693707007266 -0.055360717554391606
leaf_weight=3985 511 179 72 56 64 275 67 114 105 129 86 821 272 457 52 223 83 68 886 79 246 628 59 54 202 165 91 754 93 53 167 93 183 81 68 163 67 151 97 50 85 57 54 59 65 133 62
leaf_count=3985 511 179 72 56 64 275 67 114 105 129 86 821 272 457 52 223 83 68 886 79 246 628 59 54 202 165 91 754 93 53 167 93 183 81 68 163 67 151 97 50 85 57 54 59 65 133 62
internal_value=0 -0.0125753 -0.00861457 0.0108753 0.0406923 -0.0104792 -0.0165745 -0.0176854 -0.016002 -0.0182059 -0.0115 -0.0232935 -0.00601811 -0.00937227 -0.0203854 -0.0173081 -0.00568922 -0.00454417 -0.00846594 0.00475944 0.0119946 -0.005453 -0.00729614 -0.0227039 -0.0178014 -0.0149723 -0.0269133 -0.0195875 -0.0171565 -0.0275136 -0.0350553 -0.0271043 -0.0309228 -0.00222402 0.0049673 -0.00330347 -0.0154166 -0.0331257 -0.0335885 -0.0258095 -0.0123133 -0.0222438 -0.0260378 -0.0289934 -0.0245468 0.0118916 -0.0435552
internal_weight=0 8579 4833 422 136 4411 1941 3746 3178 2536 1094 1442 815 729 1263 1044 2470 2337 1644 693 521 1514 642 159 1874 1430 444 1265 172 279 219 568 475 483 282 286 123 353 226 133 201 116 361 307 248 214 130
internal_count=12564 8579 4833 422 136 4411 1941 3746 3178 2536 1094 1442 815 729 1263 1044 2470 2337 1644 693 521 1514 642 159 1874 1430 444 1265 172 279 219 568 475 483 282 286 123 353 226 133 201 116 361 307 248 214 130
is_linear=0
shrinkage=0.200723


Tree=10
num_leaves=48
num_cat=0
split_feature=8 7 2 3 1 7 8 9 8 9 9 8 9 0 9 9 9 9 0 8 0 9 1 4 7 7 1 8 9 7 8 8 4 8 9 9 4 4 9 3 3 9 8 4 9 9 7
split_gain=66.1891 2.75326 2.70215 3.93971 1.77959 2.49519 2.24983 4.06115 1.01672 1.9618 2.86532 5.09036 1.73608 2.01771 2.40364 2.6365 2.00674 1.58784 2.56035 1.37691 1.19133 2.40963 1.30248 1.13308 1.1326 0.968917 2.97341 2.20771 2.0164 1.49037 1.36824 0.952467 1.23406 0.824599 2.4303 1.49753 1.36164 1.41395 0.878191 0.900239 0.786249 0.869437 2.86028 0.738903 0.80986 0.647759 0.609512
threshold=1.0000000180025095e-35 679.50000000000011 1.0000000180025095e-35 974.50000000000011 635.00000000000011 372.50000000000006 0.18664615715146546 20.500000000000004 0.18428412442756242 18.500000000000004 12.500000000000002 0.1623065384615385 26.500000000000004 1.0000000180025095e-35 25.500000000000004 24.500000000000004 29.500000000000004 12.500000000000002 2.5000000000000004 0.099768228679059337 1.0000000180025095e-35 13.500000000000002 558.75000000000011 36.500000000000007 731.50000000000011 526.50000000000011 587.50000000000011 0.080788595815942929 13.500000000000002 650.50000000000011 0.087253497023809537 0.3473257750444983 31.500000000000004 0.17527788461538463 13.500000000000002 16.500000000000004 21.500000000000004 32.500000000000007 26.500000000000004 613.50000000000011 1137.5000000000002 13.500000000000002 0.22035099847243311 31.500000000000004 13.500000000000002 8.5000000000000018 770.50000000000011
decision_type=2 2 2 2 2 2 2 2 2 2 2 2 2 2 2 2 2 2 2 2 2 2 2 2 2 2 2 2 2 2 2 2 2 2 2 2 2 2 2 2 2 2 2 2 2 2 2
left_child=-1 2 3 4 25 -6 7 -7 9 10 11 -3 13 -11 15 -15 19 18 31 24 21 23 -23 -12 -14 26 28 -28 -2 30 -27 32 45 35 36 43 -35 -38 39 -37 41 -19 -43 -4 -45 -10 -16
right_child=1 8 33 -5 5 6 -8 -9 17 12 20 -13 16 14 46 -17 -18 40 -20 -21 -22 22 -24 -25 -26 29 27 -29 -30 -31 -32 -33 -34 34 -36 38 37 -39 -40 -41 -42 42 -44 44 -46 -47 -48
leaf_value=0.021254376426306565 -0.025074484899200333 0.056860775372871507 -0.029038947194294059 0.040256506672404151 0.039754321265231325 -0.057000340815932464 0.010001674944509526 0.00097684824526441988 -0.049963484382996574 0.022725785106349226 -0.017619170305614992 -0.019383471920903745 -0.060920137862336653 -0.0054371156987110657 0.0078024169623844659 -0.039640312970150041 0.012070406101275718 -0.0089104806370165542 0.01510023476771412 -0.00018590519670246737 -0.042432274193625309 -0.021473725748536412 -0.04140979875741916 0.0067197248520404684 -0.028255690076151481 -0.034444227221305218 0.038971399949772938 0.0018661283073913592 -0.0032003933079563173 0.0013684052131126604 -0.011923114795013501 -0.0060584485653722708 -0.0031143861359652762 0.0053380311701736009 0.027399476998951049 -0.010086186291078167 -0.0339112978614882 -0.0031842458216022997 -0.020396962103559953 0.019474950185904713 0.016412804171085975 -0.019004001068793092 0.046249413143975251 7.8421107656281012e-05 -0.03045746833347529 -0.028008411089245285 -0.0077100529195655663
leaf_weight=3985 305 49 406 79 71 67 364 178 70 89 336 126 56 199 241 167 56 485 84 53 148 246 285 100 181 122 72 629 383 309 996 106 68 102 67 98 157 98 113 72 76 59 50 86 59 239 177
leaf_count=3985 305 49 406 79 71 67 364 178 70 89 336 126 56 199 241 167 56 485 84 53 148 246 285 100 181 122 72 629 383 309 996 106 68 102 67 98 157 98 113 72 76 59 50 86 59 239 177
internal_value=0 -0.0100512 -0.00688543 -0.00406999 -0.00507165 0.00414415 -7.44527e-06 -0.0148781 -0.0141356 -0.0164575 -0.0219136 0.00196492 -0.0106836 -0.0059148 -0.00916609 -0.0210435 -0.0227159 -0.00942602 -0.0172434 -0.0294333 -0.0256613 -0.0230945 -0.0321739 -0.0120369 -0.0359739 -0.00729706 -0.00352321 0.00567723 -0.0128975 -0.0109704 -0.0143807 -0.0228684 -0.0275948 -0.0148864 -0.00767898 -0.0185506 -0.0142623 -0.0221025 -0.00668236 0.00243382 -0.00281041 -0.00526995 0.0109288 -0.0246462 -0.0123465 -0.0329821 0.00123374
internal_weight=0 8579 4833 3575 3496 680 609 245 3746 2509 1290 175 1219 873 784 366 346 1237 567 290 1115 967 531 436 237 2816 1389 701 688 1427 1118 483 377 1258 424 834 357 255 283 170 670 594 109 551 145 309 418
internal_count=12564 8579 4833 3575 3496 680 609 245 3746 2509 1290 175 1219 873 784 366 346 1237 567 290 1115 967 531 436 237 2816 1389 701 688 1427 1118 483 377 1258 424 834 357 255 283 170 670 594 109 551 145 309 418
is_linear=0
shrinkage=0.200723


Tree=11
num_leaves=48
num_cat=0
split_feature=8 7 2 3 6 8 9 9 8 9 9 1 9 9 3 1 5 7 7 3 1 9 7 7 6 8 8 6 5 9 8 1 8 6 7 6 3 8 6 5 9 8 9 9 7 9 1
split_gain=42.2845 1.94981 2.40503 5.0177 2.26285 2.10432 2.734 3.74269 2.66598 2.9071 3.62225 2.36676 2.16638 1.87016 1.7809 1.51689 1.98388 4.05807 1.74023 1.68695 1.32919 1.32893 1.29567 1.29467 1.11686 1.42373 2.34684 1.10917 1.09415 2.42049 0.993394 0.871598 4.08555 0.763265 0.903001 0.679423 1.18334 0.688076 0.625882 0.602069 0.553205 1.36631 1.46985 0.832756 0.984989 0.63651 0.612525
threshold=1.0000000180025095e-35 571.50000000000011 1.0000000180025095e-35 974.50000000000011 32.500000000000007 0.18428412442756242 15.500000000000002 13.500000000000002 0.11467034644162855 24.500000000000004 25.500000000000004 386.24575000000004 26.500000000000004 12.500000000000002 306.00000000000006 587.50000000000011 3.0000000000000004 1.0000000180025095e-35 502.50000000000006 548.00000000000011 359.50000000000006 13.500000000000002 661.50000000000011 670.50000000000011 52.500000000000007 0.21091577464884809 0.23041208791208792 1.0000000180025095e-35 3.0000000000000004 12.500000000000002 0.15472734153101367 558.75000000000011 0.14337808706739505 4.5000000000000009 812.50000000000011 1.0000000180025095e-35 484.00000000000006 0.21629700394488979 4.5000000000000009 3.0000000000000004 11.500000000000002 0.17527788461538463 13.500000000000002 16.500000000000004 415.50000000000006 26.500000000000004 362.50000000000006
decision_type=2 2 2 2 2 2 2 2 2 2 2 2 2 2 2 2 2 2 2 2 2 2 2 2 2 2 2 2 2 2 2 2 2 2 2 2 2 2 2 2 2 2 2 2 2 2 2
left_child=-1 2 3 4 15 6 7 20 9 11 23 -8 -12 14 -7 18 19 -18 21 -17 27 -2 39 -11 25 -16 -27 -3 38 -30 -20 32 -24 -10 -35 36 -15 -38 -22 -9 -4 43 -43 44 46 -45 -42
right_child=1 5 40 -5 -6 13 8 22 33 10 12 -13 -14 35 24 16 17 -19 30 -21 28 -23 31 -25 -26 26 -28 -29 29 -31 -32 -33 -34 34 -36 -37 37 -39 -40 -41 41 42 -44 45 -46 -47 -48
leaf_value=0.016988136471235243 -0.025249163700283093 -0.013664105599033687 -0.026646657533060079 0.062081209089497387 0.033038057672173694 -0.039806986374235596 -0.012686709544150548 -0.060386532109225295 0.008006526448274591 -0.068745509910604144 0.00078176214340221 0.033941633888174956 -0.02180106869407103 -0.036406079291939571 0.026449044463204001 0.0021567142275318008 0.063044584736117695 -0.0017178750542502588 -0.0073882462193238302 -0.018457758518530057 -0.011696337995764361 -0.0064555744056864961 -0.031432501275639076 -0.032711144370324241 -0.032475971391466303 -0.041382530485880011 -0.0042794150897522447 0.019090499399515796 0.01772667453972835 -0.016210543860192682 0.025632009225472246 -0.03339231156380814 0.027944401214051996 -0.00066203933814864993 -0.027038677422709718 0.0025882085309942393 -0.016552143167510153 0.012241804791493239 -0.029468086889312142 -0.034049704469374394 -0.007226132451631324 -0.0058148368725782469 0.030922377990711632 0.0041455323703462645 0.002136924211430882 -0.017540756238329108 -0.027572985861355447
leaf_weight=3985 268 73 93 51 73 85 93 72 357 55 302 83 395 52 49 832 61 108 71 198 125 349 199 149 74 79 526 97 111 357 76 299 61 334 62 924 61 74 221 68 73 217 55 128 69 95 325
leaf_count=3985 268 73 93 51 73 85 93 72 357 55 302 83 395 52 49 832 61 108 71 198 125 349 199 149 74 79 526 97 111 357 76 299 61 334 62 924 61 74 221 68 73 217 55 128 69 95 325
internal_value=0 -0.00803368 -0.00405305 -0.000104669 -0.00166237 -0.0103341 -0.0132564 -0.0190955 -0.00788644 -0.0142925 -0.0189015 0.00930279 -0.0120163 -0.00499813 -0.0123137 -0.00295281 0.0015012 0.0216579 -0.00994281 -0.00180607 -0.0111176 -0.0146188 -0.0303261 -0.0424263 -0.00910359 -0.006459 -0.00912428 0.00502529 -0.0144889 -0.00816133 0.00968345 -0.0260014 -0.0175018 0.00127598 -0.00479171 0.000355177 -0.0106786 -0.000768794 -0.0230477 -0.0475944 -0.0118637 -0.0104346 0.00161364 -0.0151841 -0.0200027 -0.00509302 -0.023841
internal_weight=0 8579 3142 2087 2036 5437 3513 1683 1830 1077 901 176 697 1924 813 1963 1199 169 764 1030 984 617 699 204 728 654 605 170 814 468 147 559 260 753 396 1111 187 135 346 140 1055 962 272 690 467 223 398
internal_count=12564 8579 3142 2087 2036 5437 3513 1683 1830 1077 901 176 697 1924 813 1963 1199 169 764 1030 984 617 699 204 728 654 605 170 814 468 147 559 260 753 396 1111 187 135 346 140 1055 962 272 690 467 223 398
is_linear=0
shrinkage=0.200723


Tree=12
num_leaves=38
num_cat=0
split_feature=8 7 3 9 7 8 0 1 7 8 8 1 8 7 1 8 3 7 8 8 2 7 3 7 7 2 1 3 0 1 3 1 5 3 3 3 1
split_gain=27.3397 1.91146 1.3004 1.84226 1.48721 1.29373 0.945595 0.942898 1.49887 1.91835 1.73294 1.41229 1.31282 0.897889 0.712935 0.655007 0.617609 0.553724 0.515564 0.31868 0.315182 0.263508 0.428689 0.169103 0.057871 0.031817 0.0438968 0.0105586 0.00456827 0.00908889 0.0336735 0.0034519 0.00352382 0.00934714 0.00231642 0.0145532 4.44089e-16
threshold=1.0000000180025095e-35 854.50000000000011 1775.0000000000002 28.500000000000004 372.50000000000006 0.059224303542673114 1.0000000180025095e-35 635.00000000000011 535.50000000000011 0.088774090511087325 0.16617653061224491 595.00000000000011 0.22477583333333337 733.50000000000011 357.00000000000006 0.21481045477526103 695.50000000000011 902.50000000000011 0.1046708572444264 0.096532479137950003 1.0000000180025095e-35 865.50000000000011 790.50000000000011 904.50000000000011 873.50000000000011 1.0000000180025095e-35 507.50000000000006 2850.0000000000005 3.5000000000000004 635.00000000000011 484.00000000000006 441.94500000000005 1.0000000180025095e-35 484.00000000000006 887.50000000000011 943.50000000000011 595.00000000000011
decision_type=2 2 2 2 2 2 2 2 2 2 2 2 2 2 2 2 2 2 2 2 2 2 2 2 2 2 2 2 2 2 2 2 2 2 2 2 2
left_child=25 2 3 5 -5 20 15 11 10 -10 -9 14 -13 -4 -7 16 -3 21 -18 -15 -2 -8 -23 24 -20 27 -27 28 34 31 -31 32 33 -30 -1 -36 -33
right_child=1 6 13 4 -6 7 17 8 9 -11 -12 12 -14 19 -16 -17 18 -19 23 -21 -22 22 -24 -25 -26 26 -28 -29 29 30 -32 36 -34 -35 35 -37 -38
leaf_value=0.014031555028504528 -0.017710200904787025 -0.0016558229695147588 0.03462676469901884 -0.0029012904250300805 0.039754244364975475 -0.016652165391047302 -0.033631694946744943 0.032044492201696945 -0.04036834554419904 -0.002520201133585121 -0.0017307502354928642 -0.023653098613254681 -0.0046468229660906997 0.013211037413172434 -0.0056865993608817209 0.0042854454055284942 -0.0034747803535820948 -0.04494177110618771 -0.026323004192674804 -0.0088044748151961984 -0.039213165631783529 -0.0042187230326425525 -0.027789377403460484 -0.017124220204248582 -0.035436815003450604 0.014031555028504528 0.0058387837392935172 0.01145818448276506 0.014031555028504528 0.014031555028504528 0.0090134824643125673 0.014031555028504528 0.014031555028504528 0.010510100597492626 0.010570815329061796 0.014031555028504528 0.014031555028504528
leaf_weight=2318 57 90 50 69 63 250 54 107 57 1010 143 378 239 52 5371 86 49 55 52 54 53 58 67 49 61 57 49 78 65 165 80 459 92 57 58 314 146
leaf_count=2318 57 90 50 69 63 250 54 107 57 1010 143 378 239 52 5371 86 49 55 52 54 53 58 67 49 61 57 49 78 65 165 80 459 92 57 58 314 146
internal_value=0 -0.00652877 -0.0056913 -0.00605436 0.017457 -0.00645925 -0.017254 -0.00614459 -0.00126434 -0.00454208 0.0127251 -0.00717493 -0.0162909 0.0124543 -0.0061743 -0.0111635 -0.0155775 -0.0273269 -0.0215156 0.00199559 -0.0280707 -0.0219144 -0.0168526 -0.0269724 -0.0312428 0.0136748 0.0102443 0.0137697 0.0138177 0.0134656 0.012393 0.0137865 0.0130936 0.0123863 0.0139569 0.013492 0.0140316
internal_weight=0 8574 7953 7797 132 7665 621 7555 1317 1067 250 6238 617 156 5621 387 301 234 211 106 110 179 125 162 113 3938 106 3832 3754 1064 245 819 214 122 2690 372 605
internal_count=12512 8574 7953 7797 132 7665 621 7555 1317 1067 250 6238 617 156 5621 387 301 234 211 106 110 179 125 162 113 3938 106 3832 3754 1064 245 819 214 122 2690 372 605
is_linear=0
shrinkage=0.200723


Tree=13
num_leaves=48
num_cat=0
split_feature=8 7 3 7 3 3 1 7 8 8 5 1 7 8 3 7 4 4 3 0 6 8 3 8 7 7 7 3 7 7 1 6 0 1 1 0 3 3 1 1 6 4 3 4 3 1 3
split_gain=17.4658 1.22113 0.957393 1.68196 0.802315 0.846778 0.786983 1.10586 1.63474 1.05093 0.881552 0.859949 1.0291 1.39017 0.740034 0.657027 0.606474 1.71014 0.940324 0.604087 0.48481 1.0762 0.759732 0.469068 0.612233 0.353743 0.168341 0.273865 0.0241876 0.0481697 0.00855559 0.00323556 0.00807581 0.0242233 0.00146223 0.00339812 0.00509413 0.00139871 0.00417726 0.00910452 0.000507523 9.8792e-05 4.04276e-05 2.63862e-05 1.99974e-05 1.93459e-05 1.51707e-05
threshold=1.0000000180025095e-35 854.50000000000011 212.50000000000003 415.50000000000006 1775.0000000000002 2850.0000000000005 635.00000000000011 535.50000000000011 0.088774090511087325 0.16114089285714286 3.0000000000000004 595.00000000000011 675.50000000000011 0.12456534722222225 740.50000000000011 489.50000000000006 37.500000000000007 36.500000000000007 592.50000000000011 1.0000000180025095e-35 32.500000000000007 0.1761524305555556 637.50000000000011 0.15535512441176405 889.50000000000011 902.50000000000011 865.50000000000011 790.50000000000011 520.50000000000011 721.50000000000011 181.10000000000002 10.500000000000002 3.5000000000000004 635.00000000000011 382.07075000000003 3.5000000000000004 484.00000000000006 887.50000000000011 587.50000000000011 595.00000000000011 1.0000000180025095e-35 24.500000000000004 887.50000000000011 19.500000000000004 887.50000000000011 635.00000000000011 592.50000000000011
decision_type=2 2 2 2 2 2 2 2 2 2 2 2 2 2 2 2 2 2 2 2 2 2 2 2 2 2 2 2 2 2 2 2 2 2 2 2 2 2 2 2 2 2 2 2 2 2 2
left_child=28 2 3 -2 6 -6 11 9 -9 -8 -10 16 14 -14 -13 -11 17 -4 -18 20 21 23 -22 24 -3 26 -21 -28 30 -30 -1 34 37 44 35 46 -37 -33 43 -40 41 -36 45 -39 -34 -42 -32
right_child=1 19 4 -5 5 -7 7 8 10 15 -12 12 13 -15 -16 -17 18 -19 -20 25 22 -23 -24 -25 -26 -27 27 -29 29 -31 31 32 33 -35 40 36 -38 38 39 -41 42 -43 -44 -45 -46 -47 -48
leaf_value=0.0090488706076356472 0.0031517217321177528 -0.016917484798614487 -0.0046216699095324209 -0.048208689551916831 0.021964661866183798 -0.0082546187017075671 0.028307214654132277 -0.035077348898935642 0.0054669614013370081 -0.011060325769744367 -0.006481787528540485 -0.010868596887419731 0.0042360553134208907 -0.032503249714455229 0.010657048680742963 0.015853733499413668 -0.015461051904770878 0.01860910260189937 0.0022980438071355776 -0.026881043711661869 0.0011972820728865879 0.017247220261706893 -0.029851372290971175 -0.026428353561800077 0.012251368953843111 -0.035920928351237648 -0.0033719289553883576 -0.022211413257378989 0.0033750994261626875 0.011634637486205369 0.01121510048028109 0.01121510048028109 0.01121510048028109 0.0070507472326001479 0.011879743413048116 0.01121510048028109 0.0087571086123089826 0.011522627810577245 0.0080540090888840538 0.01130085977488661 0.01121510048028109 0.011501199102927273 0.011354030498769754 0.011352415071759929 0.011370060825229683 0.011260033226379947 0.011334643301900513
leaf_weight=87 49 69 5027 54 94 62 97 60 462 79 539 313 55 169 81 68 449 131 164 54 50 71 87 60 50 55 58 67 50 66 241 651 102 86 51 70 66 64 61 81 1367 61 108 86 50 538 52
leaf_count=87 49 69 5027 54 94 62 97 60 462 79 539 313 55 169 81 68 449 131 164 54 50 71 87 60 50 55 58 67 50 66 241 651 102 86 51 70 66 64 61 81 1367 61 108 86 50 538 52
internal_value=0 -0.0052183 -0.00454893 -0.0237751 -0.00429666 0.00995443 -0.00458561 -9.38699e-05 -0.00289594 0.0120905 -0.00096698 -0.00550308 -0.0126193 -0.0234824 -0.00644327 0.00138972 -0.00474103 -0.00403167 -0.0107098 -0.0137908 -0.00892272 -0.00366355 -0.0185197 -0.0119578 -0.00466166 -0.0218417 -0.0175157 -0.0134699 0.0109299 0.00807449 0.0110166 0.0110624 0.0107877 0.00974289 0.0111895 0.0108514 0.0100223 0.0110514 0.0106864 0.00990609 0.0112577 0.0116736 0.0112346 0.011425 0.0112661 0.0112278 0.0112363
internal_weight=0 8574 7953 103 7850 156 7694 1305 1061 244 1001 6389 618 224 394 147 5771 5158 613 621 387 250 137 179 119 234 179 125 3938 116 3822 3735 1181 238 2554 429 136 943 292 142 2125 112 2013 150 152 1905 293
internal_count=12512 8574 7953 103 7850 156 7694 1305 1061 244 1001 6389 618 224 394 147 5771 5158 613 621 387 250 137 179 119 234 179 125 3938 116 3822 3735 1181 238 2554 429 136 943 292 142 2125 112 2013 150 152 1905 293
is_linear=0
shrinkage=0.200723


Tree=14
num_leaves=48
num_cat=0
split_feature=9 9 9 9 4 4 4 4 1 9 5 1 9 7 4 9 7 1 1 9 7 1 9 2 7 7 5 1 5 9 9 7 6 4 7 7 4 9 9 5 7 4 6 6 7 7 7
split_gain=11.1579 0.886902 1.95274 1.03426 1.91526 1.34904 1.34851 1.25504 1.0819 0.983319 1.2373 0.955383 1.13371 0.79362 0.769364 0.902188 0.687922 2.58966 1.28917 1.25832 1.30944 2.95148 1.07872 1.3383 0.94058 0.903838 0.794247 0.680953 1.00166 0.769583 0.674194 1.2554 0.851976 0.866769 1.3077 0.616411 1.53052 1.11689 2.03305 0.923869 0.561372 0.541909 0.540766 0.476822 1.43726 0.432267 0.403977
threshold=3.5000000000000004 16.500000000000004 23.500000000000004 25.500000000000004 27.500000000000004 14.500000000000002 31.500000000000004 12.500000000000002 520.62500000000011 24.500000000000004 3.0000000000000004 587.50000000000011 24.500000000000004 384.50000000000006 2.5000000000000004 13.500000000000002 622.50000000000011 362.50000000000006 548.43750000000011 12.500000000000002 422.50000000000006 324.50000000000006 11.500000000000002 1.0000000180025095e-35 1.0000000180025095e-35 544.50000000000011 3.0000000000000004 359.50000000000006 6.5000000000000009 26.500000000000004 13.500000000000002 685.50000000000011 42.500000000000007 13.500000000000002 630.50000000000011 1.0000000180025095e-35 27.500000000000004 26.500000000000004 28.500000000000004 5.5000000000000009 679.50000000000011 29.500000000000004 4.5000000000000009 4.5000000000000009 776.50000000000011 535.50000000000011 725.50000000000011
decision_type=2 2 2 2 2 2 2 2 2 2 2 2 2 2 2 2 2 2 2 2 2 2 2 2 2 2 2 2 2 2 2 2 2 2 2 2 2 2 2 2 2 2 2 2 2 2 2
left_child=-1 14 13 4 9 7 11 27 -8 43 -11 -6 -13 -3 15 -2 17 19 24 -16 21 -21 23 -20 41 -26 -24 28 -5 -29 32 -32 33 40 -35 36 -7 39 -39 -37 -18 -19 46 -4 -45 -22 -33
right_child=1 2 3 5 6 35 8 -9 -10 10 -12 12 -14 -15 16 -17 30 18 22 20 45 -23 26 -25 25 -27 -28 29 -30 -31 31 42 -34 34 -36 37 -38 38 -40 -41 -42 -43 -44 44 -46 -47 -48
leaf_value=0.0087360367585289211 0.022038506383922522 0.0050564626853531998 0.018203564824268513 -0.030396377651832382 -0.0556302035542902 0.040891349125004035 -0.023397401686889641 -0.027672488048752976 0.0059527682591807166 -0.02947165952976671 0.0062018954865000206 -0.0077420876979001612 -0.044691538999760562 0.024632963358187088 -0.0072562657276160685 -0.011139207276543992 -0.00010799728000891483 -0.025278478739100052 0.024768710371611848 0.0048456605247269363 -0.0060096056921900122 0.072227878129965978 -0.0087856697266822398 -0.014671899144755911 0.0067281656898152296 -0.017867496769982765 0.00120656956843211 0.0079265355877652568 0.0023581444007568491 -0.011446391503333438 -0.02960718005876093 0.01237233319324239 -0.016988733056044442 -0.032109815844474109 -0.00049041535656714193 0.011350530059131714 0.0024056549346099815 -0.014840762124616477 0.029691290104854249 -0.0098094577642246546 -0.013592418683645073 -0.011528386075626501 -0.014833671182879081 -0.012098686607995689 0.027768190937633708 0.016015100589522335 -0.0065386432664465265
leaf_weight=3938 85 211 104 80 49 60 96 106 107 82 75 81 57 138 96 54 161 234 113 55 57 50 772 50 149 101 548 233 71 128 150 56 264 55 1259 431 136 263 49 103 547 228 324 112 54 97 243
leaf_count=3938 85 211 104 80 49 60 96 106 107 82 75 81 57 138 96 54 161 234 113 55 57 50 772 50 149 101 548 233 71 128 150 56 264 55 1259 431 136 263 49 103 547 228 324 112 54 97 243
internal_value=0 -0.00417087 -0.00125938 -0.00323991 -0.00908635 -0.000362478 -0.0192554 -0.00779259 -0.00792712 0.00020156 -0.0124302 -0.031553 -0.0230038 0.0127973 -0.0056023 0.00914932 -0.00596787 -0.00353318 -0.00610561 0.0123725 0.019648 0.0369324 -0.00273504 0.0126704 -0.0131261 -0.00320848 -0.00463738 -0.00367683 -0.0149952 0.00105746 -0.00799744 -0.0131219 -0.00626463 -0.00486445 -0.00181391 0.00404425 0.014187 0.00169439 -0.00784695 0.00726911 -0.010526 -0.0184927 -0.00915273 0.00754667 0.000870057 0.0078631 -0.00299679
internal_weight=0 8574 2826 2477 817 1660 390 618 203 427 157 187 138 349 5748 139 5609 2550 2195 355 259 105 1483 163 712 250 1320 512 151 361 3059 773 2286 2022 1314 1042 196 846 312 534 708 462 623 270 166 154 299
internal_count=12512 8574 2826 2477 817 1660 390 618 203 427 157 187 138 349 5748 139 5609 2550 2195 355 259 105 1483 163 712 250 1320 512 151 361 3059 773 2286 2022 1314 1042 196 846 312 534 708 462 623 270 166 154 299
is_linear=0
shrinkage=0.200723


Tree=15
num_leaves=48
num_cat=0
split_feature=8 6 3 8 8 1 6 7 2 4 8 7 7 7 5 7 6 4 8 7 7 4 7 3 1 8 8 8 8 5 8 2 1 7 7 4 3 8 8 2 3 3 6 4 4 3 3
split_gain=7.12816 0.759111 0.775705 0.969695 2.26992 2.51207 1.90972 1.22238 5.62117 4.35875 1.03979 1.71223 0.971264 0.918783 2.81243 1.14723 0.912956 0.889034 1.23015 0.806955 1.52528 0.732517 0.789068 0.701784 0.675359 0.640647 0.639123 1.68284 0.922142 0.617636 0.582497 0.497872 0.43702 0.649712 0.4477 0.445893 0.302643 0.165297 0.083702 0.0196509 0.0443034 0.00631782 0.00198345 0.00421887 0.0129196 0.0132716 0.0229261
threshold=1.0000000180025095e-35 107.50000000000001 306.00000000000006 0.17073954766757973 0.15103262137856729 449.49500000000006 4.5000000000000009 1.0000000180025095e-35 1.0000000180025095e-35 24.500000000000004 0.11646022419778501 552.50000000000011 573.50000000000011 355.50000000000006 5.5000000000000009 467.50000000000006 4.5000000000000009 33.500000000000007 0.2701496153846154 799.50000000000011 1.0000000180025095e-35 2.5000000000000004 769.50000000000011 212.50000000000003 587.50000000000011 0.15674920637228215 0.21481045477526103 0.14519170940170942 0.079299057507565593 6.5000000000000009 0.1623065384615385 1.5000000000000002 680.50000000000011 538.50000000000011 437.50000000000006 25.500000000000004 484.00000000000006 0.22777888888888892 0.17073954766757973 1.0000000180025095e-35 556.00000000000011 2850.0000000000005 10.500000000000002 24.500000000000004 31.500000000000004 484.00000000000006 974.50000000000011
decision_type=2 2 2 2 2 2 2 2 2 2 2 2 2 2 2 2 2 2 2 2 2 2 2 2 2 2 2 2 2 2 2 2 2 2 2 2 2 2 2 2 2 2 2 2 2 2 2
left_child=39 2 17 4 7 6 12 8 9 -4 11 -9 -6 14 -5 36 -12 23 26 20 -7 -17 -23 -2 -10 -21 27 28 -19 31 -8 -16 33 34 -25 -35 -15 -31 -29 41 -41 42 -1 -44 45 -45 -47
right_child=1 -3 3 13 5 19 30 10 24 -11 16 -13 -14 15 29 21 -18 18 -20 25 -22 22 -24 32 -26 -27 -28 38 -30 37 -32 -33 -34 35 -36 -37 -38 -39 -40 40 -42 -43 43 44 -46 46 -48
leaf_value=0.0071941262520960796 -0.030833049509707028 -0.026219249487555531 0.0667463373888596 -0.042680177398650827 0.035639000465220942 -0.0066668921183664527 0.0025025896550657052 -0.028021086512089656 -0.01392458273057522 0.0094862361451531173 0.00499275521637761 -0.0050866219424193036 0.0042786112366212962 0.011944967164537603 -0.015204954929498036 0.019845429266718843 -0.004917830309880562 -0.014645474817933386 -0.026017063954004636 -0.024843906283591909 -0.032687441402933268 0.002616217032530651 -0.0055644314417052834 -0.0079096412387915597 0.0088096807557961967 0.00093401285987563111 0.020136439685825448 -0.026210090501815289 0.014550817200011749 0.02108590991835858 -0.024300904167842259 0.0074003937033538135 0.0041023893339068099 -0.012896129692822613 0.011810799808907641 -0.028477680778699516 0.030906058520975326 0.0049970495397106667 -0.01544071496779272 -0.00013932859637926301 0.0080912962307688428 0.0052690882097316677 0.0073684947722394189 0.0072953503155334257 0.0073466104687732884 0.0032037288750886793 0.0076113073399823065
leaf_weight=2556 68 58 86 78 63 128 49 149 277 142 746 1095 108 86 107 79 752 55 68 62 312 1598 676 296 65 104 73 54 210 50 98 62 84 312 55 97 56 53 63 49 57 78 448 127 411 140 72
leaf_count=2556 68 58 86 78 63 128 49 149 277 142 746 1095 108 86 107 79 752 55 68 62 312 1598 676 296 65 104 73 54 210 50 98 62 84 312 55 97 56 53 63 49 57 78 448 127 411 140 72
internal_value=0 -0.00333368 -0.00317781 -0.00231542 -0.00424042 -0.0130374 0.00141033 -0.00178619 0.00667149 0.0310843 -0.00354435 -0.0078336 0.0158324 0.000550768 -0.00908006 0.00190179 1.76148e-05 -0.00743329 -0.000835831 -0.0206189 -0.0251178 0.000844432 0.000184327 -0.0112167 -0.00960374 -0.00869388 0.00292752 -0.000361098 0.00849121 0.00055527 -0.0153664 -0.00691187 -0.00963624 -0.0111547 -0.00481954 -0.0165915 0.0194226 0.0128072 -0.0204112 0.00698251 0.00428657 0.00705709 0.00709424 0.00688113 0.00659 0.0056727 0.00470064
internal_weight=0 8574 8516 7081 4236 924 318 3312 570 228 2742 1244 171 2845 350 2495 1498 1435 523 606 440 2353 2274 912 342 166 455 382 265 272 147 169 844 760 351 409 142 103 117 3938 106 3832 3754 1198 750 339 212
internal_count=12512 8574 8516 7081 4236 924 318 3312 570 228 2742 1244 171 2845 350 2495 1498 1435 523 606 440 2353 2274 912 342 166 455 382 265 272 147 169 844 760 351 409 142 103 117 3938 106 3832 3754 1198 750 339 212
is_linear=0
shrinkage=0.200723


Tree=16
num_leaves=48
num_cat=0
split_feature=7 8 9 9 7 9 8 8 9 8 8 9 8 8 8 9 0 7 9 8 5 5 3 9 0 8 4 4 4 8 9 9 9 4 4 4 4 7 6 9 6 3 3 8 8 8 7
split_gain=4.28587 1.99957 2.368 3.2475 2.63801 1.92678 1.90204 2.15001 1.69919 1.4282 1.86923 1.6438 4.24928 1.75508 1.31536 3.6913 1.31514 1.30682 1.71103 1.68282 3.37904 1.42064 1.28854 1.26977 1.1392 1.04145 1.24453 1.03648 1.10668 1.01545 1.86559 1.50363 1.51313 1.80682 1.1252 0.947847 0.926736 0.890979 1.06734 0.86285 0.846448 0.82955 0.808779 0.683709 0.769574 0.631229 0.615549
threshold=459.50000000000006 0.17016885226527798 17.500000000000004 12.500000000000002 599.50000000000011 23.500000000000004 0.16297346916548075 0.12643829379090685 12.500000000000002 0.085525693711425668 0.075909663461538476 11.500000000000002 0.31034462132398183 0.2510496153846154 0.3473257750444983 8.5000000000000018 1.0000000180025095e-35 437.50000000000006 23.500000000000004 0.16297346916548075 5.5000000000000009 3.0000000000000004 592.50000000000011 13.500000000000002 1.5000000000000002 0.19407421171171174 12.500000000000002 14.500000000000002 34.500000000000007 0.12184397385312733 24.500000000000004 24.500000000000004 25.500000000000004 12.500000000000002 27.500000000000004 12.500000000000002 21.500000000000004 622.50000000000011 4.5000000000000009 26.500000000000004 52.500000000000007 306.00000000000006 592.50000000000011 0.061224609564644074 0.04861600870455151 0.22513442307692313 584.50000000000011
decision_type=2 2 2 2 2 2 2 2 2 2 2 2 2 2 2 2 2 2 2 2 2 2 2 2 2 2 2 2 2 2 2 2 2 2 2 2 2 2 2 2 2 2 2 2 2 2 2
left_child=9 2 3 6 27 -4 7 -2 14 10 43 12 -11 17 15 -3 23 18 19 20 -13 41 -21 40 25 26 -17 -5 -29 31 34 35 33 -33 -31 -7 -16 38 42 -34 -6 -20 46 44 -1 -27 -10
right_child=1 8 5 4 16 29 -8 -9 37 11 -12 13 -14 -15 36 24 -18 -19 21 22 -22 -23 -24 -25 -26 45 -28 28 -30 30 -32 32 39 -35 -36 -37 -38 -39 -40 -41 -42 -43 -44 -45 -46 -47 -48
leaf_value=0.0055493644152399824 0.0019844391895131796 -0.040602863059967464 0.024253411991451795 -0.019509315588699134 0.001096351885618132 -0.0034360041081274106 -0.01688121529329794 0.045174049478401306 0.018375690823132645 0.04950227502572592 0.033466158639355141 0.019831061811225372 -0.007789668121364072 -0.03317186309447661 0.03015496975850843 -0.0080793031490545737 -0.029942767851939896 0.020868320500122658 -0.055007737861195699 -0.01723689135092293 -0.0070511787905591303 -0.0015584058412466452 0.0046966411777240036 -0.01559753231928647 0.0098363771858998496 -0.027077300518183679 0.032009369036117959 -0.064592730524198186 -0.026544647476258974 0.0020026497353843151 0.01113122798615611 0.0078879979001172558 0.0011610228740160477 -0.032767865735784711 -0.02564809459655254 0.027177313491046483 1.740118510096872e-05 0.0015470562798308701 0.0027179318285720112 -0.010950510074634313 -0.024931052957519673 -0.019672661612332294 -0.0029733500879262735 -0.013311818876530955 0.027915692477214451 -0.0085342545729678015 0.040900746411947124
leaf_weight=3830 117 124 109 89 431 82 85 77 162 89 99 361 126 73 62 78 145 100 49 305 394 90 167 627 198 94 52 70 55 126 431 58 453 183 112 81 122 1043 282 497 57 59 50 76 63 347 70
leaf_count=3830 117 124 109 89 431 82 85 77 162 89 99 361 126 73 62 78 145 100 49 305 394 90 167 627 198 94 52 70 55 126 431 58 453 183 112 81 122 1043 282 497 57 59 50 76 63 347 70
internal_value=0 -0.00332523 -0.00623602 -0.0117011 -0.0154598 -0.00174247 0.00815655 0.0191267 0.000888044 0.00413455 0.00622276 -0.000550963 0.0159265 -0.0027679 -0.00528113 -0.00846529 -0.0119602 -0.00131249 -0.00286904 -7.50317e-05 0.00580245 -0.0201834 -0.00947651 -0.0096217 -0.00328316 -0.00783249 0.00795617 -0.0360644 -0.0478516 -0.00314313 0.00325457 -0.00630418 -0.00877874 -0.0229835 -0.0110095 0.0117767 0.0101725 0.00502258 0.0114498 -0.00517522 -0.00194373 -0.0357043 0.0201817 0.00554322 0.00591132 -0.0124867 0.025172
internal_weight=0 6569 3885 1753 1474 2132 279 194 2684 5881 4068 1813 215 1598 1077 893 1260 1525 1425 1227 755 198 472 1115 769 571 130 214 125 2023 669 1354 1191 241 238 163 184 1607 564 950 488 108 282 3969 3893 441 232
internal_count=12450 6569 3885 1753 1474 2132 279 194 2684 5881 4068 1813 215 1598 1077 893 1260 1525 1425 1227 755 198 472 1115 769 571 130 214 125 2023 669 1354 1191 241 238 163 184 1607 564 950 488 108 282 3969 3893 441 232
is_linear=0
shrinkage=0.200723


Tree=17
num_leaves=48
num_cat=0
split_feature=7 8 2 8 8 0 7 8 3 6 4 8 8 8 6 5 6 7 4 8 7 8 7 8 3 8 4 6 4 7 8 4 8 4 4 8 8 2 3 7 7 7 8 8 8 4 7
split_gain=2.738 1.27741 1.19719 1.03006 2.77443 2.64489 6.24204 2.24685 1.9322 0.829507 1.87373 0.834095 0.917271 0.919049 0.796993 1.6765 1.42982 0.983949 0.777563 0.710322 1.05707 0.96641 0.881091 0.696739 0.687208 0.854178 0.602383 0.915191 0.756614 0.574652 0.726492 0.644436 0.558434 0.998595 0.556059 0.900956 0.808557 0.752926 0.542648 0.747691 0.549941 0.639523 0.496823 0.910932 0.494775 0.498201 0.487578
threshold=459.50000000000006 0.17016885226527798 1.0000000180025095e-35 0.16297346916548075 0.13585848766193795 1.5000000000000002 1.0000000180025095e-35 0.31034462132398183 306.00000000000006 1.0000000180025095e-35 34.500000000000007 0.45603388888888896 0.25137800925925929 0.25677845873486005 4.5000000000000009 3.0000000000000004 42.500000000000007 760.50000000000011 34.500000000000007 0.14832446845358879 505.50000000000006 0.15674920637228215 893.50000000000011 0.22777888888888892 403.00000000000006 0.24741887179487182 25.500000000000004 4.5000000000000009 12.500000000000002 713.50000000000011 0.15230940934065937 12.500000000000002 0.1623065384615385 13.500000000000002 31.500000000000004 0.078665925925925945 0.23153448717948721 2.5000000000000004 362.50000000000006 787.50000000000011 628.50000000000011 699.50000000000011 0.10854678029309213 0.12456534722222225 0.22513442307692313 37.500000000000007 577.50000000000011
decision_type=2 2 2 2 2 2 2 2 2 2 2 2 2 2 2 2 2 2 2 2 2 2 2 2 2 2 2 2 2 2 2 2 2 2 2 2 2 2 2 2 2 2 2 2 2 2 2
left_child=2 19 3 4 -1 6 18 -7 -6 10 24 12 14 -14 17 -16 -17 23 -5 20 -2 29 38 -11 -3 -26 28 -28 -15 30 -21 -31 33 -23 35 -4 42 44 39 -22 -40 -42 -37 -44 45 -36 -34
right_child=1 9 34 5 8 7 -8 -9 -10 11 -12 -13 13 26 15 16 -18 -19 -20 21 22 32 -24 -25 25 -27 27 -29 -30 31 -32 -33 46 -35 37 36 -38 -39 40 -41 41 -43 43 -45 -46 -47 -48
leaf_value=0.0045547763797833879 -0.022231483496689859 -0.013673507378553282 0.011645440744918696 -0.061965839314069099 0.00034798506583649742 0.032929597524002908 0.011846653678990635 -0.012932357373731803 0.047812396099857532 0.023769283924566127 -0.036788738901058313 0.024833248185903736 -0.021468207904359077 0.0034794532428815183 -0.0072727517102904983 0.014096205073567956 -0.0092067235159661968 -0.014377327628783789 -0.030706787342562467 -0.048474541558128824 -0.0097983257306703108 0.014010521150793417 -0.020308567702916152 0.0070032952864946575 -0.0023616539519401582 0.022305244433937121 0.021321131998211892 -0.004719188884224448 -0.019756628194184993 0.0040670199939873124 -0.016132262199194825 -0.021480716738504199 0.006861870787259792 -0.011220085114756176 0.029282469213809118 -0.026049718832177004 0.0094010225315442359 -0.016579844082836605 0.0053894817257586075 0.014784958776693908 -0.0095201510312977414 -0.00022654710595197361 0.015927103977257769 -0.012297637371946736 -0.0063749784662428264 0.0056331071668534504 -0.014145543997114268
leaf_weight=4302 117 135 101 75 52 107 145 72 103 185 71 65 112 110 496 448 139 53 56 51 532 130 111 217 240 74 94 129 116 62 62 111 53 123 68 82 85 51 479 55 384 1337 52 404 50 76 278
leaf_count=4302 117 135 101 75 52 107 145 72 103 185 71 65 112 110 496 448 139 53 56 51 532 130 111 217 240 74 94 129 116 62 62 111 53 123 68 82 85 51 479 55 384 1337 52 404 50 76 278
internal_value=0 -0.00265778 0.00330465 0.00457665 0.00550537 -0.00452069 -0.0168451 0.0144823 0.0318889 0.000709793 -0.00648872 0.00243956 0.0017461 -0.00520153 0.00428031 0.00131863 0.00857814 0.0113297 -0.0486032 -0.00498431 -0.00352635 -0.0100369 -0.00277117 0.014719 -0.0016974 0.00345156 -0.00114392 0.00625745 -0.00844703 -0.0195965 -0.0307292 -0.0123249 -0.00535528 0.00174426 -0.00314328 -0.00594038 -0.00879137 0.00512246 -0.0020727 -0.00749495 -0.000625941 -0.00230019 -0.0116656 -0.00907903 0.0108277 0.0168009 -0.0107818
internal_weight=0 6569 5881 4912 4457 455 276 179 155 2684 520 2164 2099 561 1538 1083 587 455 131 3885 3015 870 2898 402 449 314 449 223 226 286 113 173 584 253 969 724 623 245 2787 587 2200 1721 538 456 194 144 331
internal_count=12450 6569 5881 4912 4457 455 276 179 155 2684 520 2164 2099 561 1538 1083 587 455 131 3885 3015 870 2898 402 449 314 449 223 226 286 113 173 584 253 969 724 623 245 2787 587 2200 1721 538 456 194 144 331
is_linear=0
shrinkage=0.200723


Tree=18
num_leaves=40
num_cat=0
split_feature=9 6 9 3 1 6 3 1 1 9 1 9 3 2 1 6 0 1 3 4 4 1 0 3 3 4 1 3 0 1 3 4 1 3 4 1 6 6 4
split_gain=1.66342 1.00525 0.752252 0.511093 0.442164 0.441215 1.23929 0.352256 0.536936 0.700347 0.581455 0.201947 0.0337483 0.014829 0.0311326 0.00141844 0.00339726 0.011069 0.0022015 0.00398808 0.00638427 0.000593395 0.00217535 0.00423331 0.0002514 0.000424802 0.000146138 0.000107933 9.65189e-05 0.00032717 0.000164749 3.61834e-05 3.58638e-05 4.46103e-05 3.50398e-05 3.39232e-05 2.29755e-05 1.0541e-05 8.21408e-06
threshold=3.5000000000000004 117.50000000000001 29.500000000000004 212.50000000000003 551.25000000000011 87.500000000000014 600.50000000000011 240.50000000000003 332.50000000000006 15.500000000000002 359.50000000000006 24.500000000000004 2850.0000000000005 1.0000000180025095e-35 515.62500000000011 10.500000000000002 3.5000000000000004 635.00000000000011 887.50000000000011 29.500000000000004 19.500000000000004 386.24575000000004 3.5000000000000004 484.00000000000006 443.50000000000006 31.500000000000004 479.33500000000009 1096.5000000000002 3.5000000000000004 635.00000000000011 387.50000000000006 21.500000000000004 359.50000000000006 306.00000000000006 27.500000000000004 635.00000000000011 4.5000000000000009 8.0000000000000018 12.500000000000002
decision_type=2 2 2 2 2 2 2 2 2 2 2 2 2 2 2 2 2 2 2 2 2 2 2 2 2 2 2 2 2 2 2 2 2 2 2 2 2 2 2
left_child=12 2 3 -2 -4 7 -7 11 9 -9 -10 -5 13 15 -15 21 18 26 24 20 -20 22 32 -24 38 -26 -18 -21 35 31 -31 -30 -1 -34 -19 36 -23 -37 -17
right_child=1 -3 4 5 -6 6 -8 8 10 -11 -12 -13 -14 14 -16 16 17 34 19 27 -22 28 23 -25 25 -27 -28 -29 29 30 -32 -33 33 -35 -36 37 -38 -39 -40
leaf_value=0.0039816959840499704 -0.016172505787452676 -0.030114812056062545 0.021218306571341626 0.0018502203673407091 -0.0015724403724698508 0.031201045164382275 -0.010881289328187001 -0.0032469520133551026 0.011312392761541923 -0.023504391456632735 -0.0016076475682959511 0.018544282355138504 -0.00072995500535551813 0.0045747164172990724 -0.0024128931900461886 0.0037929226210497761 0.0037343179166661549 0.0010693848176121356 0.0039020031929996842 0.0041258380287165497 0.0010154652007637031 0.0037770912175890134 0.0039874404824237833 0.0016406077907415708 0.0041277592489820866 0.0037076852290047375 0.004127069131110263 0.0037667966913404005 0.0037336002222418258 0.0039669040498151202 0.0043757966272692942 0.0038434961506878767 0.0039581779067506141 0.0037619273479466723 0.001309430845576119 0.0037245239186950679 0.0038388046460081371 0.0037905560843340511 0.0037053153813270691
leaf_weight=64 95 49 94 65 54 59 54 211 143 102 7545 53 73 54 49 54 80 49 58 66 66 440 64 60 262 154 73 69 191 102 65 328 63 180 49 315 543 141 214
leaf_count=64 95 49 94 65 54 59 54 211 143 102 7545 53 73 54 49 54 80 49 58 66 66 440 64 60 262 154 73 69 191 102 65 328 63 180 49 315 543 141 214
internal_value=0 -0.00144775 -0.001282 -0.00153412 0.0129028 -0.00136518 0.0110909 -0.00153855 -0.00169911 -0.00984842 -0.00136733 0.0093484 0.00354553 0.00362654 0.00125051 0.0036918 0.00351118 0.00285491 0.00368586 0.00318746 0.00236562 0.00377617 0.00356142 0.00285188 0.00387458 0.00397225 0.00392171 0.00394233 0.00381973 0.00388168 0.00412605 0.00380305 0.00384802 0.00381281 0.00118941 0.00379019 0.00381118 0.00374494 0.00372297
internal_weight=0 8524 8475 8327 148 8232 113 8119 8001 313 7688 118 3926 3853 103 3750 1194 251 943 259 124 2556 431 124 684 416 153 135 2125 686 167 519 307 243 98 1439 983 456 268
internal_count=12450 8524 8475 8327 148 8232 113 8119 8001 313 7688 118 3926 3853 103 3750 1194 251 943 259 124 2556 431 124 684 416 153 135 2125 686 167 519 307 243 98 1439 983 456 268
is_linear=0
shrinkage=0.200723


Tree=19
num_leaves=45
num_cat=0
split_feature=9 6 9 3 6 3 9 3 9 1 5 6 1 4 3 6 3 1 3 2 3 3 0 1 3 4 3 3 1 0 6 1 4 4 1 3 4 1 6 6 4 4 4 5
split_gain=1.06267 0.642195 0.480572 0.326508 0.322701 0.476866 0.99413 0.790237 0.610201 0.551861 0.472418 1.47068 1.81149 1.09624 0.584099 0.565984 0.431445 0.282474 0.0215599 0.00947342 0.0265679 0.00100721 0.00271241 0.0123968 0.00329923 0.00705268 0.00114851 0.0121972 0.000351464 0.000306602 0.000868477 0.000133535 0.000132995 0.000613615 0.000121989 6.77973e-05 6.55461e-05 2.48676e-05 1.8799e-05 2.18041e-05 1.00389e-05 6.33254e-06 2.79529e-06 9.16473e-07
threshold=3.5000000000000004 117.50000000000001 29.500000000000004 212.50000000000003 1.0000000180025095e-35 918.50000000000011 12.500000000000002 887.50000000000011 24.500000000000004 563.75000000000011 3.0000000000000004 4.5000000000000009 635.00000000000011 20.500000000000004 592.50000000000011 10.500000000000002 362.50000000000006 551.25000000000011 2850.0000000000005 1.0000000180025095e-35 592.50000000000011 484.00000000000006 3.5000000000000004 635.00000000000011 548.00000000000011 12.500000000000002 887.50000000000011 943.50000000000011 449.49500000000006 3.5000000000000004 10.500000000000002 473.50000000000006 24.500000000000004 31.500000000000004 359.50000000000006 337.50000000000006 29.500000000000004 635.00000000000011 4.5000000000000009 10.500000000000002 18.500000000000004 12.500000000000002 8.5000000000000018 3.0000000000000004
decision_type=2 2 2 2 2 2 2 2 2 2 2 2 2 2 2 2 2 2 2 2 2 2 2 2 2 2 2 2 2 2 2 2 2 2 2 2 2 2 2 2 2 2 2 2
left_child=18 2 3 -2 5 7 -7 9 -8 -5 11 16 -13 15 -15 -12 -6 -4 19 21 -21 29 26 24 25 -24 32 -28 -26 37 35 -29 34 -34 -23 40 -37 38 41 -40 -31 -1 -39 -44
right_child=1 -3 17 4 10 6 8 -9 -10 -11 13 12 -14 14 -16 -17 -18 -19 -20 20 -22 22 23 -25 28 -27 27 31 -30 30 -32 -33 33 -35 -36 36 -38 42 39 -41 -42 -43 43 -45
leaf_value=0.0030433298093481662 -0.012926312683068016 -0.024070079890728922 0.01695930651747744 -0.0068496420356771752 -0.0015618141575436228 0.022323688644458162 -0.0065048990564437826 -0.027685570971015677 0.0085291093871116778 0.00034580187137695162 0.016155985208714158 -0.0081679524999936325 0.01235554822462835 -0.0071392263747162097 0.0018842933998311588 0.0045009509289166425 0.004538217492063742 -0.0012568152470617683 -0.00058343610021532703 -0.0023846939213785965 0.0040703556627341144 0.0033310077402695037 0.00020436791282528406 0.00026453828211129134 0.0036409934328006442 0.0030673456118421941 -0.00022145574745603195 0.002960728047799243 0.0031273836019174114 0.0032652434477392252 0.0038192118294137043 0.0032412788186476512 0.0034240447805553562 0.0029905769938817542 0.0030060048831034966 0.0029807916393929036 0.0032124270889521069 0.0030183748135523799 0.0030853345770494164 0.0029774797218096961 0.0031469192633791828 0.0029759479966446076 0.0029805926637647747 0.002961988210221876
leaf_weight=78 95 49 94 1039 772 83 323 58 164 732 218 1555 195 506 674 730 1183 54 73 49 54 51 52 86 67 104 50 100 270 65 77 216 227 313 531 225 63 57 341 97 52 201 208 219
leaf_count=78 95 49 94 1039 772 83 323 58 164 732 218 1555 195 506 674 730 1183 54 73 49 54 51 52 86 67 104 50 100 270 65 77 216 227 313 531 225 63 57 341 97 52 201 208 219
internal_value=0 -0.00115715 -0.00102468 -0.00122618 -0.00109116 -0.00305079 0.00201852 -0.00463063 -0.00144211 -0.00387558 -0.000285201 -0.00165421 -0.00588105 0.00209834 -0.00198511 0.00718112 0.00212941 0.0103129 0.00283386 0.00289861 0.000999507 0.00295077 0.0028569 0.00248829 0.00287621 0.00211302 0.00300033 0.00269157 0.0032295 0.00306605 0.00320129 0.0031525 0.00310105 0.00317279 0.00303448 0.00308381 0.00303146 0.00301178 0.00303551 0.00306145 0.00321265 0.00299479 0.00297662 0.00297105
internal_weight=0 8524 8475 8327 8232 2399 570 1829 487 1771 5833 3705 1750 2128 1180 948 1955 148 3926 3853 103 3750 2067 579 493 156 1488 366 337 1683 482 316 1122 540 582 405 288 1201 717 438 117 279 484 427
internal_count=12450 8524 8475 8327 8232 2399 570 1829 487 1771 5833 3705 1750 2128 1180 948 1955 148 3926 3853 103 3750 2067 579 493 156 1488 366 337 1683 482 316 1122 540 582 405 288 1201 717 438 117 279 484 427
is_linear=0
shrinkage=0.200723


Tree=20
num_leaves=34
num_cat=0
split_feature=6 9 9 9 1 3 1 3 9 3 4 9 3 3 9 9 6 9 3 1 5 1 1 0 1 3 2 3 4 6 1 0 5
split_gain=0.871181 0.793921 0.510036 0.980814 1.26435 1.09406 0.953478 0.555778 0.46169 0.544077 1.14177 0.470987 0.800827 0.631966 0.631617 1.022 0.87852 0.410416 0.374233 0.266328 0.18847 0.185598 0.0399441 0.011315 0.009073 0.0259805 0.0155943 0.00445995 0.000830349 0.00205976 0.00108019 0.000294283 1.09306e-07
threshold=117.50000000000001 3.5000000000000004 8.5000000000000018 6.5000000000000009 587.50000000000011 337.50000000000006 618.95000000000016 484.00000000000006 28.500000000000004 1581.0000000000002 27.500000000000004 26.500000000000004 337.50000000000006 637.50000000000011 25.500000000000004 24.500000000000004 32.500000000000007 45.500000000000007 695.50000000000011 240.50000000000003 3.0000000000000004 548.43750000000011 221.00000000000003 1.5000000000000002 670.00000000000011 484.00000000000006 1.0000000180025095e-35 1912.5000000000002 27.500000000000004 10.500000000000002 635.00000000000011 3.5000000000000004 3.0000000000000004
decision_type=2 2 2 2 2 2 2 2 2 2 2 2 2 2 2 2 2 2 2 2 2 2 2 2 2 2 2 2 2 2 2 2 2
left_child=1 22 3 5 -5 -3 7 -7 9 11 19 14 -13 -14 15 -4 -16 21 -9 -11 -6 -10 23 -1 26 31 27 28 30 -30 -24 32 -26
right_child=-2 2 8 4 20 6 -8 18 17 10 -12 12 13 -15 16 -17 -18 -19 -20 -21 -22 -23 24 -25 25 -27 -28 -29 29 -31 -32 -33 -34
leaf_value=-0.0034072347350606975 -0.026889890773092982 -0.01978405424484473 -0.0010001402441318999 0.00022381572552442259 -0.023049460548962061 0.01705797615975136 0.031252077053337275 -0.019908113784570029 0.023915680827622871 0.0083075866226577227 0.033314968370368458 -0.025169978995750311 0.0023322390970243086 -0.013212616443333608 0.0060572981560775077 -0.012988499155871644 -0.01525268669369725 -0.0035415713972843051 0.0040855393589019715 -0.0082809789017325216 -0.039463465523557256 0.007444518298281389 0.0023777264613261194 0.0005581869084107415 0.0023818517039324678 -0.0014171568755903467 0.0050216796092732892 0.0040359455152721348 0.0024419608180116072 0.00193292121403045 0.0027184080526482567 0.002881417316183623 0.0023716875218483284
leaf_weight=57 49 81 5948 85 51 51 52 55 63 79 57 83 272 172 832 301 86 63 50 77 63 49 1424 59 94 95 95 67 921 491 509 64 78
leaf_count=57 49 81 5948 85 51 51 52 55 63 79 57 83 272 172 832 301 86 63 50 77 63 49 1424 59 94 95 95 67 921 491 509 64 78
internal_value=0 -7.34642e-05 -0.00115899 -0.00746067 -0.018305 6.52978e-06 0.00771344 -0.000132772 -0.000778492 -0.00100419 0.0090029 -0.00128122 -0.00707269 -0.00368964 -0.000855369 -0.00157759 0.00406094 0.00941914 -0.00848256 0.000119641 -0.0321204 0.0167095 0.00227934 -0.00139034 0.00239025 0.0013857 0.00248507 0.00241444 0.00238196 0.00226495 0.00246744 0.00251397 0.00237724
internal_weight=0 12524 8570 488 199 289 208 156 8082 7907 213 7694 527 444 7167 6249 918 175 105 156 114 112 3954 116 3838 331 3507 3412 3345 1412 1933 236 172
internal_count=12573 12524 8570 488 199 289 208 156 8082 7907 213 7694 527 444 7167 6249 918 175 105 156 114 112 3954 116 3838 331 3507 3412 3345 1412 1933 236 172
is_linear=0
shrinkage=0.200723


Tree=21
num_leaves=48
num_cat=0
split_feature=7 4 1 9 0 4 7 7 4 3 7 0 2 4 3 3 9 7 7 3 3 5 9 4 9 4 3 9 7 9 4 4 9 9 5 3 9 2 7 4 0 4 1 3 1 2 4
split_gain=0.723262 0.86335 0.914474 0.857886 0.806676 0.749646 0.741833 1.25583 0.884116 0.70901 0.631594 0.630373 0.569943 0.487735 0.861667 0.779816 0.448293 0.441915 0.44188 0.906319 0.897804 0.554152 0.554948 0.422554 0.657137 1.05364 1.21781 1.57395 2.60265 1.27846 0.9137 0.715593 0.564463 0.550461 1.37425 0.46981 0.449747 1.41771 3.57813 2.40792 0.625525 0.743632 0.607902 0.861963 0.438826 0.418926 0.39612
threshold=514.50000000000011 15.500000000000002 647.50000000000011 6.5000000000000009 2.5000000000000004 12.500000000000002 612.50000000000011 699.50000000000011 10.500000000000002 1581.0000000000002 801.50000000000011 1.0000000180025095e-35 1.5000000000000002 3.5000000000000004 459.00000000000006 337.50000000000006 25.500000000000004 846.50000000000011 846.50000000000011 637.50000000000011 801.50000000000011 6.5000000000000009 13.500000000000002 21.500000000000004 11.500000000000002 23.500000000000004 537.50000000000011 13.500000000000002 372.50000000000006 16.500000000000004 31.500000000000004 33.500000000000007 25.500000000000004 6.5000000000000009 5.5000000000000009 887.50000000000011 6.5000000000000009 1.0000000180025095e-35 1.0000000180025095e-35 18.500000000000004 1.5000000000000002 12.500000000000002 531.12500000000011 548.00000000000011 479.33500000000009 1.0000000180025095e-35 2.5000000000000004
decision_type=2 2 2 2 2 2 2 2 2 2 2 2 2 2 2 2 2 2 2 2 2 2 2 2 2 2 2 2 2 2 2 2 2 2 2 2 2 2 2 2 2 2 2 2 2 2 2
left_child=23 3 9 -2 11 6 8 -8 -6 12 -9 13 18 46 15 -15 -7 -16 21 -20 -21 22 -3 36 33 -26 27 28 45 35 -30 -29 -31 -25 -35 44 -1 38 39 -38 41 -40 43 -39 -28 -27 -5
right_child=1 2 -4 4 5 16 7 10 -10 -11 -12 -13 -14 14 17 -17 -18 -19 19 20 -22 -23 -24 24 25 26 29 31 30 32 -32 -33 -34 34 -36 -37 37 42 40 -41 -42 -43 -44 -45 -46 -47 -48
leaf_value=0.0015687626025880864 0.013074188608165513 0.0042708827239706718 -0.0090314517110611104 -0.0048004013984325276 0.00065671705928796616 -0.0010658826892013394 -0.015849518857355634 0.013687581751693632 0.036200846555191589 0.020863141404875628 -0.0037326367722368792 -0.023156131254007808 -0.011322019306867225 -0.0017964050170694891 -0.0028037613453737223 -0.018336871809013808 -0.021258250830059177 0.011634708901479718 -0.019882505307804138 0.021774650786103602 -0.0064679438906413873 0.019204746052642715 -0.0012447922667902329 0.0014595349107095457 -0.021002598889082267 -0.033416217667951366 0.0072355574804980451 -0.0059493012464541476 0.024950360074508762 -0.02447917044209727 -0.0088364388147113178 0.0080507079653094789 0.004205413251850346 0.037809270855907642 -0.0082198490497613751 0.0036072340764145721 0.056545379566141758 0.020115168829135152 0.022552056227884733 0.0038112465896441563 -0.01251761803703111 -0.0035028200740768321 -0.01114611878194543 -0.0060621112993874396 0.029820159246951475 -0.017132370532886149 -0.021602948000989827
leaf_weight=1694 104 1528 395 90 59 83 148 197 54 72 146 108 151 191 500 288 95 103 117 65 150 74 1416 2244 124 153 50 285 65 52 64 304 59 56 49 74 106 90 79 52 90 100 159 116 113 109 152
leaf_count=1694 104 1528 395 90 59 83 148 197 54 72 146 108 151 191 500 288 95 103 117 65 150 74 1416 2244 124 153 50 285 65 52 64 304 59 56 49 74 106 90 79 52 90 100 159 116 113 109 152
internal_value=0 -0.00166476 0.000133175 -0.0047425 -0.00557942 -0.000394693 0.00297906 -0.000395601 0.0176424 0.00114634 0.00627256 -0.00841074 0.00074085 -0.00720795 -0.00538599 -0.0117414 -0.0118427 -0.000337489 0.00128458 -0.00566594 0.00207051 0.00204918 0.00161796 0.00138002 4.92003e-05 -0.00330767 -0.00165543 -0.00527756 -0.0151506 0.00854481 0.00818792 0.00127651 -0.00923241 0.0021242 0.016329 0.0168708 0.00341478 0.00736322 0.0152148 0.0391898 0.00113288 0.00799626 -0.00182212 0.00537456 0.0228924 -0.0266416 -0.0153541
internal_weight=0 6286 3968 2318 2214 782 604 491 113 3573 343 1432 3501 1324 1082 479 178 603 3350 332 215 3018 2944 6287 3801 1452 1328 980 391 348 129 589 111 2349 105 237 2486 792 427 158 269 179 365 206 163 262 242
internal_count=12573 6286 3968 2318 2214 782 604 491 113 3573 343 1432 3501 1324 1082 479 178 603 3350 332 215 3018 2944 6287 3801 1452 1328 980 391 348 129 589 111 2349 105 237 2486 792 427 158 269 179 365 206 163 262 242
is_linear=0
shrinkage=0.200723


Tree=22
num_leaves=48
num_cat=0
split_feature=1 7 9 4 4 7 7 6 7 9 9 4 7 3 9 1 4 4 4 4 9 4 7 9 4 4 1 3 2 9 7 7 6 7 9 6 9 1 9 7 2 1 3 4 1 0 0
split_gain=0.64148 0.458492 0.920439 0.512224 0.656293 0.688395 0.853334 0.995465 0.781448 0.636053 1.21835 0.612593 0.552879 0.472281 0.481087 0.75319 0.393952 0.543561 0.373106 0.344408 0.437547 0.664615 0.865771 1.06768 0.98689 0.817978 0.530204 0.48662 0.473693 1.428 0.338373 1.34469 1.23399 0.735198 0.30178 1.01812 0.709067 0.5852 0.447271 0.264599 0.120168 0.0464874 0.023238 0.056781 0.00961237 0.0170359 0.0267367
threshold=177.60000000000002 514.50000000000011 39.500000000000007 13.500000000000002 12.500000000000002 725.50000000000011 672.50000000000011 4.5000000000000009 893.50000000000011 7.5000000000000009 6.5000000000000009 6.5000000000000009 741.50000000000011 1581.0000000000002 26.500000000000004 635.00000000000011 26.500000000000004 34.500000000000007 21.500000000000004 21.500000000000004 11.500000000000002 23.500000000000004 372.50000000000006 12.500000000000002 34.500000000000007 35.500000000000007 618.95000000000016 537.50000000000011 1.0000000180025095e-35 6.5000000000000009 793.50000000000011 756.50000000000011 4.5000000000000009 826.50000000000011 6.5000000000000009 8.0000000000000018 13.500000000000002 319.50000000000006 12.500000000000002 372.50000000000006 1.0000000180025095e-35 548.43750000000011 306.00000000000006 34.500000000000007 566.87500000000011 1.5000000000000002 2.5000000000000004
decision_type=2 2 2 2 2 2 2 2 2 2 2 2 2 2 2 2 2 2 2 2 2 2 2 2 2 2 2 2 2 2 2 2 2 2 2 2 2 2 2 2 2 2 2 2 2 2 2
left_child=-1 19 3 4 5 6 11 -8 12 10 16 -3 -7 14 18 -16 -5 -18 -11 34 28 40 23 24 -23 26 -24 -25 29 42 31 32 -6 -32 44 37 -37 -36 -39 -40 -22 -30 43 -21 45 -2 -47
right_child=1 2 -4 9 30 8 7 -9 -10 13 -12 -13 -14 -15 15 -17 17 -19 -20 20 21 22 25 27 -26 -27 -28 -29 41 -31 33 -33 -34 -35 35 36 -38 38 39 -41 -42 -43 -44 -45 -46 46 -48
leaf_value=-0.020002394181274443 0.0018517587283397208 -0.013758223032267418 0.026176145669097008 -0.013872465235492792 -0.018316630507235615 0.019025524151867153 -0.0050470758120565885 -0.030278380714242624 -0.016936390337396863 0.0051047887209187907 -0.032067828402160659 0.0009330222157822182 0.0016728533867489514 0.016806014527926211 -0.0021575578330064417 -0.027494796802449595 0.015317972488025716 -0.011043000011043802 -0.00013396017487758428 0.0013618669514727558 -0.010012348309656796 -0.034115914284630795 0.018447145849777361 -0.0047314431050025901 -0.0014015621948457486 -0.015046518371197632 -0.0016238354903387307 0.0055246069933663402 -0.0074615205086236702 0.031418260073904671 0.016078584136481121 -0.039184546867539194 0.016938485996373081 -0.015885521819712044 0.022553417404030378 0.0046168118256374449 0.035035256270744573 0.013835158911829657 0.0021849313568686 -0.0075051860460789007 -0.022550318360637291 -0.015763808051404593 0.0016928446925556031 -0.0054670180542880998 0.0019722800319082402 -0.0037858136803024787 0.00079539176714506037
leaf_weight=65 426 148 49 68 120 82 144 112 84 687 71 503 756 71 210 61 80 52 2702 200 57 85 181 597 66 52 75 271 61 66 49 71 60 71 57 52 76 96 334 172 67 49 1907 65 905 63 277
leaf_count=65 426 148 49 68 120 82 144 112 84 687 71 503 756 71 210 61 80 52 2702 200 57 85 181 597 66 52 75 271 61 66 49 71 60 71 57 52 76 96 334 172 67 49 1907 65 905 63 277
internal_value=0 -1.03427e-05 -0.00122619 -0.00144268 -0.00390298 -0.00234158 -0.00626777 -0.0160858 0.00152073 -9.01936e-05 -0.00947949 -0.00240692 0.00337085 0.000591795 0.000277257 -0.00786077 -0.00146063 0.00493335 0.000928011 0.00120433 6.47292e-06 -0.00273377 -0.0014206 -0.00423931 -0.0198169 0.00790496 0.012567 -0.00152938 0.00169987 0.00233194 -0.0116006 -0.015792 -0.00656493 -0.00283351 0.00305571 0.0062965 0.0226778 0.00311471 0.00127417 -0.00110894 -0.0167869 -0.0111598 0.0014481 -0.000313143 0.00152937 0.00100609 -5.34787e-05
internal_weight=0 12508 6251 6202 2200 1829 907 256 922 4002 271 651 838 3731 3660 271 200 132 3389 6257 3799 1451 1327 1019 151 308 256 868 2348 2238 371 251 180 120 2458 787 128 659 602 506 124 110 2172 265 1671 766 340
internal_count=12573 12508 6251 6202 2200 1829 907 256 922 4002 271 651 838 3731 3660 271 200 132 3389 6257 3799 1451 1327 1019 151 308 256 868 2348 2238 371 251 180 120 2458 787 128 659 602 506 124 110 2172 265 1671 766 340
is_linear=0
shrinkage=0.200723


Tree=23
num_leaves=15
num_cat=0
split_feature=6 2 5 6 3 6 4 3 1 9 4 3 4 3
split_gain=0.490204 0.293798 0.451088 0.288133 1.37093 0.289106 0.404118 0.42429 0.220413 0.37755 0.392546 0.258285 0.726208 0.53219
threshold=117.50000000000001 4.5000000000000009 7.5000000000000009 87.500000000000014 600.50000000000011 67.500000000000014 26.500000000000004 695.50000000000011 177.60000000000002 29.500000000000004 31.500000000000004 556.00000000000011 35.500000000000007 548.00000000000011
decision_type=2 2 2 2 2 2 2 2 2 2 2 2 2 2
left_child=1 3 -3 5 -5 8 -7 -8 -1 11 -11 13 -13 -10
right_child=-2 2 -4 4 -6 6 7 -9 9 10 -12 12 -14 -15
leaf_value=-0.012456669574164929 -0.020128188047044866 -0.024353838414264587 0.0023479966947904207 0.032477291494237039 -0.013209505694988213 0.0041213105564460954 -0.026459242178864827 -0.00224092800154224 -0.00056178834912176874 0.020157487034437736 -0.00085321437717152766 0.00029938431085164074 0.0081150373533780372 -0.021138442388757672
leaf_weight=56 49 50 52 55 51 71 62 55 7215 77 67 4120 542 51
leaf_count=56 49 50 52 55 51 71 62 55 7215 77 67 4120 542 51
internal_value=0 -1.24803e-05 -0.0107411 7.56153e-05 0.0104959 -1.4069e-05 -0.00782506 -0.0150746 0.000107012 0.000165293 0.0103817 4.19559e-05 0.00120803 -0.000706216
internal_weight=0 12524 102 12422 106 12316 188 117 12128 12072 144 11928 4662 7266
internal_count=12573 12524 102 12422 106 12316 188 117 12128 12072 144 11928 4662 7266
is_linear=0
shrinkage=0.200723


Tree=24
num_leaves=48
num_cat=0
split_feature=6 9 7 8 1 7 3 5 7 3 8 8 8 9 3 6 8 7 3 6 8 9 8 1 1 3 7 0 5 0 7 8 1 8 1 1 7 9 3 6 9 7 7 5 5 1 3
split_gain=0.458115 1.03233 1.38473 0.624013 0.876644 0.827178 0.450105 1.11851 1.89094 0.807554 0.517992 0.415047 0.641995 0.601739 1.1623 0.758992 0.548025 0.54181 0.534289 0.475451 1.25079 0.697894 0.412047 0.387589 0.644516 0.497842 0.453984 0.360583 0.397106 0.39092 0.360767 0.887746 0.666899 1.03933 0.353091 0.6156 0.392023 0.345167 1.13979 0.845516 0.300898 0.265132 0.206381 0.163107 0.127667 0.120458 0.082885
