tree
version=v4
num_class=1
num_tree_per_iteration=1
label_index=0
max_feature_idx=6
objective=regression
feature_names=Column_0 Column_1 Column_2 Column_3 Column_4 Column_5 Column_6
feature_infos=[0:5] [0:705.59000000000003] [0:21] [0:4687] [0:44] [0:9] [0:200]
tree_sizes=821 859 864 856 866 861 858 862 863 860 861 865 866 868 868 869 860 866 876 861 859 859 866 868 867 860 604 603 864 599 869 771 678 852 777 863 854 766 869 846 600 784 766 864 862 854 777 856 851 852 592 775 874 856 868 591 864 769 600 764 845 863 771 677 880 865 775 775 860 874 853 682 761 850 861 674 598 682 849 771 598 857 875 849 596 858 771 862 856 843 849 850 769 596 870 874 858 861 689 763

Tree=0
num_leaves=8
num_cat=0
split_feature=5 2 3 3 6 1 2
split_gain=2167.88 433.15 173.139 95.0862 59.215 49.327 16.7993
threshold=1.0000000180025095e-35 1.0000000180025095e-35 337.50000000000006 548.00000000000011 42.500000000000007 670.00000000000011 1.5000000000000002
decision_type=2 2 2 2 2 2 2
left_child=2 4 5 -4 -2 -1 -3
right_child=1 6 3 -5 -6 -7 -8
leaf_value=0.99749189167792962 0.98570656187817662 0.94796610464376763 1.0323145164875722 1.013391279407756 0.96003791334826727 1.0314762900936072 0.93523737343431979
leaf_weight=2102 4908 2113 7689 2559 749 362 1162
leaf_count=2102 4908 2113 7689 2559 749 362 1162
internal_value=1 0.96806 1.02272 1.02759 0.982308 1.00248 0.94345
internal_weight=0 8932 12712 10248 5657 2464 3275
internal_count=21644 8932 12712 10248 5657 2464 3275
is_linear=0
shrinkage=1


Tree=1
num_leaves=8
num_cat=0
split_feature=5 6 3 1 6 1 3
split_gain=1782.45 279.224 148.889 79.3012 76.6882 41.8966 28.4582
threshold=1.0000000180025095e-35 1.0000000180025095e-35 337.50000000000006 670.00000000000011 42.500000000000007 670.00000000000011 2236.0000000000005
decision_type=2 2 2 2 2 2 2
left_child=2 6 5 -4 -3 -1 -2
right_child=1 4 3 -5 -6 -7 -8
leaf_value=-0.0034694196880074887 -0.046231138914041368 -0.0090126988748091049 0.022882794154938643 0.055071049958548002 -0.0381011088506149 0.027062984711097353 -0.018987397780106632
leaf_weight=2055 4166 3624 9676 587 800 386 297
leaf_count=2055 4166 3624 9676 587 800 386 297
internal_value=0 -0.0294116 0.0202344 0.0247238 -0.0142728 0.00135873 -0.0444181
internal_weight=0 8887 12704 10263 4424 2441 4463
internal_count=21591 8887 12704 10263 4424 2441 4463
is_linear=0
shrinkage=0.085033


Tree=2
num_leaves=8
num_cat=0
split_feature=5 2 3 3 6 1 2
split_gain=1484.97 328.317 107.431 73.6323 53.0192 36.8125 12.7543
threshold=1.0000000180025095e-35 1.0000000180025095e-35 337.50000000000006 548.00000000000011 42.500000000000007 670.00000000000011 1.5000000000000002
decision_type=2 2 2 2 2 2 2
left_child=2 4 5 -4 -2 -1 -3
right_child=1 6 3 -5 -6 -7 -8
leaf_value=-0.0022187185937440775 -0.011455484936976948 -0.044668652476595204 0.02624297038327255 0.0095171898065605619 -0.035281242251702469 0.027325257195685571 -0.055807134006756971
leaf_weight=2058 4911 2079 7681 2530 783 358 1157
leaf_count=2058 4911 2079 7681 2530 783 358 1157
internal_value=0 -0.0270233 0.0182836 0.0220988 -0.0147318 0.00215907 -0.0486511
internal_weight=0 8930 12627 10211 5694 2416 3236
internal_count=21557 8930 12627 10211 5694 2416 3236
is_linear=0
shrinkage=0.085033


Tree=3
num_leaves=8
num_cat=0
split_feature=5 2 3 6 6 1 2
split_gain=1241.27 275 107.486 82.8535 44.3017 33.8626 10.5474
threshold=1.0000000180025095e-35 1.0000000180025095e-35 337.50000000000006 8.0000000000000018 42.500000000000007 670.00000000000011 2.5000000000000004
decision_type=2 2 2 2 2 2 2
left_child=2 4 5 -4 -2 -1 -3
right_child=1 6 3 -5 -6 -7 -8
leaf_value=-0.0032466071811873172 -0.010035632671046932 -0.041897512636761815 0.02367644036534354 3.1527857131496189e-05 -0.03214833069916738 0.024307795626331497 -0.054926412156067611
leaf_weight=2070 4867 2724 9020 1216 757 382 538
leaf_count=2070 4867 2724 9020 1216 757 382 538
internal_value=0 -0.0244046 0.017037 0.0208675 -0.013012 0.00104613 -0.0440464
internal_weight=0 8886 12688 10236 5624 2452 3262
internal_count=21574 8886 12688 10236 5624 2452 3262
is_linear=0
shrinkage=0.085033


Tree=4
num_leaves=8
num_cat=0
split_feature=6 6 3 2 6 2 3
split_gain=917.731 320.951 64.1343 54.0757 49.9297 12.3416 5.193
threshold=1.0000000180025095e-35 8.0000000000000018 337.50000000000006 1.0000000180025095e-35 42.500000000000007 1.5000000000000002 312.50000000000006
decision_type=2 2 2 2 2 2 2
left_child=3 2 -2 6 -3 -5 -1
right_child=1 4 -4 5 -6 -7 -8
leaf_value=-0.0095866884424215589 0.0040166311361081782 -0.0046948151538025729 0.020069938975069493 -0.036546157506281714 -0.027644176620389347 -0.047709639231468086 -0.022840281777975025
leaf_weight=267 2225 4552 9408 1937 807 1136 1072
leaf_count=267 2225 4552 9408 1937 807 1136 1072
internal_value=0 0.00906752 0.0169995 -0.0344589 -0.00815071 -0.040673 -0.0201975
internal_weight=0 16992 11633 4412 5359 3073 1339
internal_count=21404 16992 11633 4412 5359 3073 1339
is_linear=0
shrinkage=0.085033


Tree=5
num_leaves=8
num_cat=0
split_feature=6 6 1 2 6 1 2
split_gain=808.896 265.303 64.0461 53.7862 48.2611 8.8988 6.25042
threshold=1.0000000180025095e-35 8.0000000000000018 670.00000000000011 1.0000000180025095e-35 42.500000000000007 587.50000000000011 2.5000000000000004
decision_type=2 2 2 2 2 2 2
left_child=3 2 -2 5 -3 -1 -5
right_child=1 4 -4 6 -6 -7 -8
leaf_value=-0.024579941258315859 0.013618259348857593 -0.0038401228492651435 0.036871147498110809 -0.036566718703376001 -0.02615654902626318 -0.010819729407917865 -0.046668630035221627
leaf_weight=717 10833 4650 930 2619 825 646 533
leaf_count=717 10833 4650 930 2619 825 646 533
internal_value=0 0.00825972 0.0154567 -0.0321719 -0.00720287 -0.0180582 -0.0382749
internal_weight=0 17238 11763 4515 5475 1363 3152
internal_count=21753 17238 11763 4515 5475 1363 3152
is_linear=0
shrinkage=0.085033


Tree=6
num_leaves=8
num_cat=0
split_feature=5 2 1 4 1 1 2
split_gain=766.341 166.968 79.2006 70.3512 42.8521 27.0365 6.91344
threshold=1.5000000000000002 1.0000000180025095e-35 485.00000000000006 34.500000000000007 359.50000000000006 618.95000000000016 1.5000000000000002
decision_type=2 2 2 2 2 2 2
left_child=2 5 4 -4 -1 -2 -3
right_child=1 6 3 -5 -6 -7 -8
leaf_value=0.033070881109030496 -0.01394248049521851 -0.031565829406836464 0.013040269553396711 0.029601281156353566 -0.0014123312164621381 -0.00094803431002009276 -0.039809414022139
leaf_weight=287 4051 2067 7112 2509 2830 1621 1142
leaf_count=287 4051 2067 7112 2509 2830 1621 1142
internal_value=0 -0.0189986 0.0135427 0.0173591 0.00176274 -0.0102288 -0.0344995
internal_weight=0 8881 12738 9621 3117 5672 3209
internal_count=21619 8881 12738 9621 3117 5672 3209
is_linear=0
shrinkage=0.085033


Tree=7
num_leaves=8
num_cat=0
split_feature=6 6 3 6 1 1 1
split_gain=561.515 206.933 58.1831 43.4014 17.6375 18.2541 4.87129
threshold=1.0000000180025095e-35 8.0000000000000018 337.50000000000006 42.500000000000007 587.50000000000011 258.00000000000006 606.95000000000016
decision_type=2 2 2 2 2 2 2
left_child=4 2 -2 -3 5 -1 -6
right_child=1 3 -4 -5 6 -7 -8
leaf_value=-0.011163892007354832 0.00099922871872328142 -0.0036205534993589872 0.016170063597822252 -0.024895617839620212 -0.022575554231416387 -0.033377354885542866 -0.011740749409718075
leaf_weight=299 2265 4644 9472 815 1219 2538 398
leaf_count=299 2265 4644 9472 815 1219 2538 398
internal_value=0 0.0068808 0.0132424 -0.00679681 -0.0269964 -0.0310362 -0.0199087
internal_weight=0 17196 11737 5459 4454 2837 1617
internal_count=21650 17196 11737 5459 4454 2837 1617
is_linear=0
shrinkage=0.085033


Tree=8
num_leaves=8
num_cat=0
split_feature=5 2 1 1 0 5 2
split_gain=539.477 108.317 64.2198 35.242 33.6862 20.5466 5.38617
threshold=1.0000000180025095e-35 1.0000000180025095e-35 485.00000000000006 359.50000000000006 4.5000000000000009 6.5000000000000009 2.5000000000000004
decision_type=2 2 2 2 2 2 2
left_child=2 5 3 -1 -4 -2 -3
right_child=1 6 4 -5 -6 -7 -8
leaf_value=0.029748071128568816 -0.0074780262019750335 -0.026973594584959171 0.017579648921475378 -0.0025298674969227298 0.0065425238041827913 -0.025385332856292131 -0.036220228453590762
leaf_weight=268 5159 2723 6938 2799 2809 509 547
leaf_count=268 5159 2723 6938 2799 2809 509 547
internal_value=0 -0.0161962 0.0110221 0.000290637 0.0143988 -0.00908615 -0.0285204
internal_weight=0 8938 12814 3067 9747 5668 3270
internal_count=21752 8938 12814 3067 9747 5668 3270
is_linear=0
shrinkage=0.085033


Tree=9
num_leaves=8
num_cat=0
split_feature=5 6 1 4 1 6 1
split_gain=438.116 69.1589 48.2099 47.441 31.6233 24.2638 11.1134
threshold=1.0000000180025095e-35 4.5000000000000009 485.00000000000006 33.500000000000007 359.50000000000006 42.500000000000007 582.50000000000011
decision_type=2 2 2 2 2 2 2
left_child=2 6 4 -4 -1 -3 -2
right_child=1 5 3 -5 -6 -7 -8
leaf_value=0.028860878408426244 -0.024801826439806791 -0.0035810724402396727 0.0098214636706240466 0.023399468231352631 -0.0016235765331140289 -0.020020957316690749 -0.015945062966560765
leaf_weight=270 2893 3538 7159 2514 2774 795 1586
leaf_count=270 2893 3538 7159 2514 2774 795 1586
internal_value=0 -0.0142564 0.0104134 0.0133504 0.00108037 -0.00659739 -0.0216657
internal_weight=0 8812 12717 9673 3044 4333 4479
internal_count=21529 8812 12717 9673 3044 4333 4479
is_linear=0
shrinkage=0.085033


Tree=10
num_leaves=8
num_cat=0
split_feature=5 3 3 6 6 3 1
split_gain=394.621 64.7184 63.206 61.0195 24.058 20.6871 11.7462
threshold=1.5000000000000002 337.50000000000006 591.50000000000011 1.0000000180025095e-35 42.500000000000007 125.00000000000001 587.50000000000011
decision_type=2 2 2 2 2 2 2
left_child=1 5 -3 6 -5 -1 -2
right_child=3 2 -4 4 -6 -7 -8
leaf_value=0.055394595849085647 -0.023599662678879071 0.016801877396593497 0.0013209410326799501 -0.0033058246516651049 -0.019723050495756827 -0.0034456113319547448 -0.014460598020795537
leaf_weight=44 2837 7829 2521 3651 784 2389 1585
leaf_count=44 2837 7829 2521 3651 784 2389 1585
internal_value=0 0.0100976 0.0130311 -0.0132556 -0.00620799 -0.00238151 -0.0203239
internal_weight=0 12783 10350 8857 4435 2433 4422
internal_count=21640 12783 10350 8857 4435 2433 4422
is_linear=0
shrinkage=0.085033


Tree=11
num_leaves=8
num_cat=0
split_feature=5 2 1 1 1 1 2
split_gain=304.508 77.2996 45.4134 28.2019 26.4998 17.2855 6.48843
threshold=1.0000000180025095e-35 1.0000000180025095e-35 485.00000000000006 670.00000000000011 151.05000000000004 632.50000000000011 2.5000000000000004
decision_type=2 2 2 2 2 2 2
left_child=2 5 4 -4 -1 -2 -3
right_child=1 6 3 -5 -6 -7 -8
leaf_value=0.066653494680827888 -0.0085471722079935291 -0.020594720675248358 0.0099109216079157399 0.025011721522086042 -0.0013593865237290915 0.0023840695747117057 -0.030820666802035702
leaf_weight=42 4254 2753 8601 998 3012 1387 536
leaf_count=42 4254 2753 8601 998 3012 1387 536
internal_value=0 -0.0119003 0.00860749 0.0114809 -0.000424042 -0.00585942 -0.0222612
internal_weight=0 8930 12653 9599 3054 5641 3289
internal_count=21583 8930 12653 9599 3054 5641 3289
is_linear=0
shrinkage=0.085033


Tree=12
num_leaves=8
num_cat=0
split_feature=5 2 6 1 1 1 1
split_gain=277.095 65.7463 46.3662 32.4575 16.6635 13.6157 2.98439
threshold=1.5000000000000002 1.0000000180025095e-35 8.0000000000000018 670.00000000000011 181.10000000000002 520.62500000000011 606.95000000000016
decision_type=2 2 2 2 2 2 2
left_child=2 4 3 -1 -2 -4 -3
right_child=1 6 5 -5 -6 -7 -8
leaf_value=0.0083670586014364251 0.027873969810540449 -0.021863713302566021 -0.018243037472921091 0.02499666354496111 -0.0068098433780722396 -0.00078270348573079612 -0.0091310469235568129
leaf_weight=10159 102 3138 458 926 5547 1095 139
leaf_count=10159 102 3138 458 926 5547 1095 139
internal_value=0 -0.0117419 0.00782841 0.00975623 -0.00618358 -0.00593198 -0.0213236
internal_weight=0 8926 12638 11085 5649 1553 3277
internal_count=21564 8926 12638 11085 5649 1553 3277
is_linear=0
shrinkage=0.085033


Tree=13
num_leaves=8
num_cat=0
split_feature=5 2 1 4 1 1 1
split_gain=212.629 57.6114 46.3281 38.2546 25.6199 15.2444 3.71165
threshold=1.0000000180025095e-35 1.0000000180025095e-35 485.00000000000006 34.500000000000007 177.60000000000002 632.50000000000011 485.00000000000006
decision_type=2 2 2 2 2 2 2
left_child=2 5 4 -4 -1 -2 -3
right_child=1 6 3 -5 -6 -7 -8
leaf_value=0.052249189324759852 -0.0077293849771048143 -0.022846261693073005 0.0065094772421648833 0.018758619642654014 -0.0034128216489806161 0.002399631880569692 -0.016998109358002306
leaf_weight=61 4214 1296 7125 2487 3016 1442 1989
leaf_count=61 4214 1296 7125 2487 3016 1442 1989
internal_value=0 -0.0103489 0.00677176 0.00967881 -0.00230935 -0.00514699 -0.0193053
internal_weight=0 8941 12689 9612 3077 5656 3285
internal_count=21630 8941 12689 9612 3077 5656 3285
is_linear=0
shrinkage=0.085033


Tree=14
num_leaves=8
num_cat=0
split_feature=5 3 3 2 3 1 3
split_gain=203.573 48.2585 57.066 43.1703 18.9862 15.2202 3.7696
threshold=1.0000000180025095e-35 337.50000000000006 591.50000000000011 1.0000000180025095e-35 548.00000000000011 289.00000000000006 403.00000000000006
decision_type=2 2 2 2 2 2 2
left_child=1 5 -3 4 -2 -1 -5
right_child=3 2 -4 6 -6 -7 -8
leaf_value=0.047992618907670911 -7.2829347103586925e-05 0.012846944716591879 -0.0019350462556095153 -0.022738756023126163 -0.010029768304342839 -0.0048911002843957203 -0.016206126248311557
leaf_weight=40 2474 7709 2501 875 3145 2424 2365
leaf_count=40 2474 7709 2501 875 3145 2424 2365
internal_value=0 0.00664835 0.00922601 -0.0101533 -0.00564581 -0.0040326 -0.0179703
internal_weight=0 12674 10210 8859 5619 2464 3240
internal_count=21533 12674 10210 8859 5619 2464 3240
is_linear=0
shrinkage=0.085033


Tree=15
num_leaves=8
num_cat=0
split_feature=5 6 2 1 6 1 2
split_gain=159.313 40.7468 39.8704 26.3175 17.1317 14.0542 3.68893
threshold=1.5000000000000002 8.0000000000000018 1.0000000180025095e-35 485.00000000000006 42.500000000000007 473.50000000000006 1.5000000000000002
decision_type=2 2 2 2 2 2 2
left_child=1 3 4 -1 -2 -3 -4
right_child=2 5 6 -5 -6 -7 -8
leaf_value=0.0005277630209776648 -0.0026177906783422162 -0.020379928637393841 -0.014088112081212556 0.010172329228750181 -0.016658564970656726 -0.0020262755180253927 -0.020027876809171105
leaf_weight=2696 4889 406 2117 8482 721 1174 1176
leaf_count=2696 4889 406 2117 8482 721 1174 1176
internal_value=0 0.00603946 -0.00878204 0.00784618 -0.00442232 -0.00674247 -0.0162093
internal_weight=0 12758 8903 11178 5610 1580 3293
internal_count=21661 12758 8903 11178 5610 1580 3293
is_linear=0
shrinkage=0.085033


Tree=16
num_leaves=8
num_cat=0
split_feature=2 3 3 4 2 3 3
split_gain=131.315 60.9422 57.0026 17.7515 3.06934 2.32191 1.2769
threshold=1.0000000180025095e-35 527.50000000000011 484.00000000000006 32.500000000000007 2.5000000000000004 403.00000000000006 591.50000000000011
decision_type=2 2 2 2 2 2 2
left_child=1 2 -1 -3 5 -2 -6
right_child=4 3 -4 -5 6 -7 -8
leaf_value=0.002496255442941955 -0.018355980589738991 -0.0072878836094005719 0.014935491333047439 0.0032716190038229935 -0.026795376943545224 -0.012841810010582931 -0.018164916163553795
leaf_weight=8864 762 4123 3808 1597 200 2005 326
leaf_count=8864 762 4123 3808 1597 200 2005 326
internal_value=0 0.00294574 0.00623431 -0.00433971 -0.0154922 -0.0143603 -0.0214465
internal_weight=0 18392 12672 5720 3293 2767 526
internal_count=21685 18392 12672 5720 3293 2767 526
is_linear=0
shrinkage=0.085033


Tree=17
num_leaves=8
num_cat=0
split_feature=5 3 4 2 3 4 3
split_gain=124.234 37.7325 37.9172 23.2191 20.2095 9.64098 2.71545
threshold=2.5000000000000004 337.50000000000006 34.500000000000007 1.0000000180025095e-35 527.50000000000011 29.000000000000004 1525.0000000000002
decision_type=2 2 2 2 2 2 2
left_child=1 5 -3 4 -2 -1 -5
right_child=3 2 -4 6 -6 -7 -8
leaf_value=0.0024004822166301221 0.00098826630248337669 0.0042887062019154442 0.016002971933503394 -0.014116908009924793 -0.0092412561135716345 -0.0086350598785510484 0.00070294560422663906
leaf_weight=923 2520 7708 2697 3161 3132 1507 92
leaf_count=923 2520 7708 2697 3161 3132 1507 92
internal_value=0 0.005097 0.00732507 -0.0079744 -0.00468032 -0.00444337 -0.0136978
internal_weight=0 12835 10405 8905 5652 2430 3253
internal_count=21740 12835 10405 8905 5652 2430 3253
is_linear=0
shrinkage=0.085033


Tree=18
num_leaves=8
num_cat=0
split_feature=5 6 0 2 6 0 2
split_gain=102.797 39.3664 22.6495 19.3654 10.9392 4.24728 2.05927
threshold=1.0000000180025095e-35 8.0000000000000018 4.5000000000000009 1.0000000180025095e-35 32.500000000000007 3.5000000000000004 1.5000000000000002
decision_type=2 2 2 2 2 2 2
left_child=1 2 -1 4 -2 -3 -5
right_child=3 5 -4 6 -6 -7 -8
leaf_value=0.0087307827093569754 -0.0017680981264300781 -0.0052111679192209538 0.00021544734849830087 -0.010969112350479995 -0.0097314151607967563 -0.014937646070327914 -0.015435393976638311
leaf_weight=8026 3859 1103 3143 2084 1843 460 1163
leaf_count=8026 3859 1103 3143 2084 1843 460 1163
internal_value=0 0.00456575 0.00633453 -0.00732697 -0.004342 -0.00807373 -0.0125688
internal_weight=0 12732 11169 8949 5702 1563 3247
internal_count=21681 12732 11169 8949 5702 1563 3247
is_linear=0
shrinkage=0.085033


Tree=19
num_leaves=8
num_cat=0
split_feature=5 3 3 1 1 1 3
split_gain=89.8253 39.0071 33.3411 20.5664 12.845 12.585 6.5133
threshold=1.0000000180025095e-35 337.50000000000006 591.50000000000011 592.93750000000011 141.11250000000004 670.00000000000011 800.50000000000011
decision_type=2 2 2 2 2 2 2
left_child=1 5 -3 4 -2 -1 -5
right_child=3 2 -4 6 -6 -7 -8
leaf_value=-0.0074613536248617643 0.0372461555301885 0.009850106016638575 -0.0013863856870594638 0.0036615744440547352 -0.0088440524517507963 0.0093309879155686996 -0.0088198954466797361
leaf_weight=2079 44 7709 2538 1595 6899 382 373
leaf_count=2079 44 7709 2538 1595 6899 382 373
internal_value=0 0.00475827 0.00706703 -0.00637705 -0.00855196 -0.00485482 0.00129593
internal_weight=0 12708 10247 8911 6943 2461 1968
internal_count=21619 12708 10247 8911 6943 2461 1968
is_linear=0
shrinkage=0.085033


Tree=20
num_leaves=8
num_cat=0
split_feature=5 1 3 1 1 4 5
split_gain=64.7851 35.7037 28.6739 9.72673 6.77529 7.58417 7.1429
threshold=4.5000000000000009 670.00000000000011 312.50000000000006 680.50000000000011 428.12500000000006 11.500000000000002 6.5000000000000009
decision_type=2 2 2 2 2 2 2
left_child=1 2 -1 -3 5 -2 -6
right_child=4 3 -4 -5 6 -7 -8
leaf_value=-0.007744073490956906 -0.0010894389598549799 0.02194590126418958 0.0029152470673113997 0.0048987935573242096 -0.0044423520842054821 -0.016661260631894752 -0.014353410150800253
leaf_weight=2103 280 822 13791 343 2391 1176 674
leaf_count=2103 280 822 13791 343 2391 1176 674
internal_value=0 0.00255808 0.00150487 0.0169269 -0.00889063 -0.0136667 -0.00662181
internal_weight=0 17059 15894 1165 4521 1456 3065
internal_count=21580 17059 15894 1165 4521 1456 3065
is_linear=0
shrinkage=0.085033


Tree=21
num_leaves=8
num_cat=0
split_feature=5 1 0 1 1 1 1
split_gain=66.2337 27.6597 19.7641 12.1874 12.3338 8.30336 5.93569
threshold=1.0000000180025095e-35 670.00000000000011 4.5000000000000009 592.93750000000011 258.00000000000006 600.50000000000011 680.50000000000011
decision_type=2 2 2 2 2 2 2
left_child=1 2 -1 4 -2 -5 -3
right_child=3 6 -4 5 -6 -7 -8
leaf_value=0.0051873711919197853 0.0072975101798762017 0.022493902732589135 -0.0026020171296835168 0.028856464142975137 -0.0079564423667239439 -0.00056430786302645716 0.0085440547639404167
leaf_weight=8387 407 657 3275 72 6574 1893 332
leaf_count=8387 407 657 3275 72 6574 1893 332
internal_value=0 0.00415777 0.0029999 -0.00540198 -0.00706712 0.000513705 0.017811
internal_weight=0 12651 11662 8946 6981 1965 989
internal_count=21597 12651 11662 8946 6981 1965 989
is_linear=0
shrinkage=0.085033


Tree=22
num_leaves=8
num_cat=0
split_feature=2 3 3 4 3 5 3
split_gain=52.1588 38.6816 34.2153 15.1058 4.73811 2.21094 1.70508
threshold=1.0000000180025095e-35 527.50000000000011 387.50000000000006 34.500000000000007 591.50000000000011 5.5000000000000009 1556.0000000000002
decision_type=2 2 2 2 2 2 2
left_child=1 2 -1 -3 5 -2 -6
right_child=4 3 -4 -5 6 -7 -8
leaf_value=-0.00053211463639733596 -0.025959114587584847 -0.0065888461847337229 0.0083748599871358905 0.0033935090892416734 -0.0074866928924314192 -0.012498888345881438 0.0042270816140838703
leaf_weight=5638 94 4267 6978 1475 1658 1439 95
leaf_count=5638 94 4267 6978 1475 1658 1439 95
internal_value=0 0.00176111 0.0043944 -0.00402459 -0.0098714 -0.0133242 -0.00685189
internal_weight=0 18358 12616 5742 3286 1533 1753
internal_count=21644 18358 12616 5742 3286 1533 1753
is_linear=0
shrinkage=0.085033


Tree=23
num_leaves=8
num_cat=0
split_feature=5 6 0 6 1 1 4
split_gain=50.2785 23.4827 18.2969 11.1257 15.4428 8.74725 3.8955
threshold=1.0000000180025095e-35 8.0000000000000018 4.5000000000000009 8.0000000000000018 359.50000000000006 473.50000000000006 9.5000000000000018
decision_type=2 2 2 2 2 2 2
left_child=1 2 -1 6 -5 -3 -2
right_child=3 5 -4 4 -6 -7 -8
leaf_value=0.0071315282726528784 -0.0014474026726721441 -0.017450628347028631 -0.00052825087216527118 0.01654007495724287 -0.0028858357000706553 -0.0025540941087029015 -0.0082853065728192236
leaf_weight=8098 700 374 3125 323 3526 1198 4321
leaf_count=8098 700 374 3125 323 3526 1198 4321
internal_value=0 0.00363533 0.00499869 -0.00469527 -0.00125565 -0.00609818 -0.007332
internal_weight=0 12795 11223 8870 3849 1572 5021
internal_count=21665 12795 11223 8870 3849 1572 5021
is_linear=0
shrinkage=0.085033


Tree=24
num_leaves=8
num_cat=0
split_feature=5 3 1 1 1 1 6
split_gain=35.3256 31.9563 22.5506 13.1164 9.82636 9.26225 6.48695
threshold=1.0000000180025095e-35 337.50000000000006 445.94500000000005 289.00000000000006 592.93750000000011 258.00000000000006 18.000000000000004
decision_type=2 2 2 2 2 2 2
left_child=1 3 -3 -1 5 -2 -6
right_child=4 2 -4 -5 6 -7 -8
leaf_value=0.043754530147107694 0.0068135965814322217 -0.0046406983561383215 0.0066095768216147812 -0.0065930476638033355 -0.0034306091529822816 -0.0063951779424650263 0.0063347908512411382
leaf_weight=38 408 1509 8807 2425 1039 6486 934
leaf_count=38 408 1509 8807 2425 1039 6486 934
internal_value=0 0.00288616 0.00496391 -0.00581627 -0.00409912 -0.00561346 0.00119224
internal_weight=0 12779 10316 2463 8867 6894 1973
internal_count=21646 12779 10316 2463 8867 6894 1973
is_linear=0
shrinkage=0.085033


Tree=25
num_leaves=8
num_cat=0
split_feature=3 3 3 5 4 3 6
split_gain=29.038 36.8243 19.4879 16.579 8.76619 12.9042 5.3315
threshold=527.50000000000011 459.00000000000006 1.0000000180025095e-35 5.5000000000000009 20.500000000000004 2236.0000000000005 67.500000000000014
decision_type=2 2 2 2 2 2 2
left_child=1 2 -1 -3 5 -2 -6
right_child=4 3 -4 -5 6 -7 -8
leaf_value=0.060261982674851874 -0.010471009132742418 0.011036283250255524 -0.00075116964921067056 -0.0044488402730726209 -0.0013056512650506489 0.006383589708809566 -0.013215827107020427
leaf_weight=38 2306 3701 9737 578 4556 383 289
leaf_count=38 2306 3701 9737 578 4556 383 289
internal_value=0 0.00236585 -0.000513983 0.00894458 -0.00417695 -0.00807037 -0.00201608
internal_weight=0 14054 9775 4279 7534 2689 4845
internal_count=21588 14054 9775 4279 7534 2689 4845
is_linear=0
shrinkage=0.085033


Tree=26
num_leaves=5
num_cat=0
split_feature=1 5 3 1
split_gain=34.3643 28.1762 24.8196 7.88462
threshold=1.0000000180025095e-35 1.5000000000000002 337.50000000000006 632.50000000000011
decision_type=2 2 2 2
left_child=-1 2 -2 -3
right_child=1 3 -4 -5
leaf_value=0.060240175416534703 -0.0055544693001070922 -0.0051525322190623469 0.0040821393159026307 0.0015176812883555435
leaf_weight=68 2380 7304 10278 1554
leaf_count=68 2380 7304 10278 1554
internal_value=0 -0.000303915 0.00227023 -0.00398235
internal_weight=0 21516 12658 8858
internal_count=21584 21516 12658 8858
is_linear=0
shrinkage=0.085033


Tree=27
num_leaves=5
num_cat=0
split_feature=1 1 3 1
split_gain=28.5275 33.692 22.3269 9.94341
threshold=1.0000000180025095e-35 479.33500000000009 548.00000000000011 359.50000000000006
decision_type=2 2 2 2
left_child=-1 3 -3 -2
right_child=1 2 -4 -5
leaf_value=0.055807416438590156 0.0012241885564003665 0.0042790171219032396 -0.0025506701537686975 -0.0072596514954383976
leaf_weight=66 1257 10112 5262 4865
leaf_count=66 1257 10112 5262 4865
internal_value=0 -0.000182899 0.00194145 -0.00551771
internal_weight=0 21496 15374 6122
internal_count=21562 21496 15374 6122
is_linear=0
shrinkage=0.085033


Tree=28
num_leaves=8
num_cat=0
split_feature=2 3 3 1 6 6 1
split_gain=25.609 20.4853 31.7772 9.93239 3.11796 7.4757 2.83058
threshold=1.0000000180025095e-35 548.00000000000011 484.00000000000006 592.93750000000011 1.0000000180025095e-35 8.0000000000000018 647.50000000000011
decision_type=2 2 2 2 2 2 2
left_child=1 2 -1 -3 6 -6 -2
right_child=4 3 -4 -5 5 -7 -8
leaf_value=0.00057608796377228331 -0.0063333012676933245 -0.005536354482419778 0.0098027276790790489 0.0017892667151595853 -0.049401404026005298 -0.0081819153455585849 0.013486380690171065
leaf_weight=8862 3076 3523 3881 2158 41 142 53
leaf_count=8862 3076 3523 3881 2158 41 142 53
internal_value=0 0.00149296 0.00338615 -0.00275362 -0.00662855 -0.0174169 -0.00599759
internal_weight=0 18424 12743 5681 3312 183 3129
internal_count=21736 18424 12743 5681 3312 183 3129
is_linear=0
shrinkage=0.085033


Tree=29
num_leaves=5
num_cat=0
split_feature=1 1 2 5
split_gain=25.1639 22.7 17.4001 14.4291
threshold=1.0000000180025095e-35 655.00000000000011 1.0000000180025095e-35 6.5000000000000009
decision_type=2 2 2 2
left_child=-1 2 -2 -3
right_child=1 3 -4 -5
leaf_value=0.053157597147358911 0.00054372920602774398 0.012777495388910978 -0.0063158784181517854 -0.033354665419348339
leaf_weight=65 16966 1265 3174 51
leaf_count=65 16966 1265 3174 51
internal_value=0 0.000169685 -0.000537323 0.0109897
internal_weight=0 21456 20140 1316
internal_count=21521 21456 20140 1316
is_linear=0
shrinkage=0.085033


Tree=30
num_leaves=8
num_cat=0
split_feature=6 4 3 4 5 3 4
split_gain=19.0678 20.7062 18.2691 11.9586 4.50846 6.78122 4.29021
threshold=1.0000000180025095e-35 34.500000000000007 548.00000000000011 41.500000000000007 6.5000000000000009 2236.0000000000005 32.500000000000007
decision_type=2 2 2 2 2 2 2
left_child=4 2 -2 -3 5 -1 -6
right_child=1 3 -4 -5 6 -7 -8
leaf_value=-0.0037060943906427764 0.0017688300635471579 0.0091098861003515857 -0.0053625639992892528 -0.00037980022748814498 -0.0065746230515752353 0.027541946322365177 -0.019065051414402168
leaf_weight=3264 8778 3266 3689 1360 856 51 259
leaf_count=3264 8778 3266 3689 1360 856 51 259
internal_value=0 0.00146146 -0.000341358 0.00632001 -0.0047986 -0.00322536 -0.00947599
internal_weight=0 17093 12467 4626 4430 3315 1115
internal_count=21523 17093 12467 4626 4430 3315 1115
is_linear=0
shrinkage=0.085033


Tree=31
num_leaves=7
num_cat=0
split_feature=1 1 0 0 1 5
split_gain=22.0354 20.6396 13.9919 67.8533 8.08 3.11544
threshold=479.33500000000009 1.0000000180025095e-35 3.5000000000000004 1.5000000000000002 258.00000000000006 6.5000000000000009
decision_type=2 2 2 2 2 2
left_child=1 -1 3 -2 -3 -4
right_child=2 4 5 -5 -6 -7
leaf_value=0.046181444905289658 0.00043139928314864852 0.0056951024710391596 -0.0015661021012904981 0.01901786438317658 -0.0056854517943415745 -0.012693245585697685
leaf_weight=58 8681 490 4870 1698 5680 189
leaf_count=58 8681 490 4870 1698 5680 189
internal_value=0 -0.00430704 0.00168489 0.00347214 -0.00478165 -0.0019818
internal_weight=0 6228 15438 10379 6170 5059
internal_count=21666 6228 15438 10379 6170 5059
is_linear=0
shrinkage=0.085033


Tree=32
num_leaves=6
num_cat=0
split_feature=1 1 5 5 1
split_gain=17.1642 16.5502 12.7415 4.65418 3.707
threshold=655.00000000000011 1.0000000180025095e-35 2.5000000000000004 6.5000000000000009 680.50000000000011
decision_type=2 2 2 2 2
left_child=1 -1 -3 4 -2
right_child=3 2 -4 -5 -6
leaf_value=0.041554912033801357 0.013241751840227444 0.0010483343230761177 -0.0032809468355104077 -0.01691475351650272 0.0031065829093295189
leaf_weight=67 909 11656 8500 47 366
leaf_count=67 909 11656 8500 47 366
internal_value=0 -0.00063712 -0.00077737 0.00936367 0.0103324
internal_weight=0 20223 20156 1322 1275
internal_count=21545 20223 20156 1322 1275
is_linear=0
shrinkage=0.085033


Tree=33
num_leaves=8
num_cat=0
split_feature=1 1 3 3 5 5 1
split_gain=19.6932 15.2779 14.5935 14.1843 8.47939 5.04235 3.82841
threshold=479.33500000000009 258.00000000000006 275.00000000000006 548.00000000000011 6.5000000000000009 6.5000000000000009 600.50000000000011
decision_type=2 2 2 2 2 2 2
left_child=1 4 6 -4 -1 -3 -2
right_child=2 5 3 -5 -6 -7 -8
leaf_value=0.017836810816755647 -0.012666425097049717 -0.005314662311351399 0.0032218959511052013 -0.0022348268063602898 -0.0040186955998248617 -0.017503158464662879 -0.039275881564116773
leaf_weight=323 87 5446 10052 5240 213 257 71
leaf_count=323 87 5446 10052 5240 213 257 71
internal_value=0 -0.00457391 0.00108644 0.00135208 0.00915169 -0.00586392 -0.0246238
internal_weight=0 6239 15450 15292 536 5703 158
internal_count=21689 6239 15450 15292 536 5703 158
is_linear=0
shrinkage=0.085033


Tree=34
num_leaves=7
num_cat=0
split_feature=1 4 1 1 1 1
split_gain=12.8505 14.9812 13.2646 11.4312 8.44803 8.05989
threshold=485.00000000000006 34.500000000000007 1.0000000180025095e-35 592.93750000000011 495.00000000000006 359.50000000000006
decision_type=2 2 2 2 2 2
left_child=2 4 -1 -3 -2 -4
right_child=1 3 5 -5 -6 -7
leaf_value=0.03795115228446095 0.0084458490851227752 0.0014431003549643521 0.0023801130798992592 0.010967350681075233 -0.0007567924447859746 -0.0051896986520759527
leaf_weight=56 772 1869 1283 1778 10979 4906
leaf_count=56 772 1869 1283 1778 10979 4906
internal_value=0 0.0013254 -0.00324767 0.0060864 -0.000152211 -0.00362045
internal_weight=0 15398 6245 3647 11751 6189
internal_count=21643 15398 6245 3647 11751 6189
is_linear=0
shrinkage=0.085033


Tree=35
num_leaves=8
num_cat=0
split_feature=3 3 4 3 1 1 6
split_gain=15.1362 21.2713 22.8408 7.61127 9.8622 6.78129 6.00363
threshold=527.50000000000011 337.50000000000006 15.500000000000002 2236.0000000000005 592.93750000000011 202.00000000000003 8.0000000000000018
decision_type=2 2 2 2 2 2 2
left_child=1 6 -3 4 -2 -5 -1
right_child=3 2 -4 5 -6 -7 -8
leaf_value=-0.0028416964525294799 -0.0060450766728217574 -0.0021398282141629498 0.0061693247981385287 -0.0004744821830700309 0.00075351434156960577 0.023309427966755593 -0.012788142552597834
leaf_weight=2965 4857 3625 7033 225 2261 141 515
leaf_count=2965 4857 3625 7033 225 2261 141 515
internal_value=0 0.00145851 0.00334321 -0.00327063 -0.00388554 0.00868817 -0.00431366
internal_weight=0 14138 10658 7484 7118 366 3480
internal_count=21622 14138 10658 7484 7118 366 3480
is_linear=0
shrinkage=0.085033


Tree=36
num_leaves=8
num_cat=0
split_feature=0 0 6 4 4 3 4
split_gain=11.1578 57.8857 29.629 11.8628 9.88675 7.6812 7.25723
threshold=1.5000000000000002 3.5000000000000004 1.0000000180025095e-35 34.500000000000007 41.500000000000007 212.50000000000003 2.5000000000000004
decision_type=2 2 2 2 2 2 2
left_child=3 2 -2 5 -5 -1 -3
right_child=1 6 -4 4 -6 -7 -8
leaf_value=-0.030358201194314725 -0.004838253208828169 0.028416386451942461 0.0183816739523695 0.0062509304890677898 -0.0035955137463359785 -0.0030335231884254022 -0.0020527826714312474
leaf_weight=75 502 57 1906 2071 1145 9092 6753
leaf_count=75 502 57 1906 2071 1145 9092 6753
internal_value=0 0.00220915 0.013541 -0.0016982 0.00274528 -0.00325708 -0.00179775
internal_weight=0 9218 2408 12383 3216 9167 6810
internal_count=21601 9218 2408 12383 3216 9167 6810
is_linear=0
shrinkage=0.085033


Tree=37
num_leaves=7
num_cat=0
split_feature=1 1 3 3 1 1
split_gain=13.2364 12.5416 11.2943 9.13678 7.371 2.37735
threshold=479.33500000000009 1.0000000180025095e-35 275.00000000000006 548.00000000000011 359.50000000000006 600.50000000000011
decision_type=2 2 2 2 2 2
left_child=1 -1 5 -4 -3 -2
right_child=2 4 3 -5 -6 -7
leaf_value=0.034677675087328122 -0.011892762428639228 0.0021002693089894027 0.0030340383560066133 -0.0013550062591033798 -0.0052407555257543755 -0.032287838721670403
leaf_weight=62 97 1239 9958 5231 4901 72
leaf_count=62 97 1239 9958 5231 4901 72
internal_value=0 -0.00337515 0.00127924 0.00152248 -0.0037594 -0.0205818
internal_weight=0 6202 15358 15189 6140 169
internal_count=21560 6202 15358 15189 6140 169
is_linear=0
shrinkage=0.085033


Tree=38
num_leaves=8
num_cat=0
split_feature=3 3 2 0 4 4 4
split_gain=11.5583 20.7565 10.3781 9.18521 4.7189 9.28729 6.25079
threshold=527.50000000000011 459.00000000000006 1.0000000180025095e-35 1.5000000000000002 20.500000000000004 11.500000000000002 41.500000000000007
decision_type=2 2 2 2 2 2 2
left_child=1 3 -3 -1 5 -2 -6
right_child=4 2 -4 -5 6 -7 -8
leaf_value=-0.0027951833010400884 0.0013284854875032399 0.0079879219255466483 -0.0051281267225447222 0.0024802428090260342 7.2266690451099685e-05 -0.0091017482363383844 -0.01025969215101279
leaf_weight=5649 960 3846 492 4132 4354 1729 469
leaf_count=5649 960 3846 492 4132 4354 1729 469
internal_value=0 0.00160471 0.00650035 -0.000566571 -0.00252379 -0.00537805 -0.000932438
internal_weight=0 14119 4338 9781 7512 2689 4823
internal_count=21631 14119 4338 9781 7512 2689 4823
is_linear=0
shrinkage=0.085033


Tree=39
num_leaves=8
num_cat=0
split_feature=5 3 4 6 4 4 3
split_gain=8.80842 13.8755 9.73328 4.18146 3.91559 1.82682 1.45874
threshold=6.5000000000000009 2236.0000000000005 16.500000000000004 4.5000000000000009 32.500000000000007 5.5000000000000009 1193.5000000000002
decision_type=2 2 2 2 2 2 2
left_child=1 2 -1 -3 5 -2 -6
right_child=4 3 -4 -5 6 -7 -8
leaf_value=-0.0025988863234879199 0.00071767458336111003 0.037772081856901729 0.0014713373579870626 0.009766029113662698 -0.013659171751284912 -0.0075698947134019224 -0.030429771220821408
leaf_weight=6036 299 89 14342 68 203 539 46
leaf_count=6036 299 89 14342 68 203 539 46
internal_value=0 0.000459744 0.00026573 0.0256421 -0.00739482 -0.00461287 -0.0167574
internal_weight=0 20535 20378 157 1087 838 249
internal_count=21622 20535 20378 157 1087 838 249
is_linear=0
shrinkage=0.085033


Tree=40
num_leaves=5
num_cat=0
split_feature=1 3 2 0
split_gain=10.9106 11.5469 10.0666 1.44621
threshold=1.0000000180025095e-35 212.50000000000003 1.0000000180025095e-35 1.5000000000000002
decision_type=2 2 2 2
left_child=-1 3 -3 -2
right_child=1 2 -4 -5
leaf_value=0.034859668646632196 -0.027408683846009616 0.00094143719033857698 -0.0042172462750368093 -0.012719248018594557
leaf_weight=65 105 18007 3225 90
leaf_count=65 105 18007 3225 90
internal_value=0 -3.13065e-05 0.000157867 -0.0206289
internal_weight=0 21427 21232 195
internal_count=21492 21427 21232 195
is_linear=0
shrinkage=0.085033


Tree=41
num_leaves=7
num_cat=0
split_feature=3 3 2 1 3 3
split_gain=7.15502 11.1539 9.12981 4.86433 4.85439 6.47129
threshold=312.50000000000006 527.50000000000011 1.0000000180025095e-35 592.93750000000011 1.0000000180025095e-35 212.50000000000003
decision_type=2 2 2 2 2 2
left_child=4 2 -2 -3 -1 -6
right_child=1 3 -4 -5 5 -7
leaf_value=0.026494721792867201 0.0031540359624031328 -0.0033353148534847697 -0.0052555752899788684 0.0013642694225843501 -0.019879857568533409 -0.0031504714695385141
leaf_weight=38 9864 5218 1031 2292 177 3016
leaf_count=38 9864 5218 1031 2292 177 3016
internal_value=0 0.000620274 0.00235823 -0.00190103 -0.00371828 -0.00407784
internal_weight=0 18405 10895 7510 3231 3193
internal_count=21636 18405 10895 7510 3231 3193
is_linear=0
shrinkage=0.085033


Tree=42
num_leaves=7
num_cat=0
split_feature=0 0 6 4 4 4
split_gain=7.20139 36.9814 18.7854 8.7151 7.0414 3.37994
threshold=3.5000000000000004 1.5000000000000002 32.500000000000007 34.500000000000007 2.5000000000000004 3.5000000000000004
decision_type=2 2 2 2 2 2
left_child=1 3 -3 -1 -2 -6
right_child=4 2 -4 -5 5 -7
leaf_value=-0.0021293585965855167 0.028903985825231397 0.012980409298035145 -0.014362033559201619 0.003021232709296523 -0.019881296509310462 -0.0022988202360406298
leaf_weight=9193 52 2205 198 3203 80 6685
leaf_count=9193 52 2205 198 3203 80 6685
internal_value=0 0.00107304 0.0107275 -0.000798498 -0.00226714 -0.00250674
internal_weight=0 14799 2403 12396 6817 6765
internal_count=21616 14799 2403 12396 6817 6765
is_linear=0
shrinkage=0.085033


Tree=43
num_leaves=8
num_cat=0
split_feature=4 1 5 3 3 3 3
split_gain=9.62207 15.8923 8.5125 7.85519 11.3918 11.0677 5.61317
threshold=34.500000000000007 592.93750000000011 6.5000000000000009 527.50000000000011 459.00000000000006 700.50000000000011 312.50000000000006
decision_type=2 2 2 2 2 2 2
left_child=3 6 -3 4 -1 -5 -2
right_child=1 2 -4 5 -6 -7 -8
leaf_value=-0.001660534254211823 -0.00534655485205391 0.010489074910000076 -0.025440955402916066 -0.007885465835334558 0.0044162277049046971 -0.00029675637396608186 0.0018828757832492552
leaf_weight=6981 1074 1767 49 2503 3278 3124 2804
leaf_count=6981 1074 1767 49 2503 3278 3124 2804
internal_value=0 0.00295486 0.0095196 -0.00111924 0.000281139 -0.00367236 -0.000119292
internal_weight=0 5694 1816 15886 10259 5627 3878
internal_count=21580 5694 1816 15886 10259 5627 3878
is_linear=0
shrinkage=0.085033


Tree=44
num_leaves=8
num_cat=0
split_feature=1 1 3 6 3 6 5
split_gain=8.14649 9.53656 9.37305 8.44593 7.98068 6.19944 3.18631
threshold=479.33500000000009 359.50000000000006 275.00000000000006 1.0000000180025095e-35 548.00000000000011 8.0000000000000018 5.5000000000000009
decision_type=2 2 2 2 2 2 2
left_child=1 3 6 -1 -4 -3 -2
right_child=2 5 4 -5 -6 -7 -8
leaf_value=-0.0023699479591973191 -0.025447081530524412 -0.0026398187510718882 0.0025973509136644132 0.011327874942941281 -0.0014855682440282477 -0.0095815497648222871 0.0025686923314726397
leaf_weight=729 129 3662 9990 588 5297 1247 38
leaf_count=729 129 3662 9990 588 5297 1247 38
internal_value=0 -0.00267943 0.000963726 0.00374571 0.0011826 -0.00440318 -0.0190722
internal_weight=0 6226 15454 1317 15287 4909 167
internal_count=21680 6226 15454 1317 15287 4909 167
is_linear=0
shrinkage=0.085033


Tree=45
num_leaves=8
num_cat=0
split_feature=1 3 3 1 1 3 3
split_gain=7.62326 9.42784 6.2342 4.88708 2.45048 10.0459 3.0447
threshold=655.00000000000011 312.50000000000006 527.50000000000011 647.50000000000011 680.50000000000011 312.50000000000006 548.00000000000011
decision_type=2 2 2 2 2 2 2
left_child=1 3 -3 -1 6 -6 -2
right_child=4 2 -4 -5 5 -7 -8
leaf_value=-0.0045001912149351129 0.010920034779462812 0.0015125715187341105 -0.0017451638472117353 -0.025198649199425178 0.0074355094785854741 -0.026430660167934099 -0.0011742552428012976
leaf_weight=2782 739 10138 7310 85 304 80 189
leaf_count=2782 739 10138 7310 85 304 80 189
internal_value=0 -0.000594837 0.000147713 -0.00511385 0.00609292 0.000380057 0.00845687
internal_weight=0 20315 17448 2867 1312 384 928
internal_count=21627 20315 17448 2867 1312 384 928
is_linear=0
shrinkage=0.085033


Tree=46
num_leaves=7
num_cat=0
split_feature=0 0 5 4 4 4
split_gain=7.48158 28.7735 41.8324 6.66797 4.78781 3.91428
threshold=4.5000000000000009 1.5000000000000002 1.0000000180025095e-35 33.500000000000007 2.5000000000000004 3.5000000000000004
decision_type=2 2 2 2 2 2
left_child=1 3 -3 -1 -2 -6
right_child=4 2 -4 -5 5 -7
leaf_value=-0.0025850012891665353 0.024225458727744641 0.014926145362026915 -0.0038280917548053775 0.0018930509176363186 -0.028582725838219351 -0.0031189877339397832
leaf_weight=9152 46 2105 1454 3261 44 5484
leaf_count=9152 46 2105 1454 3261 44 5484
internal_value=0 0.000523967 0.00726426 -0.00140858 -0.00309433 -0.00332167
internal_weight=0 15972 3559 12413 5574 5528
internal_count=21546 15972 3559 12413 5574 5528
is_linear=0
shrinkage=0.085033


Tree=47
num_leaves=8
num_cat=0
split_feature=0 0 5 3 5 1 1
split_gain=7.61625 36.6994 30.6983 6.58953 2.94055 3.52361 0.626818
threshold=3.5000000000000004 1.5000000000000002 2.5000000000000004 387.50000000000006 6.5000000000000009 246.50000000000003 240.50000000000003
decision_type=2 2 2 2 2 2 2
left_child=1 3 -3 -1 5 -2 -6
right_child=4 2 -4 -5 6 -7 -8
leaf_value=-0.0039296965429609209 0.013970118837838125 0.017663970196914784 -0.0025288945140379748 0.00039542934906563039 -0.019411817043211314 -0.0022767384929111519 -0.008791399575520489
leaf_weight=3582 98 1564 835 8815 47 6398 277
leaf_count=3582 98 1564 835 8815 47 6398 277
internal_value=0 0.00100868 0.0106356 -0.000854276 -0.00242596 -0.00203164 -0.010332
internal_weight=0 14796 2399 12397 6820 6496 324
internal_count=21616 14796 2399 12397 6820 6496 324
is_linear=0
shrinkage=0.085033


Tree=48
num_leaves=8
num_cat=0
split_feature=4 4 6 4 4 4 0
split_gain=6.38687 7.02138 7.10277 6.34434 3.85507 4.9023 1.32716
threshold=16.500000000000004 22.500000000000004 8.0000000000000018 34.500000000000007 2.5000000000000004 3.5000000000000004 1.5000000000000002
decision_type=2 2 2 2 2 2 2
left_child=4 2 -2 -3 6 -6 -1
right_child=1 3 -4 -5 5 -7 -8
leaf_value=0.0036789916220214213 0.0073011288160262184 -0.0016250931536556474 -0.0024418521951501478 0.0022931064992178446 -0.014374431152704186 -0.001842086307171755 0.021004509218327184
leaf_weight=62 2195 6261 718 5716 234 6354 66
leaf_count=62 2195 6261 718 5716 234 6354 66
internal_value=0 0.0011555 0.00489967 0.00024486 -0.00200325 -0.00228722 0.0126125
internal_weight=0 14890 2913 11977 6716 6588 128
internal_count=21606 14890 2913 11977 6716 6588 128
is_linear=0
shrinkage=0.085033


Tree=49
num_leaves=8
num_cat=0
split_feature=6 3 3 1 4 1 3
split_gain=6.50548 5.92942 16.3516 10.258 3.51446 2.35273 0.972767
threshold=67.500000000000014 459.00000000000006 527.50000000000011 632.50000000000011 27.500000000000004 527.50000000000011 943.50000000000011
decision_type=2 2 2 2 2 2 2
left_child=1 3 -3 -1 5 -2 -6
right_child=4 2 -4 -5 6 -7 -8
leaf_value=-0.0029608137531345717 -0.0061253384425314032 0.0056091453881246681 -0.0010685036323777072 0.0035633227494011356 -0.012963698032519986 0.012795643769393685 -0.025599371929690327
leaf_weight=7435 215 4239 7080 2276 261 61 53
leaf_count=7435 215 4239 7080 2276 261 61 53
internal_value=0 0.000109778 0.0014323 -0.00143173 -0.00894357 -0.00194353 -0.0150965
internal_weight=0 21030 11319 9711 590 276 314
internal_count=21620 21030 11319 9711 590 276 314
is_linear=0
shrinkage=0.085033


Tree=50
num_leaves=5
num_cat=0
split_feature=1 3 1 1
split_gain=5.83545 6.84643 6.9262 2.94342
threshold=1.0000000180025095e-35 275.00000000000006 479.33500000000009 647.50000000000011
decision_type=2 2 2 2
left_child=-1 3 -3 -2
right_child=1 2 -4 -5
leaf_value=0.025068611387381038 -0.0095362282831513052 -0.0023375236267205841 0.0010558043534534425 -0.0327213391987594
leaf_weight=67 177 6077 15298 51
leaf_count=67 177 6077 15298 51
internal_value=0 -6.5275e-05 9.10673e-05 -0.0147224
internal_weight=0 21603 21375 228
internal_count=21670 21603 21375 228
is_linear=0
shrinkage=0.085033


Tree=51
num_leaves=7
num_cat=0
split_feature=0 0 5 4 4 5
split_gain=6.34404 34.9195 34.2701 4.15942 3.51448 2.55822
threshold=3.5000000000000004 1.5000000000000002 1.0000000180025095e-35 34.500000000000007 2.5000000000000004 6.5000000000000009
decision_type=2 2 2 2 2 2
left_child=1 3 -3 -1 -2 -6
right_child=4 2 -4 -5 5 -7
leaf_value=-0.0015315198534360448 0.019262347797055504 0.018139642615958542 -0.0032902955392803846 0.0020120377678258449 -0.0017556017338320243 -0.0094883321897968383
leaf_weight=9250 56 1542 830 3232 6423 325
leaf_count=9250 56 1542 830 3232 6423 325
internal_value=0 0.0011833 0.010641 -0.000613976 -0.00195198 -0.00212803
internal_weight=0 14854 2372 12482 6804 6748
internal_count=21658 14854 2372 12482 6804 6748
is_linear=0
shrinkage=0.085033


Tree=52
num_leaves=8
num_cat=0
split_feature=2 0 0 3 4 5 0
split_gain=4.9627 6.14308 15.8152 4.21871 3.04225 2.23747 1.16629
threshold=1.0000000180025095e-35 4.5000000000000009 1.5000000000000002 591.50000000000011 32.500000000000007 5.5000000000000009 3.5000000000000004
decision_type=2 2 2 2 2 2 2
left_child=1 2 -1 5 -3 -2 -5
right_child=3 4 -4 6 -6 -7 -8
leaf_value=8.3189101499537012e-05 -0.018803599423419585 -0.0031745959897658462 0.0070429794966935045 -0.0015084805526666409 0.0015898670422842039 -0.0053225443730010201 0.0032379578325427666
leaf_weight=10424 95 3528 3052 1205 1336 1414 543
leaf_count=10424 95 3528 3052 1205 1336 1414 543
internal_value=0 0.000724451 0.00165942 -0.00287747 -0.00186594 -0.00617125 -3.40435e-05
internal_weight=0 18340 13476 3257 4864 1509 1748
internal_count=21597 18340 13476 3257 4864 1509 1748
is_linear=0
shrinkage=0.085033


Tree=53
num_leaves=8
num_cat=0
split_feature=6 3 4 4 4 4 3
split_gain=6.46965 6.00851 6.85768 4.87022 0.439558 1.00207 0.450324
threshold=87.500000000000014 312.50000000000006 33.500000000000007 29.000000000000004 29.000000000000004 37.500000000000007 591.50000000000011
decision_type=2 2 2 2 2 2 2
left_child=1 3 -3 -1 6 -6 -2
right_child=4 2 -4 -5 5 -7 -8
leaf_value=0.0013864655315010805 -0.0075881551126475164 0.00010341126924714447 0.0039806921026223335 -0.0053787458133604587 -0.0023823719989171828 -0.017152041050016501 -0.018161902131571067
leaf_weight=1215 39 13604 4354 2098 76 59 115
leaf_count=1215 39 13604 4354 2098 76 59 115
internal_value=0 0.000429631 0.00104348 -0.00289769 -0.0123792 -0.00883726 -0.0154841
internal_weight=0 21271 17958 3313 289 135 154
internal_count=21560 21271 17958 3313 289 135 154
is_linear=0
shrinkage=0.085033


Tree=54
num_leaves=8
num_cat=0
split_feature=4 3 3 1 4 4 5
split_gain=6.39831 8.30957 9.99462 5.0542 4.47177 3.99784 1.82337
threshold=16.500000000000004 337.50000000000006 556.00000000000011 587.50000000000011 12.500000000000002 8.5000000000000018 6.5000000000000009
decision_type=2 2 2 2 2 2 2
left_child=4 3 -3 -2 5 -1 -6
right_child=1 2 -4 -5 6 -7 -8
leaf_value=-0.00060916784527603588 -0.0077658121463296727 0.0036423131047453876 -0.001269816308336284 -0.00035831611196273657 -0.0039257040169100579 0.01319991053929544 -0.013899250794933586
leaf_weight=2359 1205 7014 5227 1489 4072 162 137
leaf_count=2359 1205 7014 5227 1489 4072 162 137
internal_value=0 0.000603851 0.0015448 -0.00367162 -0.00255398 0.000278206 -0.00425034
internal_weight=0 14935 12241 2694 6730 2521 4209
internal_count=21665 14935 12241 2694 6730 2521 4209
is_linear=0
shrinkage=0.085033


Tree=55
num_leaves=5
num_cat=0
split_feature=1 3 1 1
split_gain=4.88669 4.85896 5.41556 1.63387
threshold=1.0000000180025095e-35 3050.0000000000005 485.00000000000006 196.50000000000003
decision_type=2 2 2 2
left_child=-1 2 -2 -3
right_child=1 3 -4 -5
leaf_value=0.024258079894721701 -0.0022783086075651967 0.0090716913267792354 0.00071841671098785565 0.031821613332263847
leaf_weight=60 6071 50 15475 42
leaf_count=60 6071 50 15475 42
internal_value=0 -4.27036e-05 -0.000125968 0.0194575
internal_weight=0 21638 21546 92
internal_count=21698 21638 21546 92
is_linear=0
shrinkage=0.085033


Tree=56
num_leaves=8
num_cat=0
split_feature=2 0 0 6 3 4 2
split_gain=5.38429 5.18153 27.1441 3.06015 2.63143 1.00243 1.00193
threshold=1.5000000000000002 3.5000000000000004 1.5000000000000002 4.5000000000000009 568.50000000000011 25.500000000000004 6.5000000000000009
decision_type=2 2 2 2 2 2 2
left_child=1 2 -1 -3 5 -2 -6
right_child=4 3 -4 -5 6 -7 -8
leaf_value=-0.00069239883558628115 -0.006227942999731095 -0.00020520327397519281 0.0094973350756143975 -0.0038837560024208777 -0.0016769268896962826 -0.014181221604927591 -0.014059732126094814
leaf_weight=11687 198 3463 2255 3098 642 272 51
leaf_count=11687 198 3463 2255 3098 642 272 51
internal_value=0 2.83827e-05 0.000955704 -0.00194216 -0.00591922 -0.0108307 -0.00258822
internal_weight=0 20503 13942 6561 1163 470 693
internal_count=21666 20503 13942 6561 1163 470 693
is_linear=0
shrinkage=0.085033


Tree=57
num_leaves=7
num_cat=0
split_feature=6 1 4 1 0 0
split_gain=5.46811 3.52546 6.96308 5.1881 2.71468 2.16075
threshold=67.500000000000014 479.33500000000009 33.500000000000007 359.50000000000006 4.5000000000000009 1.5000000000000002
decision_type=2 2 2 2 2 2
left_child=1 3 -3 -1 5 -2
right_child=4 2 -4 -5 -6 -7
leaf_value=0.0032963457782491145 -0.0076291847566924524 -4.0816382126207796e-05 0.0042363730467568222 -0.0028225262878215783 0.007993172390612327 -0.022303389565355616
leaf_weight=1284 437 11529 3615 4561 68 87
leaf_count=1284 437 11529 3615 4561 68 87
internal_value=0 0.00029553 0.000980185 -0.00147836 -0.00799124 -0.0100656
internal_weight=0 20989 15144 5845 592 524
internal_count=21581 20989 15144 5845 592 524
is_linear=0
shrinkage=0.085033


Tree=58
num_leaves=5
num_cat=0
split_feature=1 6 6 1
split_gain=5.34965 3.93649 3.42448 0.631234
threshold=1.0000000180025095e-35 87.500000000000014 1.0000000180025095e-35 587.50000000000011
decision_type=2 2 2 2
left_child=-1 2 -2 -3
right_child=1 3 -4 -5
leaf_value=0.02468611166537673 -0.0017083067299292786 -0.01167961924284351 0.00095015058770413696 -0.0031343504395933506
leaf_weight=65 4431 222 16739 87
leaf_count=65 4431 222 16739 87
internal_value=0 0.000254644 0.000393721 -0.00927367
internal_weight=0 21479 21170 309
internal_count=21544 21479 21170 309
is_linear=0
shrinkage=0.085033


Tree=59
num_leaves=7
num_cat=0
split_feature=3 2 0 3 3 6
split_gain=3.87311 3.27496 3.49927 2.27544 2.24058 0.284069
threshold=212.50000000000003 1.5000000000000002 4.5000000000000009 568.50000000000011 125.00000000000001 4.5000000000000009
decision_type=2 2 2 2 2 2
left_child=4 2 -2 -3 -1 -6
right_child=1 3 -4 -5 5 -7
leaf_value=0.004554694110491705 0.0013304506054434297 -0.0086075444655856776 -0.0012093734894817261 -0.00096049692280867466 -0.012716550938805617 -0.019876869638210497
leaf_weight=50 14914 461 5322 722 86 75
leaf_count=50 14914 461 5322 722 86 75
internal_value=0 0.000408259 0.000662485 -0.00394045 -0.011169 -0.0160521
internal_weight=0 21419 20236 1183 211 161
internal_count=21630 21419 20236 1183 211 161
is_linear=0
shrinkage=0.085033


Tree=60
num_leaves=8
num_cat=0
split_feature=5 3 1 4 3 1 1
split_gain=5.66897 5.1817 4.32177 3.5558 3.50474 1.98137 1.0318
threshold=6.5000000000000009 2236.0000000000005 655.00000000000011 37.500000000000007 2825.0000000000005 240.50000000000003 670.00000000000011
decision_type=2 2 2 2 2 2 2
left_child=1 2 -1 5 -3 -2 -5
right_child=3 4 -4 6 -6 -7 -8
leaf_value=-0.00021384690163091632 -0.013274939822110842 0.03401335135826998 0.0048551687467052228 -0.013361883723961581 0.0070821833070177304 -0.0023522404423078321 -0.028315445982515983
leaf_weight=19069 142 50 1299 115 116 778 47
leaf_count=19069 142 50 1299 115 116 778 47
internal_value=0 0.000231383 0.000109437 -0.00608367 0.015194 -0.00403814 -0.0177003
internal_weight=0 20534 20368 1082 166 920 162
internal_count=21616 20534 20368 1082 166 920 162
is_linear=0
shrinkage=0.085033


Tree=61
num_leaves=8
num_cat=0
split_feature=4 4 1 6 5 4 6
split_gain=3.70205 13.6914 8.06976 4.47058 6.65655 4.59068 2.50842
threshold=20.500000000000004 22.500000000000004 592.93750000000011 8.0000000000000018 2.5000000000000004 2.5000000000000004 52.500000000000007
decision_type=2 2 2 2 2 2 2
left_child=3 6 -3 5 -5 -1 -2
right_child=1 2 -4 4 -6 -7 -8
leaf_value=0.018283014199217445 0.0092009491929225945 -0.0016356370294710963 0.0030019651245707453 -0.011192949428177784 -0.0012734125527735719 -0.00046456116832130156 -0.0076217745685406508
leaf_weight=96 1475 7889 4135 744 1428 5816 67
leaf_count=96 1475 7889 4135 744 1428 5816 67
internal_value=0 0.000926605 -4.07863e-05 -0.00137218 -0.00467126 -0.000160135 0.00847
internal_weight=0 13566 12024 8084 2172 5912 1542
internal_count=21650 13566 12024 8084 2172 5912 1542
is_linear=0
shrinkage=0.085033


Tree=62
num_leaves=7
num_cat=0
split_feature=3 1 1 0 4 4
split_gain=5.49867 7.52793 4.60626 4.3965 3.25309 0.748938
threshold=312.50000000000006 680.50000000000011 680.50000000000011 3.5000000000000004 29.000000000000004 29.000000000000004
decision_type=2 2 2 2 2 2
left_child=2 3 4 -2 -1 -4
right_child=1 -3 5 -5 -6 -7
leaf_value=-0.0009162614776120579 0.0013322278868089835 -0.026579262037796599 0.013056418774094134 -0.0014773815160506547 -0.0067442782805025138 0.0037682726479175907
leaf_weight=1119 12344 75 89 5977 1817 213
leaf_count=1119 12344 75 89 5977 1817 213
internal_value=0 0.00030557 -0.00349444 0.000415628 -0.00452304 0.00650551
internal_weight=0 18396 3238 18321 2936 302
internal_count=21634 18396 3238 18321 2936 302
is_linear=0
shrinkage=0.085033


Tree=63
num_leaves=6
num_cat=0
split_feature=4 0 0 4 0
split_gain=3.55061 3.11287 30.0682 3.9876 0.428117
threshold=2.5000000000000004 1.5000000000000002 2.5000000000000004 34.500000000000007 1.5000000000000002
decision_type=2 2 2 2 2
left_child=4 3 -3 -2 -1
right_child=1 2 -4 -5 -6
leaf_value=0.0087432514847879741 -0.0019509886516738653 0.01829263868282038 -0.00034598621574347327 0.0015375946007082258 0.018564424009238543
leaf_weight=60 9052 676 8432 3209 69
leaf_count=60 9052 676 8432 3209 69
internal_value=0 -0.000153388 0.00103738 -0.00103794 0.0139964
internal_weight=0 21369 9108 12261 129
internal_count=21498 21369 9108 12261 129
is_linear=0
shrinkage=0.085033


Tree=64
num_leaves=8
num_cat=0
split_feature=0 0 5 3 5 3 5
split_gain=3.41613 15.1824 19.5506 3.31144 1.55956 4.02341 2.08633
threshold=3.5000000000000004 1.5000000000000002 1.0000000180025095e-35 459.00000000000006 1.0000000180025095e-35 548.00000000000011 6.5000000000000009
decision_type=2 2 2 2 2 2 2
left_child=1 3 -3 -1 5 -2 -6
right_child=4 2 -4 -5 6 -7 -8
leaf_value=-0.0021662508997796729 -0.0013807197715914174 0.012471453968332102 -0.0036636950223567521 0.00063844311925072034 0.00073799400959081551 -0.0078029519584965059 -0.0064605672555951505
leaf_weight=5613 3248 1539 839 6650 2364 901 332
leaf_count=5613 3248 1539 839 6650 2364 901 332
internal_value=0 0.000560495 0.00677869 -0.000645317 -0.00174073 -0.00277538 -0.000148476
internal_weight=0 14641 2378 12263 6845 4149 2696
internal_count=21486 14641 2378 12263 6845 4149 2696
is_linear=0
shrinkage=0.085033


Tree=65
num_leaves=8
num_cat=0
split_feature=3 3 3 6 3 4 4
split_gain=3.52778 6.28899 7.28464 4.59975 2.92026 2.81332 1.16584
threshold=312.50000000000006 527.50000000000011 459.00000000000006 4.5000000000000009 2236.0000000000005 9.5000000000000018 42.500000000000007
decision_type=2 2 2 2 2 2 2
left_child=3 2 -2 5 -3 -1 -5
right_child=1 4 -4 6 -6 -7 -8
leaf_value=0.014199047445452615 0.00015234677804611902 -0.0016668488237722905 0.0046548765585770861 -0.005247904137941406 0.0058985502491346832 -0.00058316483828192408 -0.012114703007759494
leaf_weight=98 6624 7147 4275 1061 389 1859 215
leaf_count=98 6624 7147 4275 1061 389 1859 215
internal_value=0 0.000612439 0.00191841 -0.00243281 -0.00127633 0.000157079 -0.00640493
internal_weight=0 18435 10899 3233 7536 1957 1276
internal_count=21668 18435 10899 3233 7536 1957 1276
is_linear=0
shrinkage=0.085033


Tree=66
num_leaves=7
num_cat=0
split_feature=1 1 3 0 3 4
split_gain=3.64962 3.93066 3.76251 3.28684 3.22109 2.35213
threshold=485.00000000000006 1.0000000180025095e-35 1358.0000000000002 3.5000000000000004 1525.0000000000002 37.500000000000007
decision_type=2 2 2 2 2 2
left_child=1 -1 3 -2 -3 -4
right_child=2 4 5 -5 -6 -7
leaf_value=0.019107190534887006 0.0018025450362867158 -0.0024641791103177197 -0.0058158566823861835 -0.00087596758189735047 0.0049554183054235515 -0.028061850010704052
leaf_weight=65 10169 5699 244 4913 457 40
leaf_count=65 10169 5699 244 4913 457 40
internal_value=0 -0.00169374 0.000747423 0.000930013 -0.00191337 -0.0089491
internal_weight=0 6221 15366 15082 6156 284
internal_count=21587 6221 15366 15082 6156 284
is_linear=0
shrinkage=0.085033


Tree=67
num_leaves=7
num_cat=0
split_feature=1 3 3 1 3 3
split_gain=4.57722 6.12673 3.6959 3.34561 3.03671 2.16073
threshold=632.50000000000011 548.00000000000011 212.50000000000003 1.0000000180025095e-35 312.50000000000006 1403.0000000000002
decision_type=2 2 2 2 2 2
left_child=3 2 -2 -1 -5 -3
right_child=1 5 -4 4 -6 -7
leaf_value=0.018920594759646282 -0.020541639951247231 -0.0019799905412903958 0.0048571098235614561 -0.0032852113687039616 -9.8355831078784963e-05 -0.014974207327997839
leaf_weight=64 42 779 3030 2525 15038 105
leaf_count=64 42 779 3030 2525 15038 105
internal_value=0 0.00271476 0.00450986 -0.000485807 -0.000556524 -0.00352342
internal_weight=0 3956 3072 17627 17563 884
internal_count=21583 3956 3072 17627 17563 884
is_linear=0
shrinkage=0.085033


Tree=68
num_leaves=8
num_cat=0
split_feature=4 4 4 6 6 6 3
split_gain=3.67914 11.1276 4.78835 3.80947 3.54681 2.00768 1.2109
threshold=20.500000000000004 22.500000000000004 19.500000000000004 42.500000000000007 4.5000000000000009 8.0000000000000018 693.50000000000011
decision_type=2 2 2 2 2 2 2
left_child=2 5 4 -3 -1 -2 -4
right_child=1 3 6 -5 -6 -7 -8
leaf_value=0.00027625400151206042 0.0090846972682417353 0.00013230660716114453 -0.012045826013307831 -0.0081128468630963634 -0.0033403542430756722 0.0018189404487353564 -0.030225726627870382
leaf_weight=4442 1220 11478 69 420 3510 355 43
leaf_count=4442 1220 11478 69 420 3510 355 43
internal_value=0 0.00073037 -0.00156602 -0.000158748 -0.00132011 0.00744702 -0.0190256
internal_weight=0 13473 8064 11898 7952 1575 112
internal_count=21537 13473 8064 11898 7952 1575 112
is_linear=0
shrinkage=0.085033


Tree=69
num_leaves=8
num_cat=0
split_feature=3 0 0 1 0 6 6
split_gain=3.93356 4.05122 15.7861 3.22484 6.72299 3.28251 2.20197
threshold=337.50000000000006 3.5000000000000004 1.5000000000000002 386.24575000000004 1.5000000000000002 1.0000000180025095e-35 4.5000000000000009
decision_type=2 2 2 2 2 2 2
left_child=3 2 -2 4 -1 -5 -3
right_child=1 6 -4 5 -6 -7 -8
leaf_value=-0.005037690403322085 -0.00052117841107760226 -0.00043847145502573916 0.0079947580840441252 0.0012917338572772221 0.014286037371042264 -0.0057879379860760541 -0.0037418180084518881
leaf_weight=321 10419 3190 1854 594 219 2335 2689
leaf_count=321 10419 3190 1854 594 219 2335 2689
internal_value=0 -0.000113946 0.000765267 -0.00323897 0.00279915 -0.00435218 -0.00194939
internal_weight=0 18152 12273 3469 540 2929 5879
internal_count=21621 18152 12273 3469 540 2929 5879
is_linear=0
shrinkage=0.085033


Tree=70
num_leaves=8
num_cat=0
split_feature=5 3 3 3 2 3 2
split_gain=2.58871 6.42521 4.52484 2.43869 1.0376 2.91471 2.17453
threshold=6.5000000000000009 2236.0000000000005 3125.0000000000005 387.50000000000006 1.0000000180025095e-35 312.50000000000006 1.5000000000000002
decision_type=2 2 2 2 2 2 2
left_child=1 3 -3 -1 5 -2 -6
right_child=4 2 -4 -5 6 -7 -8
leaf_value=-0.0011747435768654263 0.014802290962480372 0.026061726889911114 -0.0074188949978993305 0.00086222155366586623 0.0053612298684474827 -0.008583975012803443 -0.0053131726608139258
leaf_weight=6037 42 116 39 14355 217 467 379
leaf_count=6037 42 116 39 14355 217 467 379
internal_value=0 0.00039028 0.0176376 0.000259183 -0.00383468 -0.00665426 -0.00142669
internal_weight=0 20547 155 20392 1105 509 596
internal_count=21652 20547 155 20392 1105 509 596
is_linear=0
shrinkage=0.085033


Tree=71
num_leaves=6
num_cat=0
split_feature=6 4 4 4 4
split_gain=2.18403 2.20273 4.93812 4.3576 0.300212
threshold=117.50000000000001 34.500000000000007 29.000000000000004 36.500000000000007 20.500000000000004
decision_type=2 2 2 2 2
left_child=1 2 -1 -3 -2
right_child=4 3 -4 -5 -6
leaf_value=0.00050158191858159498 -0.0077674542282626918 0.0075213502786379326 -0.0028665107856101976 0.00061087057165002496 -0.017398059876743133
leaf_weight=11554 44 761 4326 4961 50
leaf_count=11554 44 761 4326 4961 50
internal_value=0 9.94828e-05 -0.000415948 0.00152993 -0.0128901
internal_weight=0 21602 15880 5722 94
internal_count=21696 21602 15880 5722 94
is_linear=0
shrinkage=0.085033


Tree=72
num_leaves=7
num_cat=0
split_feature=3 3 4 3 3 4
split_gain=3.65834 3.98567 3.77822 3.0953 2.6102 2.13455
threshold=212.50000000000003 1.0000000180025095e-35 16.500000000000004 337.50000000000006 3050.0000000000005 29.000000000000004
decision_type=2 2 2 2 2 2
left_child=1 -1 4 -4 -2 -3
right_child=2 5 3 -5 -6 -7
leaf_value=0.014485005046637946 -0.001635613224385503 0.00092936825778963791 -0.0017425848864122296 0.0015555864364539898 0.013025120788975317 -0.020643185536833898
leaf_weight=38 6559 43 2472 12269 89 145
leaf_count=38 6559 43 2472 12269 89 145
internal_value=0 -0.0106322 0.00024354 0.0010025 -0.00143934 -0.015709
internal_weight=0 226 21389 14741 6648 188
internal_count=21615 226 21389 14741 6648 188
is_linear=0
shrinkage=0.085033


Tree=73
num_leaves=8
num_cat=0
split_feature=6 1 6 1 1 6 0
split_gain=2.91677 2.77068 6.32152 4.26261 0.811217 1.40096 0.688422
threshold=87.500000000000014 359.50000000000006 32.500000000000007 415.75000000000006 587.50000000000011 107.50000000000001 1.5000000000000002
decision_type=2 2 2 2 2 2 2
left_child=1 2 -1 -3 6 -6 -2
right_child=4 3 -4 -5 5 -7 -8
leaf_value=0.0021373889104152623 -0.008684194208594738 -0.0029916725837161521 0.023423277007778086 0.00042350238539168289 -0.011198225745866134 0.010348987935529332 -0.020720391392449619
leaf_weight=1217 171 3132 110 16910 48 40 43
leaf_count=1217 171 3132 110 16910 48 40 43
internal_value=0 0.000138952 0.00390186 -0.000110193 -0.00827659 -0.00140404 -0.0111027
internal_weight=0 21369 1327 20042 302 88 214
internal_count=21671 21369 1327 20042 302 88 214
is_linear=0
shrinkage=0.085033


Tree=74
num_leaves=8
num_cat=0
split_feature=3 3 2 3 6 3 3
split_gain=3.29496 6.37088 7.11764 4.06302 2.69067 4.27344 2.79012
threshold=512.50000000000011 459.00000000000006 1.0000000180025095e-35 443.50000000000006 8.0000000000000018 3050.0000000000005 1275.0000000000002
decision_type=2 2 2 2 2 2 2
left_child=1 3 -3 -1 5 -2 -6
right_child=4 2 -4 -5 6 -7 -8
leaf_value=3.0935286894911536e-05 -0.0026276508211895457 0.0050175254141075504 -0.0059566600574940103 -0.018533767007143331 0.0021111320354805399 0.018535392123143656 -0.0061959924946291978
leaf_weight=9657 4789 3830 481 86 2296 70 335
leaf_count=9657 4789 3830 481 86 2296 70 335
internal_value=0 0.00107135 0.00379308 -0.000132933 -0.00113683 -0.00232277 0.0010534
internal_weight=0 14054 4311 9743 7490 4859 2631
internal_count=21544 14054 4311 9743 7490 4859 2631
is_linear=0
shrinkage=0.085033


Tree=75
num_leaves=6
num_cat=0
split_feature=6 0 0 4 3
split_gain=3.33876 2.31 22.0427 3.99893 0.293723
threshold=117.50000000000001 1.5000000000000002 2.5000000000000004 34.500000000000007 887.50000000000011
decision_type=2 2 2 2 2
left_child=1 3 -3 -1 -2
right_child=4 2 -4 -5 -6
leaf_value=-0.0016353143307797917 -0.021409390064523973 0.016076741531073149 -9.8865415991203774e-05 0.00183213781200041 -0.011638846257557321
leaf_weight=9137 44 656 8528 3264 45
leaf_count=9137 44 656 8528 3264 45
internal_value=0 3.43502e-05 0.00105654 -0.000722665 -0.0164692
internal_weight=0 21585 9184 12401 89
internal_count=21674 21585 9184 12401 89
is_linear=0
shrinkage=0.085033


Tree=76
num_leaves=5
num_cat=0
split_feature=1 0 0 1
split_gain=2.77958 1.94471 21.4259 3.97182
threshold=1.0000000180025095e-35 1.5000000000000002 2.5000000000000004 655.00000000000011
decision_type=2 2 2 2
left_child=-1 3 -3 -2
right_child=1 2 -4 -5
leaf_value=0.0178860415648468 -0.0012105833780440515 0.015194110021825181 -0.00037491677410646126 0.0052825270034119179
leaf_weight=62 11775 691 8515 723
leaf_count=62 11775 691 8515 723
internal_value=0 -0.00014415 0.00079369 -0.000834962
internal_weight=0 21704 9206 12498
internal_count=21766 21704 9206 12498
is_linear=0
shrinkage=0.085033


Tree=77
num_leaves=6
num_cat=0
split_feature=4 0 0 6 0
split_gain=3.24252 3.23477 8.0075 2.92321 0.415039
threshold=2.5000000000000004 3.5000000000000004 1.5000000000000002 8.0000000000000018 4.5000000000000009
decision_type=2 2 2 2 2
left_child=4 2 -2 -3 -1
right_child=1 3 -4 -5 -6
leaf_value=0.010105609884118225 2.4893613337205602e-05 -0.00038664987123300548 0.0054190720761599399 -0.0045720851573601848 0.020145059359894128
leaf_weight=88 12324 5291 2373 1563 45
leaf_count=88 12324 5291 2373 1563 45
internal_value=0 0.000184414 0.000895846 -0.0013411 0.0135024
internal_weight=0 21551 14697 6854 133
internal_count=21684 21551 14697 6854 133
is_linear=0
shrinkage=0.085033


Tree=78
num_leaves=8
num_cat=0
split_feature=5 3 1 4 4 1 1
split_gain=2.33371 3.87053 4.74136 3.72766 3.01245 1.80575 0.910908
threshold=6.5000000000000009 2236.0000000000005 196.50000000000003 37.500000000000007 33.500000000000007 240.50000000000003 670.00000000000011
decision_type=2 2 2 2 2 2 2
left_child=1 4 -3 5 -1 -2 -5
right_child=3 2 -4 6 -6 -7 -8
leaf_value=-0.0005926966555342125 -0.010420282769318308 0.00029557939873443829 0.029499800518001409 -0.011779362367091942 0.0017310628129420509 -0.0002216994159657384 -0.025937613119689867
leaf_weight=14815 149 91 72 115 5543 797 46
leaf_count=14815 149 91 72 115 5543 797 46
internal_value=0 0.000144504 0.0131956 -0.00386366 4.00079e-05 -0.00182803 -0.0158246
internal_weight=0 20521 163 1107 20358 946 161
internal_count=21628 20521 163 1107 20358 946 161
is_linear=0
shrinkage=0.085033


Tree=79
num_leaves=7
num_cat=0
split_feature=5 1 3 1 0 1
split_gain=3.08197 3.86843 3.06174 2.24953 1.70074 1.69002
threshold=6.5000000000000009 618.95000000000016 275.00000000000006 404.54550000000006 1.5000000000000002 395.00000000000006
decision_type=2 2 2 2 2 2
left_child=2 5 3 -1 -4 -2
right_child=1 -3 4 -5 -6 -7
leaf_value=0.0046657959531529857 -0.0074634283472398231 -0.025391069763823014 -0.00032271783813003156 -0.013336841602587109 0.0012512806340530093 -0.00043034953407136364
leaf_weight=67 406 60 11682 200 8631 631
leaf_count=67 406 60 11682 200 8631 631
internal_value=0 -0.00439851 0.000227165 -0.00881933 0.000346075 -0.0031839
internal_weight=0 1097 20580 267 20313 1037
internal_count=21677 1097 20580 267 20313 1037
is_linear=0
shrinkage=0.085033


Tree=80
num_leaves=5
num_cat=0
split_feature=1 5 1 1
split_gain=1.85947 1.74604 1.94449 1.71162
threshold=1.0000000180025095e-35 6.5000000000000009 240.50000000000003 359.50000000000006
decision_type=2 2 2 2
left_child=-1 3 -3 -2
right_child=1 2 -4 -5
leaf_value=0.014205077806126055 0.0038526522186727932 -0.012225778309902915 -0.0017647144810620623 0.00013042346193258865
leaf_weight=68 936 148 974 19560
leaf_count=68 936 148 974 19560
internal_value=0 0.000121608 -0.00314461 0.000300408
internal_weight=0 21618 1122 20496
internal_count=21686 21618 1122 20496
is_linear=0
shrinkage=0.085033


Tree=81
num_leaves=8
num_cat=0
split_feature=6 3 3 3 5 0 3
split_gain=3.36443 2.02479 1.89046 4.57368 2.28073 1.42895 1.40075
threshold=67.500000000000014 548.00000000000011 527.50000000000011 459.00000000000006 1.0000000180025095e-35 4.5000000000000009 484.00000000000006
decision_type=2 2 2 2 2 2 2
left_child=2 6 3 -1 -4 -3 -2
right_child=1 5 4 -5 -6 -7 -8
leaf_value=-0.00042048256416653246 -0.0052085500846454982 -0.0050629547047551307 -0.0031310278748280062 0.002927628715021449 3.1407752938006166e-05 0.010201415349046398 -0.020796231580603758
leaf_weight=9793 72 392 2582 4222 4563 50 99
leaf_count=9793 72 392 2582 4222 4563 50 99
internal_value=0 -0.00637594 1.42563e-05 0.000588131 -0.00111141 -0.00333622 -0.014233
internal_weight=0 613 21160 14015 7145 442 171
internal_count=21773 613 21160 14015 7145 442 171
is_linear=0
shrinkage=0.085033


Tree=82
num_leaves=8
num_cat=0
split_feature=6 5 6 1 5 0 5
split_gain=2.44585 9.78006 4.56249 3.3302 1.63391 5.09745 2.18459
threshold=8.0000000000000018 1.0000000180025095e-35 32.500000000000007 445.94500000000005 2.5000000000000004 4.5000000000000009 5.5000000000000009
decision_type=2 2 2 2 2 2 2
left_child=4 3 -3 -2 5 -1 -6
right_child=1 2 -4 -5 6 -7 -8
leaf_value=0.0023964942333128117 -0.015647155454245484 0.0037122805780557592 -0.0021194460837435387 -0.0053078728931296917 -0.0058804804007929019 -0.0016497749682166422 -2.9205193896792871e-06
leaf_weight=7947 274 1984 1898 1266 509 3141 4497
leaf_count=7947 274 1984 1898 1266 509 3141 4497
internal_value=0 -0.00141362 0.000861014 -0.00714746 0.00067458 0.00125027 -0.000600539
internal_weight=0 5422 3882 1540 16094 11088 5006
internal_count=21516 5422 3882 1540 16094 11088 5006
is_linear=0
shrinkage=0.085033


Tree=83
num_leaves=8
num_cat=0
split_feature=6 3 1 2 1 1 3
split_gain=2.29917 2.80554 2.14172 2.43975 1.81721 1.6252 1.31523
threshold=4.5000000000000009 275.00000000000006 428.12500000000006 1.5000000000000002 359.50000000000006 495.00000000000006 3050.0000000000005
decision_type=2 2 2 2 2 2 2
left_child=2 5 6 -4 -3 -2 -1
right_child=1 4 3 -5 -6 -7 -8
leaf_value=-0.0018216481554592786 -0.00259645106001498 0.0049082999853115681 0.001790580658034393 -0.0031306426524110491 -0.001106810814091542 -0.022009534756514564 0.01043670988411464
leaf_weight=2401 55 377 7938 802 9889 72 65
leaf_count=2401 55 377 7938 802 9889 72 65
internal_value=0 -0.00104131 0.000714569 0.001339 -0.000885917 -0.0136023 -0.00149854
internal_weight=0 10393 11206 8740 10266 127 2466
internal_count=21599 10393 11206 8740 10266 127 2466
is_linear=0
shrinkage=0.085033


Tree=84
num_leaves=5
num_cat=0
split_feature=1 6 4 4
split_gain=2.1923 1.81278 1.71421 0.490704
threshold=1.0000000180025095e-35 87.500000000000014 41.500000000000007 36.500000000000007
decision_type=2 2 2 2
left_child=-1 2 -2 -3
right_child=1 3 -4 -5
leaf_value=0.015294952517560384 0.00043760733175632295 -0.0047217755993336991 -0.0023179776829829104 -0.013273743018119819
leaf_weight=69 19436 237 1782 61
leaf_count=69 19436 237 1782 61
internal_value=0 0.00011368 0.000206179 -0.00647235
internal_weight=0 21516 21218 298
internal_count=21585 21516 21218 298
is_linear=0
shrinkage=0.085033


Tree=85
num_leaves=8
num_cat=0
split_feature=4 4 1 4 4 1 3
split_gain=2.79379 9.96331 3.76455 2.86535 2.35058 1.85005 0.273448
threshold=20.500000000000004 22.500000000000004 592.93750000000011 2.5000000000000004 19.500000000000004 428.12500000000006 484.00000000000006
decision_type=2 2 2 2 2 2 2
left_child=3 5 -3 6 -5 -2 -1
right_child=1 2 -4 4 -6 -7 -8
leaf_value=0.013835482897534593 -0.0015840080874480148 -0.0013719507014260783 0.0017970369772806205 -0.0014802109771529523 -0.014110406281826278 0.0079653715265472769 0.0061271068620187856
leaf_weight=82 164 7857 4138 7903 108 1390 56
leaf_count=82 164 7857 4138 7903 108 1390 56
internal_value=0 0.000551244 -0.000278723 -0.00144121 -0.00165048 0.00695759 0.0107074
internal_weight=0 13549 11995 8149 8011 1554 138
internal_count=21698 13549 11995 8149 8011 1554 138
is_linear=0
shrinkage=0.085033


Tree=86
num_leaves=7
num_cat=0
split_feature=5 1 1 6 1 3
split_gain=2.70723 3.68246 2.75172 2.44517 2.0752 1.49664
threshold=6.5000000000000009 359.50000000000006 328.25000000000006 32.500000000000007 647.50000000000011 548.00000000000011
decision_type=2 2 2 2 2 2
left_child=1 2 -1 -3 5 -2
right_child=4 3 -4 -5 -6 -7
leaf_value=0.0022140073842922192 -0.0084589818441327801 0.00025881188696892838 0.01173030827829093 -0.0030474640106882638 -0.020687720903249208 -0.0012953156831167045
leaf_weight=701 292 17800 320 1779 52 759
leaf_count=701 292 17800 320 1779 52 759
internal_value=0 0.000218016 0.00519659 -4.16051e-05 -0.00410601 -0.0032856
internal_weight=0 20600 1021 19579 1103 1051
internal_count=21703 20600 1021 19579 1103 1051
is_linear=0
shrinkage=0.085033


Tree=87
num_leaves=8
num_cat=0
split_feature=3 3 3 6 6 4 6
split_gain=2.32815 3.89918 3.12896 4.62578 2.75575 1.54007 0.448331
threshold=459.00000000000006 443.50000000000006 548.00000000000011 67.500000000000014 8.0000000000000018 20.500000000000004 1.0000000180025095e-35
decision_type=2 2 2 2 2 2 2
left_child=1 4 3 -2 -1 -4 -3
right_child=2 6 5 -5 -6 -7 -8
leaf_value=-0.0001459206147808375 0.0030377224283994761 -0.011968887742332478 -0.0018911307793157243 -0.015743361097265162 -0.0038731054717037351 0.00064703302213096816 -0.024276006525379892
leaf_weight=7952 4227 38 2676 97 1750 4882 49
leaf_count=7952 4227 38 2676 97 1750 4882 49
internal_value=0 -0.000978919 0.00079208 0.00261641 -0.000818212 -0.000251634 -0.0189005
internal_weight=0 9789 11882 4324 9702 7558 87
internal_count=21671 9789 11882 4324 9702 7558 87
is_linear=0
shrinkage=0.085033


Tree=88
num_leaves=8
num_cat=0
split_feature=1 1 3 1 1 4 1
split_gain=2.96462 4.00797 5.75237 2.03685 3.25909 2.2351 1.84063
threshold=359.50000000000006 328.25000000000006 1096.5000000000002 479.33500000000009 476.83500000000009 33.500000000000007 324.50000000000006
decision_type=2 2 2 2 2 2 2
left_child=1 6 -3 4 -2 -5 -1
right_child=3 2 -4 5 -6 -7 -8
leaf_value=0.0019467285631108971 -0.0018778618958473047 0.018343690471000974 -0.0083672655850105977 -0.00072845633283973694 -0.020229829080654006 0.0016810923166685515 -0.011649601208205695
leaf_weight=935 4818 240 77 11594 71 3663 78
leaf_count=935 4818 240 77 11594 71 3663 78
internal_value=0 0.00351107 0.0118555 -0.000633959 -0.00214438 -0.000149956 0.000899825
internal_weight=0 1330 317 20146 4889 15257 1013
internal_count=21476 1330 317 20146 4889 15257 1013
is_linear=0
shrinkage=0.085033


Tree=89
num_leaves=8
num_cat=0
split_feature=3 3 3 3 3 5 5
split_gain=2.08156 3.31577 2.06165 1.92473 1.91976 1.63398 1.45909
threshold=2236.0000000000005 1358.0000000000002 2625.0000000000005 212.50000000000003 1525.0000000000002 2.5000000000000004 6.5000000000000009
decision_type=2 2 2 2 2 2 2
left_child=1 3 6 -1 -3 -4 -2
right_child=2 4 5 -5 -6 -7 -8
leaf_value=-0.0071919792743589204 0.028759923978582996 -0.0090603982852347463 0.01779586272089978 0.00064711816797097612 0.0014142216232515686 -0.00098494643312928396 0.0094298912309019531
leaf_weight=229 40 415 40 20510 182 206 96
leaf_count=229 40 415 40 20510 182 206 96
internal_value=0 0.000380706 0.00671362 0.000560559 -0.00586713 0.00206884 0.0151152
internal_weight=0 21336 382 20739 597 246 136
internal_count=21718 21336 382 20739 597 246 136
is_linear=0
shrinkage=0.085033


Tree=90
num_leaves=8
num_cat=0
split_feature=4 4 4 1 1 4 0
split_gain=1.79206 4.84717 3.07784 3.20713 1.53956 1.49825 1.27313
threshold=41.500000000000007 39.000000000000007 42.500000000000007 495.00000000000006 632.50000000000011 2.5000000000000004 3.5000000000000004
decision_type=2 2 2 2 2 2 2
left_child=1 5 4 -4 -2 -1 -3
right_child=2 6 3 -5 -6 -7 -8
leaf_value=0.0091901382783151683 -0.030265848491681079 0.011762103223449078 -0.0037956704937144705 0.0044764401689586734 -0.0077829446122150061 3.0613455185465417e-05 0.001872513954195839
leaf_weight=130 40 328 1328 455 49 19200 132
leaf_count=130 40 328 1328 455 49 19200 132
internal_value=0 0.000297506 -0.00245506 -0.00168473 -0.0178876 9.2214e-05 0.00892422
internal_weight=0 19790 1872 1783 89 19330 460
internal_count=21662 19790 1872 1783 89 19330 460
is_linear=0
shrinkage=0.085033


Tree=91
num_leaves=8
num_cat=0
split_feature=3 3 0 3 3 4 6
split_gain=2.47663 3.93413 2.99551 2.33407 1.73453 1.46107 1.41259
threshold=1887.5000000000002 1358.0000000000002 1.5000000000000002 2825.0000000000005 1525.0000000000002 17.500000000000004 18.000000000000004
decision_type=2 2 2 2 2 2 2
left_child=1 2 -1 5 -3 -2 -5
right_child=3 4 -4 6 -6 -7 -8
leaf_value=-0.0010894519442807018 0.017155037294986842 -0.010425207604400697 0.00098512234775922024 0.0029537365835028214 0.0016881235807831424 0.0026788981216513499 -0.014774034112229866
leaf_weight=11927 146 396 8706 195 109 77 39
leaf_count=11927 146 396 8706 195 109 77 39
internal_value=0 -0.000395581 -0.000214095 0.00593151 -0.00781065 0.0121565 -8.91866e-07
internal_weight=0 21138 20633 457 505 223 234
internal_count=21595 21138 20633 457 505 223 234
is_linear=0
shrinkage=0.085033


Tree=92
num_leaves=7
num_cat=0
split_feature=3 3 6 6 5 4
split_gain=1.36705 1.35696 1.7686 1.25474 1.26327 0.796844
threshold=275.00000000000006 1.0000000180025095e-35 4.5000000000000009 87.500000000000014 6.5000000000000009 36.500000000000007
decision_type=2 2 2 2 2 2
left_child=1 -1 -3 4 -2 -5
right_child=3 2 -4 5 -6 -7
leaf_value=0.0087331276285780527 0.00030280781091155529 -0.0014428298433247417 -0.016606660843203259 -0.003235021953993058 -0.0026586335954337471 -0.01433228959715265
leaf_weight=38 19910 117 106 226 1099 59
leaf_count=38 19910 117 106 226 1099 59
internal_value=0 -0.00611976 -0.00865075 7.18674e-05 0.000147892 -0.00553235
internal_weight=0 261 223 21294 21009 285
internal_count=21555 261 223 21294 21009 285
is_linear=0
shrinkage=0.085033


Tree=93
num_leaves=5
num_cat=0
split_feature=1 4 4 1
split_gain=1.98438 1.72377 4.46986 1.9872
threshold=1.0000000180025095e-35 3.5000000000000004 2.5000000000000004 592.93750000000011
decision_type=2 2 2 2
left_child=-1 2 -2 -3
right_child=1 3 -4 -5
leaf_value=0.015739138823060654 0.007317825662313854 -0.00026911580274625299 -0.013084120961002223 0.0016076078775599538
leaf_weight=59 120 15666 220 5516
leaf_count=59 120 15666 220 5516
internal_value=0 0.000123187 -0.00588343 0.000219601
internal_weight=0 21522 340 21182
internal_count=21581 21522 340 21182
is_linear=0
shrinkage=0.085033


Tree=94
num_leaves=8
num_cat=0
split_feature=6 0 0 2 0 0 5
split_gain=2.23979 2.8614 10.2171 1.86573 1.55751 9.83189 2.36852
threshold=32.500000000000007 1.5000000000000002 2.5000000000000004 1.0000000180025095e-35 3.5000000000000004 1.5000000000000002 1.5000000000000002
decision_type=2 2 2 2 2 2 2
left_child=4 3 -3 -2 5 -1 -6
right_child=1 2 -4 -5 6 -7 -8
leaf_value=-0.0005115963757969295 -0.0012035983717607476 -0.029755444605352788 -0.0026502298379336379 0.017035408667940531 -0.0023049796578084418 0.0056983736181533441 0.0011571556841192851
leaf_weight=11217 1177 122 572 42 4139 2206 2182
leaf_count=11217 1177 122 572 42 4139 2206 2182
internal_value=0 -0.00305658 -0.00741512 -0.000575183 -9.28695e-06 0.00050898 -0.00110986
internal_weight=0 1913 694 1219 19744 13423 6321
internal_count=21657 1913 694 1219 19744 13423 6321
is_linear=0
shrinkage=0.085033


Tree=95
num_leaves=8
num_cat=0
split_feature=3 3 6 2 0 0 1
split_gain=2.00481 2.76403 3.98288 2.10178 1.79423 15.0943 2.90705
threshold=387.50000000000006 527.50000000000011 8.0000000000000018 1.0000000180025095e-35 1.5000000000000002 2.5000000000000004 587.50000000000011
decision_type=2 2 2 2 2 2 2
left_child=4 2 -2 -3 6 -6 -1
right_child=1 3 -4 -5 5 -7 -8
leaf_value=-0.0056295670246132223 0.0025568155428821932 -0.001528066504387118 -0.0020197566939801946 0.0018125113616945826 0.02708893364493899 -0.0012161916268924387 -0.00066722288289818564
leaf_weight=1398 6222 5693 1765 1790 144 2523 2192
leaf_count=1398 6222 5693 1765 1790 144 2523 2192
internal_value=0 0.000445297 0.00154547 -0.000728971 -0.00135853 0.000312094 -0.00259963
internal_weight=0 15470 7987 7483 6257 2667 3590
internal_count=21727 15470 7987 7483 6257 2667 3590
is_linear=0
shrinkage=0.085033


Tree=96
num_leaves=8
num_cat=0
split_feature=1 1 1 1 3 3 3
split_gain=1.83184 2.46007 1.91852 5.79439 1.88954 1.65406 0.397226
threshold=479.33500000000009 476.83500000000009 535.62500000000011 574.1600000000002 548.00000000000011 700.50000000000011 591.50000000000011
decision_type=2 2 2 2 2 2 2
left_child=1 4 5 -4 -1 -2 -3
right_child=2 6 3 -5 -6 -7 -8
leaf_value=0.0004180534515669951 0.0021066361302332216 -0.021777707555977157 -0.008835846162471404 0.00085027042885034204 -0.0026930648581511914 0.0085172175582587661 -0.0098600212251140178
leaf_weight=3991 1222 39 462 13365 2184 382 42
leaf_count=3991 1222 39 462 13365 2184 382 42
internal_value=0 -0.000875424 0.000849562 0.000526629 -0.0006823 0.00363335 -0.0155982
internal_weight=0 6256 15431 13827 6175 1604 81
internal_count=21687 6256 15431 13827 6175 1604 81
is_linear=0
shrinkage=0.085033


Tree=97
num_leaves=8
num_cat=0
split_feature=4 4 4 3 1 4 1
split_gain=1.5181 6.06753 3.28555 9.55091 5.43223 2.93214 2.32712
threshold=22.500000000000004 20.500000000000004 33.500000000000007 700.50000000000011 592.93750000000011 19.500000000000004 495.00000000000006
decision_type=2 2 2 2 2 2 2
left_child=1 5 3 -2 -4 -1 -3
right_child=2 6 4 -5 -6 -7 -8
leaf_value=0.00037755875167448346 -0.0033541496410183151 0.0035016861379582672 -0.00062912534517773841 0.0049413139737848255 0.0050115817068092658 -0.013417382986492908 0.010364054536532896
leaf_weight=7912 4946 978 3901 1259 1806 113 563
leaf_count=7912 4946 978 3901 1259 1806 113 563
internal_value=0 0.00112175 -0.00031664 -0.00167099 0.0011559 0.000183312 0.00600883
internal_weight=0 9566 11912 6205 5707 8025 1541
internal_count=21478 9566 11912 6205 5707 8025 1541
is_linear=0
shrinkage=0.085033


Tree=98
num_leaves=6
num_cat=0
split_feature=6 0 0 6 1
split_gain=2.00457 2.11217 4.83571 4.37582 0.041376
threshold=117.50000000000001 4.5000000000000009 1.5000000000000002 1.0000000180025095e-35 386.24575000000004
decision_type=2 2 2 2 2
left_child=1 2 -1 -3 -2
right_child=4 3 -4 -5 -6
leaf_value=-0.00042393448662267276 -0.011205451514889215 0.0035472054523256222 0.0031149633459555278 -0.0026560547570084153 -0.014997120980993183
leaf_weight=12308 38 1002 3611 4583 46
leaf_count=12308 38 1002 3611 4583 46
internal_value=0 -0.000120352 0.000378814 -0.00154313 -0.0132818
internal_weight=0 21504 15919 5585 84
internal_count=21588 21504 15919 5585 84
is_linear=0
shrinkage=0.085033


Tree=99
num_leaves=7
num_cat=0
split_feature=4 4 5 2 1 6
split_gain=1.82245 3.32778 1.35459 1.20129 1.07306 0.513803
threshold=3.5000000000000004 2.5000000000000004 5.5000000000000009 8.5000000000000018 1.0000000180025095e-35 4.5000000000000009
decision_type=2 2 2 2 2 2
left_child=1 5 -3 4 -2 -1
right_child=3 2 -4 -5 -6 -7
leaf_value=0.0082980080535679963 0.011548260156478796 -0.016332762533324215 0.00056083001340618828 -0.014672389524057618 -0.00013442107071517161 -0.0028819083290427543
leaf_weight=84 57 170 43 41 21253 46
leaf_count=84 57 170 43 41 21253 46
internal_value=0 -0.00637898 -0.0129223 -0.000131149 -0.000103172 0.00434204
internal_weight=0 343 213 21351 21310 130
internal_count=21694 343 213 21351 21310 130
is_linear=0
shrinkage=0.085033


end of trees

feature_importances:
Column_1=156
Column_3=147
Column_4=95
Column_6=77
Column_5=61
Column_0=59
Column_2=43

parameters:
[boosting: gbdt]
[objective: regression]
[metric: l2]
[tree_learner: serial]
[device_type: cpu]
[data_sample_strategy: bagging]
[data: ]
[valid: ]
[num_iterations: 100]
[learning_rate: 0.085033]
[num_leaves: 89]
[num_threads: 0]
[seed: 0]
[deterministic: 0]
[force_col_wise: 0]
[force_row_wise: 0]
[histogram_pool_size: -1]
[max_depth: 3]
[min_data_in_leaf: 38]
[min_sum_hessian_in_leaf: 0.001]
[bagging_fraction: 0.786204]
[pos_bagging_fraction: 1]
[neg_bagging_fraction: 1]
[bagging_freq: 1]
[bagging_seed: 3]
[feature_fraction: 0.774306]
[feature_fraction_bynode: 1]
[feature_fraction_seed: 2]
[extra_trees: 0]
[extra_seed: 6]
[early_stopping_round: 0]
[early_stopping_min_delta: 0]
[first_metric_only: 0]
[max_delta_step: 0]
[lambda_l1: 0]
[lambda_l2: 0]
[linear_lambda: 0]
[min_gain_to_split: 0]
[drop_rate: 0.1]
[max_drop: 50]
[skip_drop: 0.5]
[xgboost_dart_mode: 0]
[uniform_drop: 0]
[drop_seed: 4]
[top_rate: 0.2]
[other_rate: 0.1]
[min_data_per_group: 100]
[max_cat_threshold: 32]
[cat_l2: 10]
[cat_smooth: 10]
[max_cat_to_onehot: 4]
[top_k: 20]
[monotone_constraints: ]
[monotone_constraints_method: basic]
[monotone_penalty: 0]
[feature_contri: ]
[forcedsplits_filename: ]
[refit_decay_rate: 0.9]
[cegb_tradeoff: 1]
[cegb_penalty_split: 0]
[cegb_penalty_feature_lazy: ]
[cegb_penalty_feature_coupled: ]
[path_smooth: 0]
[interaction_constraints: ]
[verbosity: 1]
[saved_feature_importance_type: 0]
[use_quantized_grad: 0]
[num_grad_quant_bins: 4]
[quant_train_renew_leaf: 0]
[stochastic_rounding: 1]
[linear_tree: 0]
[max_bin: 255]
[max_bin_by_feature: ]
[min_data_in_bin: 3]
[bin_construct_sample_cnt: 200000]
[data_random_seed: 1]
[is_enable_sparse: 1]
[enable_bundle: 1]
[use_missing: 1]
[zero_as_missing: 0]
[feature_pre_filter: 1]
[pre_partition: 0]
[two_round: 0]
[header: 0]
[label_column: ]
[weight_column: ]
[group_column: ]
[ignore_column: ]
[categorical_feature: ]
[forcedbins_filename: ]
[precise_float_parser: 0]
[parser_config_file: ]
[objective_seed: 5]
[num_class: 1]
[is_unbalance: 0]
[scale_pos_weight: 1]
[sigmoid: 1]
[boost_from_average: 1]
[reg_sqrt: 0]
[alpha: 0.9]
[fair_c: 1]
[poisson_max_delta_step: 0.7]
[tweedie_variance_power: 1.5]
[lambdarank_truncation_level: 30]
[lambdarank_norm: 1]
[label_gain: ]
[lambdarank_position_bias_regularization: 0]
[eval_at: ]
[multi_error_top_k: 1]
[auc_mu_weights: ]
[num_machines: 1]
[local_listen_port: 12400]
[time_out: 120]
[machine_list_filename: ]
[machines: ]
[gpu_platform_id: -1]
[gpu_device_id: -1]
[gpu_use_dp: 0]
[num_gpu: 1]

end of parameters

pandas_categorical:null
